<?xml version="1.0" encoding="utf-8"?>
<Root>
  <ActivationFunctions>
    <Fn id="0" name="SteepenedSigmoid" prob="1" />
  </ActivationFunctions>
  <Networks>
    <Network id="11108" birthGen="276" fitness="29.595306396484375">
      <Nodes>
        <Node type="bias" id="0" />
        <Node type="in" id="1" />
        <Node type="in" id="2" />
        <Node type="in" id="3" />
        <Node type="in" id="4" />
        <Node type="in" id="5" />
        <Node type="in" id="6" />
        <Node type="out" id="7" />
        <Node type="out" id="8" />
        <Node type="out" id="9" />
        <Node type="hid" id="41" />
      </Nodes>
      <Connections>
        <Con id="22" src="4" tgt="7" wght="-1.7790774246686185" />
        <Con id="23" src="4" tgt="8" wght="-4.13194302992235" />
        <Con id="31" src="3" tgt="7" wght="4.0364889130312385" />
        <Con id="33" src="6" tgt="8" wght="1.4505425307036059" />
        <Con id="36" src="3" tgt="8" wght="2.6882922617695679" />
        <Con id="38" src="6" tgt="7" wght="-4.6570507772871848" />
        <Con id="43" src="41" tgt="7" wght="-0.20534847462679759" />
        <Con id="48" src="0" tgt="9" wght="-0.22441386906024663" />
        <Con id="49" src="41" tgt="9" wght="-2.2569143870620554" />
        <Con id="61" src="5" tgt="9" wght="1.2461749101608544" />
      </Connections>
    </Network>
  </Networks>
</Root>