<?xml version="1.0" encoding="utf-8"?>
<Root>
  <ActivationFunctions>
    <Fn id="0" name="SteepenedSigmoid" prob="1" />
  </ActivationFunctions>
  <Networks>
    <Network id="18027" birthGen="445" fitness="30.4178409576416">
      <Nodes>
        <Node type="bias" id="0" />
        <Node type="in" id="1" />
        <Node type="in" id="2" />
        <Node type="in" id="3" />
        <Node type="in" id="4" />
        <Node type="in" id="5" />
        <Node type="in" id="6" />
        <Node type="out" id="7" />
        <Node type="out" id="8" />
        <Node type="out" id="9" />
        <Node type="hid" id="60" />
        <Node type="hid" id="83" />
      </Nodes>
      <Connections>
        <Con id="32" src="4" tgt="8" wght="1.6655512190588817" />
        <Con id="37" src="2" tgt="7" wght="0.30835728576344573" />
        <Con id="47" src="0" tgt="7" wght="-2.7831220838667612" />
        <Con id="51" src="1" tgt="7" wght="4.25466088754108" />
        <Con id="61" src="1" tgt="60" wght="-1.9431828245589637" />
        <Con id="62" src="60" tgt="8" wght="-4.9927996563355626" />
        <Con id="84" src="2" tgt="83" wght="0.75918712114799725" />
        <Con id="85" src="83" tgt="9" wght="0.23043154249324066" />
      </Connections>
    </Network>
  </Networks>
</Root>