<?xml version="1.0" encoding="utf-8"?>
<Root>
  <ActivationFunctions>
    <Fn id="0" name="SteepenedSigmoid" prob="1" />
  </ActivationFunctions>
  <Networks>
    <Network id="42463" birthGen="1052" fitness="22.348962783813477">
      <Nodes>
        <Node type="bias" id="0" />
        <Node type="in" id="1" />
        <Node type="in" id="2" />
        <Node type="in" id="3" />
        <Node type="in" id="4" />
        <Node type="in" id="5" />
        <Node type="in" id="6" />
        <Node type="out" id="7" />
        <Node type="out" id="8" />
        <Node type="out" id="9" />
      </Nodes>
      <Connections>
        <Con id="14" src="1" tgt="8" wght="-5" />
        <Con id="31" src="3" tgt="7" wght="0.9256915342417682" />
        <Con id="37" src="3" tgt="8" wght="0.32839873890622279" />
        <Con id="45" src="6" tgt="7" wght="3.3464210754383776" />
        <Con id="46" src="4" tgt="7" wght="-1.7316805268517939" />
        <Con id="48" src="2" tgt="7" wght="-5" />
        <Con id="49" src="0" tgt="7" wght="2.7808905721473978" />
        <Con id="85" src="1" tgt="9" wght="2.9123152856702719" />
      </Connections>
    </Network>
    <Network id="34466" birthGen="852" fitness="29.599756240844727">
      <Nodes>
        <Node type="bias" id="0" />
        <Node type="in" id="1" />
        <Node type="in" id="2" />
        <Node type="in" id="3" />
        <Node type="in" id="4" />
        <Node type="in" id="5" />
        <Node type="in" id="6" />
        <Node type="out" id="7" />
        <Node type="out" id="8" />
        <Node type="out" id="9" />
        <Node type="hid" id="86" />
      </Nodes>
      <Connections>
        <Con id="14" src="1" tgt="8" wght="-5" />
        <Con id="31" src="3" tgt="7" wght="0.95317581844502142" />
        <Con id="37" src="3" tgt="8" wght="0.36885851441596423" />
        <Con id="45" src="6" tgt="7" wght="3.3464210754383776" />
        <Con id="46" src="4" tgt="7" wght="-1.7152126421425247" />
        <Con id="48" src="2" tgt="7" wght="-5" />
        <Con id="49" src="0" tgt="7" wght="2.7808905721473978" />
        <Con id="85" src="1" tgt="9" wght="2.9123152856702719" />
        <Con id="87" src="4" tgt="86" wght="1.0599306602887626" />
      </Connections>
    </Network>
    <Network id="42465" birthGen="1052" fitness="29.589639663696289">
      <Nodes>
        <Node type="bias" id="0" />
        <Node type="in" id="1" />
        <Node type="in" id="2" />
        <Node type="in" id="3" />
        <Node type="in" id="4" />
        <Node type="in" id="5" />
        <Node type="in" id="6" />
        <Node type="out" id="7" />
        <Node type="out" id="8" />
        <Node type="out" id="9" />
        <Node type="hid" id="86" />
      </Nodes>
      <Connections>
        <Con id="14" src="1" tgt="8" wght="-5" />
        <Con id="31" src="3" tgt="7" wght="0.95317581844502142" />
        <Con id="37" src="3" tgt="8" wght="0.36885851441596423" />
        <Con id="46" src="4" tgt="7" wght="-1.7152126421425247" />
        <Con id="48" src="2" tgt="7" wght="-5" />
        <Con id="49" src="0" tgt="7" wght="2.7808905721473978" />
        <Con id="85" src="1" tgt="9" wght="2.9123152856702719" />
        <Con id="87" src="4" tgt="86" wght="1.0599306602887626" />
      </Connections>
    </Network>
    <Network id="42497" birthGen="1052" fitness="29.590835571289063">
      <Nodes>
        <Node type="bias" id="0" />
        <Node type="in" id="1" />
        <Node type="in" id="2" />
        <Node type="in" id="3" />
        <Node type="in" id="4" />
        <Node type="in" id="5" />
        <Node type="in" id="6" />
        <Node type="out" id="7" />
        <Node type="out" id="8" />
        <Node type="out" id="9" />
        <Node type="hid" id="149" />
      </Nodes>
      <Connections>
        <Con id="14" src="1" tgt="8" wght="-5" />
        <Con id="37" src="3" tgt="8" wght="0.37408943558818508" />
        <Con id="45" src="6" tgt="7" wght="1.853001019251866" />
        <Con id="46" src="4" tgt="7" wght="-2.2927640096899533" />
        <Con id="48" src="2" tgt="7" wght="-4.8798404315562491" />
        <Con id="49" src="0" tgt="7" wght="5" />
        <Con id="112" src="0" tgt="9" wght="2.3889541575047075" />
        <Con id="151" src="149" tgt="7" wght="-4.1174465756407779" />
      </Connections>
    </Network>
    <Network id="42499" birthGen="1052" fitness="29.49351692199707">
      <Nodes>
        <Node type="bias" id="0" />
        <Node type="in" id="1" />
        <Node type="in" id="2" />
        <Node type="in" id="3" />
        <Node type="in" id="4" />
        <Node type="in" id="5" />
        <Node type="in" id="6" />
        <Node type="out" id="7" />
        <Node type="out" id="8" />
        <Node type="out" id="9" />
        <Node type="hid" id="149" />
      </Nodes>
      <Connections>
        <Con id="14" src="1" tgt="8" wght="-4.994483832832084" />
        <Con id="37" src="3" tgt="8" wght="0.37408943558818508" />
        <Con id="45" src="6" tgt="7" wght="1.853001019251866" />
        <Con id="46" src="4" tgt="7" wght="-2.2818852221348522" />
        <Con id="48" src="2" tgt="7" wght="-4.8798404315562491" />
        <Con id="49" src="0" tgt="7" wght="5" />
        <Con id="112" src="0" tgt="9" wght="2.3889541575047075" />
        <Con id="151" src="149" tgt="7" wght="-4.1174465756407779" />
      </Connections>
    </Network>
    <Network id="42441" birthGen="1051" fitness="22.454931259155273">
      <Nodes>
        <Node type="bias" id="0" />
        <Node type="in" id="1" />
        <Node type="in" id="2" />
        <Node type="in" id="3" />
        <Node type="in" id="4" />
        <Node type="in" id="5" />
        <Node type="in" id="6" />
        <Node type="out" id="7" />
        <Node type="out" id="8" />
        <Node type="out" id="9" />
        <Node type="hid" id="86" />
        <Node type="hid" id="149" />
      </Nodes>
      <Connections>
        <Con id="14" src="1" tgt="8" wght="-5" />
        <Con id="31" src="3" tgt="7" wght="3.5368752651464344" />
        <Con id="37" src="3" tgt="8" wght="0.37408943558818508" />
        <Con id="46" src="4" tgt="7" wght="-2.28057401824682" />
        <Con id="48" src="2" tgt="7" wght="-5" />
        <Con id="49" src="0" tgt="7" wght="3.2339168483233616" />
        <Con id="85" src="1" tgt="9" wght="3.4875583602115512" />
        <Con id="87" src="4" tgt="86" wght="-0.061186240106201231" />
        <Con id="151" src="149" tgt="7" wght="0.57809950783848763" />
      </Connections>
    </Network>
    <Network id="42314" birthGen="1048" fitness="29.563262939453125">
      <Nodes>
        <Node type="bias" id="0" />
        <Node type="in" id="1" />
        <Node type="in" id="2" />
        <Node type="in" id="3" />
        <Node type="in" id="4" />
        <Node type="in" id="5" />
        <Node type="in" id="6" />
        <Node type="out" id="7" />
        <Node type="out" id="8" />
        <Node type="out" id="9" />
      </Nodes>
      <Connections>
        <Con id="14" src="1" tgt="8" wght="-4.9599221111043637" />
        <Con id="31" src="3" tgt="7" wght="2.465488483802162" />
        <Con id="37" src="3" tgt="8" wght="0.35606346532559996" />
        <Con id="48" src="2" tgt="7" wght="-4.9423868689578692" />
        <Con id="85" src="1" tgt="9" wght="2.3947385071583938" />
      </Connections>
    </Network>
    <Network id="42472" birthGen="1052" fitness="29.563161849975586">
      <Nodes>
        <Node type="bias" id="0" />
        <Node type="in" id="1" />
        <Node type="in" id="2" />
        <Node type="in" id="3" />
        <Node type="in" id="4" />
        <Node type="in" id="5" />
        <Node type="in" id="6" />
        <Node type="out" id="7" />
        <Node type="out" id="8" />
        <Node type="out" id="9" />
        <Node type="hid" id="149" />
      </Nodes>
      <Connections>
        <Con id="14" src="1" tgt="8" wght="-5" />
        <Con id="31" src="3" tgt="7" wght="3.5368752651464344" />
        <Con id="37" src="3" tgt="8" wght="0.37408943558818508" />
        <Con id="46" src="4" tgt="7" wght="-1.1673752706810916" />
        <Con id="48" src="2" tgt="7" wght="-5" />
        <Con id="49" src="0" tgt="7" wght="3.2339168483233616" />
        <Con id="85" src="1" tgt="9" wght="4.3297729334303012" />
        <Con id="151" src="149" tgt="7" wght="-4.9071468103344476" />
      </Connections>
    </Network>
    <Network id="42485" birthGen="1052" fitness="29.562896728515625">
      <Nodes>
        <Node type="bias" id="0" />
        <Node type="in" id="1" />
        <Node type="in" id="2" />
        <Node type="in" id="3" />
        <Node type="in" id="4" />
        <Node type="in" id="5" />
        <Node type="in" id="6" />
        <Node type="out" id="7" />
        <Node type="out" id="8" />
        <Node type="out" id="9" />
        <Node type="hid" id="86" />
      </Nodes>
      <Connections>
        <Con id="14" src="1" tgt="8" wght="-5" />
        <Con id="37" src="3" tgt="8" wght="0.35606346532559996" />
        <Con id="46" src="4" tgt="7" wght="3.3776771660497857" />
        <Con id="48" src="2" tgt="7" wght="-4.9423868689578692" />
        <Con id="69" src="5" tgt="9" wght="3.8683838096746976" />
        <Con id="87" src="4" tgt="86" wght="-5" />
      </Connections>
    </Network>
    <Network id="42482" birthGen="1052" fitness="29.562709808349609">
      <Nodes>
        <Node type="bias" id="0" />
        <Node type="in" id="1" />
        <Node type="in" id="2" />
        <Node type="in" id="3" />
        <Node type="in" id="4" />
        <Node type="in" id="5" />
        <Node type="in" id="6" />
        <Node type="out" id="7" />
        <Node type="out" id="8" />
        <Node type="out" id="9" />
        <Node type="hid" id="86" />
      </Nodes>
      <Connections>
        <Con id="14" src="1" tgt="8" wght="-5" />
        <Con id="37" src="3" tgt="8" wght="0.3546171519945932" />
        <Con id="46" src="4" tgt="7" wght="3.3776771660497857" />
        <Con id="48" src="2" tgt="7" wght="-4.9155464223874761" />
        <Con id="69" src="5" tgt="9" wght="3.8600017523174328" />
        <Con id="85" src="1" tgt="9" wght="2.3947385071583938" />
        <Con id="87" src="4" tgt="86" wght="-5" />
      </Connections>
    </Network>
    <Network id="42490" birthGen="1052" fitness="29.55406379699707">
      <Nodes>
        <Node type="bias" id="0" />
        <Node type="in" id="1" />
        <Node type="in" id="2" />
        <Node type="in" id="3" />
        <Node type="in" id="4" />
        <Node type="in" id="5" />
        <Node type="in" id="6" />
        <Node type="out" id="7" />
        <Node type="out" id="8" />
        <Node type="out" id="9" />
      </Nodes>
      <Connections>
        <Con id="14" src="1" tgt="8" wght="-4.9599221111043637" />
        <Con id="37" src="3" tgt="8" wght="0.35606346532559996" />
        <Con id="46" src="4" tgt="7" wght="1.786647266301929" />
        <Con id="48" src="2" tgt="7" wght="-3.998331477938287" />
        <Con id="85" src="1" tgt="9" wght="2.3742642607358793" />
      </Connections>
    </Network>
    <Network id="42496" birthGen="1052" fitness="29.576347351074219">
      <Nodes>
        <Node type="bias" id="0" />
        <Node type="in" id="1" />
        <Node type="in" id="2" />
        <Node type="in" id="3" />
        <Node type="in" id="4" />
        <Node type="in" id="5" />
        <Node type="in" id="6" />
        <Node type="out" id="7" />
        <Node type="out" id="8" />
        <Node type="out" id="9" />
        <Node type="hid" id="86" />
        <Node type="hid" id="149" />
      </Nodes>
      <Connections>
        <Con id="14" src="1" tgt="8" wght="-4.9818821920623151" />
        <Con id="31" src="3" tgt="7" wght="3.5287463890073574" />
        <Con id="37" src="3" tgt="8" wght="0.3611864902449255" />
        <Con id="46" src="4" tgt="7" wght="1.7497788149500144" />
        <Con id="48" src="2" tgt="7" wght="1.2971925223246217" />
        <Con id="49" src="0" tgt="7" wght="-4.66711343953223" />
        <Con id="85" src="1" tgt="9" wght="1.7212665486665564" />
        <Con id="87" src="4" tgt="86" wght="-0.061186240106201231" />
        <Con id="151" src="149" tgt="7" wght="-4.7653660012868011" />
      </Connections>
    </Network>
    <Network id="42501" birthGen="1053" fitness="18.168718338012695">
      <Nodes>
        <Node type="bias" id="0" />
        <Node type="in" id="1" />
        <Node type="in" id="2" />
        <Node type="in" id="3" />
        <Node type="in" id="4" />
        <Node type="in" id="5" />
        <Node type="in" id="6" />
        <Node type="out" id="7" />
        <Node type="out" id="8" />
        <Node type="out" id="9" />
      </Nodes>
      <Connections>
        <Con id="14" src="1" tgt="8" wght="-5" />
        <Con id="31" src="3" tgt="7" wght="0.9256915342417682" />
        <Con id="37" src="3" tgt="8" wght="0.32839873890622279" />
        <Con id="45" src="6" tgt="7" wght="3.3464210754383776" />
        <Con id="46" src="4" tgt="7" wght="-2.7340787789480494" />
        <Con id="48" src="2" tgt="7" wght="-5" />
        <Con id="49" src="0" tgt="7" wght="3.3230240073683364" />
        <Con id="85" src="1" tgt="9" wght="1.4747975104134505" />
      </Connections>
    </Network>
    <Network id="42502" birthGen="1053" fitness="16.138208389282227">
      <Nodes>
        <Node type="bias" id="0" />
        <Node type="in" id="1" />
        <Node type="in" id="2" />
        <Node type="in" id="3" />
        <Node type="in" id="4" />
        <Node type="in" id="5" />
        <Node type="in" id="6" />
        <Node type="out" id="7" />
        <Node type="out" id="8" />
        <Node type="out" id="9" />
      </Nodes>
      <Connections>
        <Con id="14" src="1" tgt="8" wght="-5" />
        <Con id="31" src="3" tgt="7" wght="0.9256915342417682" />
        <Con id="37" src="3" tgt="8" wght="0.32839873890622279" />
        <Con id="46" src="4" tgt="7" wght="-1.7316805268517939" />
        <Con id="48" src="2" tgt="7" wght="-5" />
        <Con id="49" src="0" tgt="7" wght="2.7808905721473978" />
        <Con id="85" src="1" tgt="9" wght="2.9123152856702719" />
      </Connections>
    </Network>
    <Network id="42503" birthGen="1053" fitness="21.310920715332031">
      <Nodes>
        <Node type="bias" id="0" />
        <Node type="in" id="1" />
        <Node type="in" id="2" />
        <Node type="in" id="3" />
        <Node type="in" id="4" />
        <Node type="in" id="5" />
        <Node type="in" id="6" />
        <Node type="out" id="7" />
        <Node type="out" id="8" />
        <Node type="out" id="9" />
      </Nodes>
      <Connections>
        <Con id="14" src="1" tgt="8" wght="-5" />
        <Con id="31" src="3" tgt="7" wght="0.9256915342417682" />
        <Con id="37" src="3" tgt="8" wght="0.32839873890622279" />
        <Con id="45" src="6" tgt="7" wght="3.3344859680231167" />
        <Con id="46" src="4" tgt="7" wght="-1.7316805268517939" />
        <Con id="48" src="2" tgt="7" wght="-5" />
        <Con id="49" src="0" tgt="7" wght="2.7808905721473978" />
        <Con id="85" src="1" tgt="9" wght="2.9294007407235871" />
      </Connections>
    </Network>
    <Network id="42504" birthGen="1053" fitness="0.046388715505599976">
      <Nodes>
        <Node type="bias" id="0" />
        <Node type="in" id="1" />
        <Node type="in" id="2" />
        <Node type="in" id="3" />
        <Node type="in" id="4" />
        <Node type="in" id="5" />
        <Node type="in" id="6" />
        <Node type="out" id="7" />
        <Node type="out" id="8" />
        <Node type="out" id="9" />
        <Node type="hid" id="86" />
      </Nodes>
      <Connections>
        <Con id="14" src="1" tgt="8" wght="-5" />
        <Con id="31" src="3" tgt="7" wght="0.95317581844502142" />
        <Con id="37" src="3" tgt="8" wght="0.36885851441596423" />
        <Con id="46" src="4" tgt="7" wght="-1.7152126421425247" />
        <Con id="49" src="0" tgt="7" wght="2.7808905721473978" />
        <Con id="85" src="1" tgt="9" wght="2.9123152856702719" />
        <Con id="87" src="4" tgt="86" wght="1.0599306602887626" />
      </Connections>
    </Network>
    <Network id="42505" birthGen="1053" fitness="0">
      <Nodes>
        <Node type="bias" id="0" />
        <Node type="in" id="1" />
        <Node type="in" id="2" />
        <Node type="in" id="3" />
        <Node type="in" id="4" />
        <Node type="in" id="5" />
        <Node type="in" id="6" />
        <Node type="out" id="7" />
        <Node type="out" id="8" />
        <Node type="out" id="9" />
        <Node type="hid" id="86" />
      </Nodes>
      <Connections>
        <Con id="14" src="1" tgt="8" wght="-5" />
        <Con id="31" src="3" tgt="7" wght="0.95317581844502142" />
        <Con id="37" src="3" tgt="8" wght="0.36885851441596423" />
        <Con id="46" src="4" tgt="7" wght="-1.7152126421425247" />
        <Con id="48" src="2" tgt="7" wght="-5" />
        <Con id="49" src="0" tgt="7" wght="0.68542780354619026" />
        <Con id="85" src="1" tgt="9" wght="2.9123152856702719" />
        <Con id="87" src="4" tgt="86" wght="0.51280373707413673" />
      </Connections>
    </Network>
    <Network id="42506" birthGen="1053" fitness="28.466039657592773">
      <Nodes>
        <Node type="bias" id="0" />
        <Node type="in" id="1" />
        <Node type="in" id="2" />
        <Node type="in" id="3" />
        <Node type="in" id="4" />
        <Node type="in" id="5" />
        <Node type="in" id="6" />
        <Node type="out" id="7" />
        <Node type="out" id="8" />
        <Node type="out" id="9" />
        <Node type="hid" id="149" />
      </Nodes>
      <Connections>
        <Con id="14" src="1" tgt="8" wght="-5" />
        <Con id="37" src="3" tgt="8" wght="0.37408943558818508" />
        <Con id="45" src="6" tgt="7" wght="3.1671818553423003" />
        <Con id="46" src="4" tgt="7" wght="-2.2927640096899533" />
        <Con id="48" src="2" tgt="7" wght="-4.8798404315562491" />
        <Con id="49" src="0" tgt="7" wght="5" />
        <Con id="112" src="0" tgt="9" wght="3.9682277105173394" />
        <Con id="151" src="149" tgt="7" wght="-4.1174465756407779" />
      </Connections>
    </Network>
    <Network id="42507" birthGen="1053" fitness="5.3056139945983887">
      <Nodes>
        <Node type="bias" id="0" />
        <Node type="in" id="1" />
        <Node type="in" id="2" />
        <Node type="in" id="3" />
        <Node type="in" id="4" />
        <Node type="in" id="5" />
        <Node type="in" id="6" />
        <Node type="out" id="7" />
        <Node type="out" id="8" />
        <Node type="out" id="9" />
        <Node type="hid" id="149" />
      </Nodes>
      <Connections>
        <Con id="14" src="1" tgt="8" wght="-5" />
        <Con id="37" src="3" tgt="8" wght="0.91409289900342194" />
        <Con id="45" src="6" tgt="7" wght="1.853001019251866" />
        <Con id="46" src="4" tgt="7" wght="-2.2927640096899533" />
        <Con id="48" src="2" tgt="7" wght="-4.8798404315562491" />
        <Con id="49" src="0" tgt="7" wght="5" />
        <Con id="112" src="0" tgt="9" wght="2.3889541575047075" />
        <Con id="151" src="149" tgt="7" wght="-3.7952204900974138" />
      </Connections>
    </Network>
    <Network id="42508" birthGen="1053" fitness="0.43543159961700439">
      <Nodes>
        <Node type="bias" id="0" />
        <Node type="in" id="1" />
        <Node type="in" id="2" />
        <Node type="in" id="3" />
        <Node type="in" id="4" />
        <Node type="in" id="5" />
        <Node type="in" id="6" />
        <Node type="out" id="7" />
        <Node type="out" id="8" />
        <Node type="out" id="9" />
        <Node type="hid" id="86" />
        <Node type="hid" id="149" />
      </Nodes>
      <Connections>
        <Con id="14" src="1" tgt="8" wght="-5" />
        <Con id="31" src="3" tgt="7" wght="3.873643258938344" />
        <Con id="37" src="3" tgt="8" wght="0.37430283841661033" />
        <Con id="46" src="4" tgt="7" wght="-1.6921461347541162" />
        <Con id="48" src="2" tgt="7" wght="-5" />
        <Con id="49" src="0" tgt="7" wght="4.3093646969425068" />
        <Con id="87" src="4" tgt="86" wght="0.746985106833864" />
        <Con id="146" src="5" tgt="86" wght="3.9098195169728296" />
        <Con id="150" src="4" tgt="149" wght="-1.7598189679221017" />
      </Connections>
    </Network>
    <Network id="42509" birthGen="1053" fitness="27.3566837310791">
      <Nodes>
        <Node type="bias" id="0" />
        <Node type="in" id="1" />
        <Node type="in" id="2" />
        <Node type="in" id="3" />
        <Node type="in" id="4" />
        <Node type="in" id="5" />
        <Node type="in" id="6" />
        <Node type="out" id="7" />
        <Node type="out" id="8" />
        <Node type="out" id="9" />
        <Node type="hid" id="86" />
        <Node type="hid" id="149" />
      </Nodes>
      <Connections>
        <Con id="14" src="1" tgt="8" wght="-5" />
        <Con id="31" src="3" tgt="7" wght="5" />
        <Con id="37" src="3" tgt="8" wght="0.37430283841661033" />
        <Con id="46" src="4" tgt="7" wght="-1.6921461347541162" />
        <Con id="48" src="2" tgt="7" wght="-5" />
        <Con id="49" src="0" tgt="7" wght="4.3093646969425068" />
        <Con id="87" src="4" tgt="86" wght="0.746985106833864" />
        <Con id="112" src="0" tgt="9" wght="2.3444042215123773" />
        <Con id="146" src="5" tgt="86" wght="3.9098195169728296" />
        <Con id="150" src="4" tgt="149" wght="-1.7598189679221017" />
      </Connections>
    </Network>
    <Network id="42510" birthGen="1053" fitness="26.275190353393555">
      <Nodes>
        <Node type="bias" id="0" />
        <Node type="in" id="1" />
        <Node type="in" id="2" />
        <Node type="in" id="3" />
        <Node type="in" id="4" />
        <Node type="in" id="5" />
        <Node type="in" id="6" />
        <Node type="out" id="7" />
        <Node type="out" id="8" />
        <Node type="out" id="9" />
        <Node type="hid" id="86" />
        <Node type="hid" id="149" />
      </Nodes>
      <Connections>
        <Con id="14" src="1" tgt="8" wght="-5" />
        <Con id="31" src="3" tgt="7" wght="3.873643258938344" />
        <Con id="37" src="3" tgt="8" wght="0.37430283841661033" />
        <Con id="46" src="4" tgt="7" wght="-2.8255354236503281" />
        <Con id="48" src="2" tgt="7" wght="-5" />
        <Con id="49" src="0" tgt="7" wght="4.0784419419880242" />
        <Con id="87" src="4" tgt="86" wght="0.746985106833864" />
        <Con id="112" src="0" tgt="9" wght="2.3444042215123773" />
        <Con id="146" src="5" tgt="86" wght="3.9098195169728296" />
        <Con id="150" src="4" tgt="149" wght="-1.337922697994866" />
      </Connections>
    </Network>
    <Network id="42511" birthGen="1053" fitness="29.569490432739258">
      <Nodes>
        <Node type="bias" id="0" />
        <Node type="in" id="1" />
        <Node type="in" id="2" />
        <Node type="in" id="3" />
        <Node type="in" id="4" />
        <Node type="in" id="5" />
        <Node type="in" id="6" />
        <Node type="out" id="7" />
        <Node type="out" id="8" />
        <Node type="out" id="9" />
        <Node type="hid" id="86" />
        <Node type="hid" id="149" />
      </Nodes>
      <Connections>
        <Con id="14" src="1" tgt="8" wght="-5" />
        <Con id="31" src="3" tgt="7" wght="3.873643258938344" />
        <Con id="37" src="3" tgt="8" wght="0.37430283841661033" />
        <Con id="46" src="4" tgt="7" wght="-1.6921461347541162" />
        <Con id="48" src="2" tgt="7" wght="-5" />
        <Con id="49" src="0" tgt="7" wght="4.2841806374197056" />
        <Con id="87" src="4" tgt="86" wght="0.746985106833864" />
        <Con id="112" src="0" tgt="9" wght="2.3444042215123773" />
        <Con id="146" src="5" tgt="86" wght="3.9098195169728296" />
        <Con id="150" src="4" tgt="149" wght="-1.7598189679221017" />
      </Connections>
    </Network>
    <Network id="42512" birthGen="1053" fitness="2.2901003360748291">
      <Nodes>
        <Node type="bias" id="0" />
        <Node type="in" id="1" />
        <Node type="in" id="2" />
        <Node type="in" id="3" />
        <Node type="in" id="4" />
        <Node type="in" id="5" />
        <Node type="in" id="6" />
        <Node type="out" id="7" />
        <Node type="out" id="8" />
        <Node type="out" id="9" />
        <Node type="hid" id="86" />
        <Node type="hid" id="149" />
      </Nodes>
      <Connections>
        <Con id="14" src="1" tgt="8" wght="1.6639930428937078" />
        <Con id="31" src="3" tgt="7" wght="2.2072479361668229" />
        <Con id="37" src="3" tgt="8" wght="0.37430283841661033" />
        <Con id="46" src="4" tgt="7" wght="-1.6921461347541162" />
        <Con id="48" src="2" tgt="7" wght="-5" />
        <Con id="49" src="0" tgt="7" wght="4.3093646969425068" />
        <Con id="87" src="4" tgt="86" wght="3.2604288542643189" />
        <Con id="112" src="0" tgt="9" wght="2.3444042215123773" />
        <Con id="146" src="5" tgt="86" wght="3.9098195169728296" />
        <Con id="150" src="4" tgt="149" wght="-1.7598189679221017" />
      </Connections>
    </Network>
    <Network id="42513" birthGen="1053" fitness="27.354156494140625">
      <Nodes>
        <Node type="bias" id="0" />
        <Node type="in" id="1" />
        <Node type="in" id="2" />
        <Node type="in" id="3" />
        <Node type="in" id="4" />
        <Node type="in" id="5" />
        <Node type="in" id="6" />
        <Node type="out" id="7" />
        <Node type="out" id="8" />
        <Node type="out" id="9" />
        <Node type="hid" id="86" />
        <Node type="hid" id="149" />
      </Nodes>
      <Connections>
        <Con id="14" src="1" tgt="8" wght="-5" />
        <Con id="31" src="3" tgt="7" wght="3.873643258938344" />
        <Con id="37" src="3" tgt="8" wght="0.37430283841661033" />
        <Con id="46" src="4" tgt="7" wght="-1.6921461347541162" />
        <Con id="48" src="2" tgt="7" wght="-5" />
        <Con id="49" src="0" tgt="7" wght="4.3093646969425068" />
        <Con id="112" src="0" tgt="9" wght="2.3444042215123773" />
        <Con id="146" src="5" tgt="86" wght="3.9098195169728296" />
        <Con id="150" src="4" tgt="149" wght="-1.7598189679221017" />
      </Connections>
    </Network>
    <Network id="42514" birthGen="1053" fitness="29.561683654785156">
      <Nodes>
        <Node type="bias" id="0" />
        <Node type="in" id="1" />
        <Node type="in" id="2" />
        <Node type="in" id="3" />
        <Node type="in" id="4" />
        <Node type="in" id="5" />
        <Node type="in" id="6" />
        <Node type="out" id="7" />
        <Node type="out" id="8" />
        <Node type="out" id="9" />
        <Node type="hid" id="86" />
        <Node type="hid" id="149" />
      </Nodes>
      <Connections>
        <Con id="14" src="1" tgt="8" wght="-5" />
        <Con id="31" src="3" tgt="7" wght="3.873643258938344" />
        <Con id="37" src="3" tgt="8" wght="0.37430283841661033" />
        <Con id="46" src="4" tgt="7" wght="-1.6921461347541162" />
        <Con id="48" src="2" tgt="7" wght="-5" />
        <Con id="49" src="0" tgt="7" wght="4.3031736076708658" />
        <Con id="87" src="4" tgt="86" wght="0.746985106833864" />
        <Con id="112" src="0" tgt="9" wght="2.3444042215123773" />
        <Con id="146" src="5" tgt="86" wght="3.9098195169728296" />
        <Con id="150" src="4" tgt="149" wght="-1.7598189679221017" />
      </Connections>
    </Network>
    <Network id="42515" birthGen="1053" fitness="0">
      <Nodes>
        <Node type="bias" id="0" />
        <Node type="in" id="1" />
        <Node type="in" id="2" />
        <Node type="in" id="3" />
        <Node type="in" id="4" />
        <Node type="in" id="5" />
        <Node type="in" id="6" />
        <Node type="out" id="7" />
        <Node type="out" id="8" />
        <Node type="out" id="9" />
        <Node type="hid" id="86" />
        <Node type="hid" id="149" />
      </Nodes>
      <Connections>
        <Con id="14" src="1" tgt="8" wght="-5" />
        <Con id="37" src="3" tgt="8" wght="0.37408943558818508" />
        <Con id="46" src="4" tgt="7" wght="-2.28057401824682" />
        <Con id="48" src="2" tgt="7" wght="-5" />
        <Con id="49" src="0" tgt="7" wght="2.9542495924909811" />
        <Con id="85" src="1" tgt="9" wght="2.2330921588755026" />
        <Con id="146" src="5" tgt="86" wght="3.9098195169728296" />
        <Con id="150" src="4" tgt="149" wght="-2.5806884274507214" />
        <Con id="151" src="149" tgt="7" wght="-4.5525206971394905" />
      </Connections>
    </Network>
    <Network id="42516" birthGen="1053" fitness="29.579883575439453">
      <Nodes>
        <Node type="bias" id="0" />
        <Node type="in" id="1" />
        <Node type="in" id="2" />
        <Node type="in" id="3" />
        <Node type="in" id="4" />
        <Node type="in" id="5" />
        <Node type="in" id="6" />
        <Node type="out" id="7" />
        <Node type="out" id="8" />
        <Node type="out" id="9" />
        <Node type="hid" id="86" />
        <Node type="hid" id="149" />
      </Nodes>
      <Connections>
        <Con id="14" src="1" tgt="8" wght="-4.9450601777732643" />
        <Con id="37" src="3" tgt="8" wght="0.37408943558818508" />
        <Con id="46" src="4" tgt="7" wght="-2.28057401824682" />
        <Con id="48" src="2" tgt="7" wght="-5" />
        <Con id="49" src="0" tgt="7" wght="4.9707820570452315" />
        <Con id="85" src="1" tgt="9" wght="2.2330921588755026" />
        <Con id="146" src="5" tgt="86" wght="3.9098195169728296" />
        <Con id="150" src="4" tgt="149" wght="-2.5806884274507214" />
        <Con id="151" src="149" tgt="7" wght="-4.5525206971394905" />
      </Connections>
    </Network>
    <Network id="42517" birthGen="1053" fitness="29.559867858886719">
      <Nodes>
        <Node type="bias" id="0" />
        <Node type="in" id="1" />
        <Node type="in" id="2" />
        <Node type="in" id="3" />
        <Node type="in" id="4" />
        <Node type="in" id="5" />
        <Node type="in" id="6" />
        <Node type="out" id="7" />
        <Node type="out" id="8" />
        <Node type="out" id="9" />
        <Node type="hid" id="86" />
        <Node type="hid" id="149" />
      </Nodes>
      <Connections>
        <Con id="14" src="1" tgt="8" wght="-5" />
        <Con id="37" src="3" tgt="8" wght="0.37408943558818508" />
        <Con id="46" src="4" tgt="7" wght="-2.28057401824682" />
        <Con id="48" src="2" tgt="7" wght="-5" />
        <Con id="49" src="0" tgt="7" wght="4.9707820570452315" />
        <Con id="85" src="1" tgt="9" wght="2.2330921588755026" />
        <Con id="146" src="5" tgt="86" wght="3.9098195169728296" />
        <Con id="150" src="4" tgt="149" wght="-2.5806884274507214" />
        <Con id="151" src="149" tgt="7" wght="-4.5780559269494177" />
      </Connections>
    </Network>
    <Network id="42518" birthGen="1053" fitness="28.47175407409668">
      <Nodes>
        <Node type="bias" id="0" />
        <Node type="in" id="1" />
        <Node type="in" id="2" />
        <Node type="in" id="3" />
        <Node type="in" id="4" />
        <Node type="in" id="5" />
        <Node type="in" id="6" />
        <Node type="out" id="7" />
        <Node type="out" id="8" />
        <Node type="out" id="9" />
        <Node type="hid" id="86" />
        <Node type="hid" id="149" />
      </Nodes>
      <Connections>
        <Con id="14" src="1" tgt="8" wght="-5" />
        <Con id="37" src="3" tgt="8" wght="0.35650482310935072" />
        <Con id="46" src="4" tgt="7" wght="-2.28057401824682" />
        <Con id="48" src="2" tgt="7" wght="-5" />
        <Con id="49" src="0" tgt="7" wght="4.9707820570452315" />
        <Con id="85" src="1" tgt="9" wght="2.2330921588755026" />
        <Con id="146" src="5" tgt="86" wght="3.9098195169728296" />
        <Con id="150" src="4" tgt="149" wght="-2.5464645119140745" />
        <Con id="151" src="149" tgt="7" wght="-4.57009361400561" />
      </Connections>
    </Network>
    <Network id="42519" birthGen="1053" fitness="0">
      <Nodes>
        <Node type="bias" id="0" />
        <Node type="in" id="1" />
        <Node type="in" id="2" />
        <Node type="in" id="3" />
        <Node type="in" id="4" />
        <Node type="in" id="5" />
        <Node type="in" id="6" />
        <Node type="out" id="7" />
        <Node type="out" id="8" />
        <Node type="out" id="9" />
        <Node type="hid" id="86" />
        <Node type="hid" id="149" />
      </Nodes>
      <Connections>
        <Con id="14" src="1" tgt="8" wght="-5" />
        <Con id="31" src="3" tgt="7" wght="0.79697790089994669" />
        <Con id="37" src="3" tgt="8" wght="0.1665038475766778" />
        <Con id="46" src="4" tgt="7" wght="-1.6921461347541162" />
        <Con id="48" src="2" tgt="7" wght="-5" />
        <Con id="49" src="0" tgt="7" wght="-2.7344860695302486" />
        <Con id="85" src="1" tgt="9" wght="3.4501353248909972" />
        <Con id="146" src="5" tgt="86" wght="3.9098195169728296" />
        <Con id="150" src="4" tgt="149" wght="-1.7598189679221017" />
        <Con id="151" src="149" tgt="7" wght="-4.5525206971394905" />
      </Connections>
    </Network>
    <Network id="42520" birthGen="1053" fitness="9.2515468597412109">
      <Nodes>
        <Node type="bias" id="0" />
        <Node type="in" id="1" />
        <Node type="in" id="2" />
        <Node type="in" id="3" />
        <Node type="in" id="4" />
        <Node type="in" id="5" />
        <Node type="in" id="6" />
        <Node type="out" id="7" />
        <Node type="out" id="8" />
        <Node type="out" id="9" />
        <Node type="hid" id="86" />
        <Node type="hid" id="149" />
      </Nodes>
      <Connections>
        <Con id="14" src="1" tgt="8" wght="-5" />
        <Con id="31" src="3" tgt="7" wght="3.873643258938344" />
        <Con id="37" src="3" tgt="8" wght="-0.38224638664440752" />
        <Con id="46" src="4" tgt="7" wght="-1.6921461347541162" />
        <Con id="48" src="2" tgt="7" wght="-5" />
        <Con id="49" src="0" tgt="7" wght="3.1087253665004084" />
        <Con id="85" src="1" tgt="9" wght="3.4501353248909972" />
        <Con id="146" src="5" tgt="86" wght="3.9098195169728296" />
        <Con id="150" src="4" tgt="149" wght="-1.5496282337967038" />
        <Con id="151" src="149" tgt="7" wght="-4.5525206971394905" />
      </Connections>
    </Network>
    <Network id="42521" birthGen="1053" fitness="29.551948547363281">
      <Nodes>
        <Node type="bias" id="0" />
        <Node type="in" id="1" />
        <Node type="in" id="2" />
        <Node type="in" id="3" />
        <Node type="in" id="4" />
        <Node type="in" id="5" />
        <Node type="in" id="6" />
        <Node type="out" id="7" />
        <Node type="out" id="8" />
        <Node type="out" id="9" />
        <Node type="hid" id="86" />
        <Node type="hid" id="149" />
      </Nodes>
      <Connections>
        <Con id="14" src="1" tgt="8" wght="-5" />
        <Con id="31" src="3" tgt="7" wght="3.873643258938344" />
        <Con id="37" src="3" tgt="8" wght="0.37430283841661033" />
        <Con id="46" src="4" tgt="7" wght="-1.6921461347541162" />
        <Con id="48" src="2" tgt="7" wght="-5" />
        <Con id="49" src="0" tgt="7" wght="4.3093646969425068" />
        <Con id="85" src="1" tgt="9" wght="3.4501353248909972" />
        <Con id="146" src="5" tgt="86" wght="3.9402343131325934" />
        <Con id="150" src="4" tgt="149" wght="-1.7598189679221017" />
        <Con id="151" src="149" tgt="7" wght="-4.5525206971394905" />
      </Connections>
    </Network>
    <Network id="42522" birthGen="1053" fitness="29.580282211303711">
      <Nodes>
        <Node type="bias" id="0" />
        <Node type="in" id="1" />
        <Node type="in" id="2" />
        <Node type="in" id="3" />
        <Node type="in" id="4" />
        <Node type="in" id="5" />
        <Node type="in" id="6" />
        <Node type="out" id="7" />
        <Node type="out" id="8" />
        <Node type="out" id="9" />
        <Node type="hid" id="86" />
        <Node type="hid" id="149" />
      </Nodes>
      <Connections>
        <Con id="14" src="1" tgt="8" wght="-5" />
        <Con id="31" src="3" tgt="7" wght="3.873643258938344" />
        <Con id="37" src="3" tgt="8" wght="0.37430283841661033" />
        <Con id="46" src="4" tgt="7" wght="-1.6779237976879184" />
        <Con id="48" src="2" tgt="7" wght="-5" />
        <Con id="49" src="0" tgt="7" wght="4.3093646969425068" />
        <Con id="85" src="1" tgt="9" wght="3.4501353248909972" />
        <Con id="146" src="5" tgt="86" wght="3.9098195169728296" />
        <Con id="150" src="4" tgt="149" wght="-1.7598189679221017" />
        <Con id="151" src="149" tgt="7" wght="-4.5525206971394905" />
      </Connections>
    </Network>
    <Network id="42523" birthGen="1053" fitness="0.048846378922462463">
      <Nodes>
        <Node type="bias" id="0" />
        <Node type="in" id="1" />
        <Node type="in" id="2" />
        <Node type="in" id="3" />
        <Node type="in" id="4" />
        <Node type="in" id="5" />
        <Node type="in" id="6" />
        <Node type="out" id="7" />
        <Node type="out" id="8" />
        <Node type="out" id="9" />
        <Node type="hid" id="86" />
        <Node type="hid" id="149" />
      </Nodes>
      <Connections>
        <Con id="14" src="1" tgt="8" wght="-5" />
        <Con id="31" src="3" tgt="7" wght="3.873643258938344" />
        <Con id="37" src="3" tgt="8" wght="0.37430283841661033" />
        <Con id="46" src="4" tgt="7" wght="-1.6921461347541162" />
        <Con id="48" src="2" tgt="7" wght="-1.7741884058341384" />
        <Con id="49" src="0" tgt="7" wght="4.3093646969425068" />
        <Con id="85" src="1" tgt="9" wght="3.4501353248909972" />
        <Con id="146" src="5" tgt="86" wght="3.9098195169728296" />
        <Con id="150" src="4" tgt="149" wght="0.74388958513736725" />
        <Con id="151" src="149" tgt="7" wght="1.5064960485324264" />
      </Connections>
    </Network>
    <Network id="42524" birthGen="1053" fitness="7.2607755661010742">
      <Nodes>
        <Node type="bias" id="0" />
        <Node type="in" id="1" />
        <Node type="in" id="2" />
        <Node type="in" id="3" />
        <Node type="in" id="4" />
        <Node type="in" id="5" />
        <Node type="in" id="6" />
        <Node type="out" id="7" />
        <Node type="out" id="8" />
        <Node type="out" id="9" />
        <Node type="hid" id="86" />
        <Node type="hid" id="149" />
      </Nodes>
      <Connections>
        <Con id="14" src="1" tgt="8" wght="-5" />
        <Con id="31" src="3" tgt="7" wght="3.873643258938344" />
        <Con id="46" src="4" tgt="7" wght="-1.6921461347541162" />
        <Con id="48" src="2" tgt="7" wght="-5" />
        <Con id="49" src="0" tgt="7" wght="4.3093646969425068" />
        <Con id="85" src="1" tgt="9" wght="3.4501353248909972" />
        <Con id="146" src="5" tgt="86" wght="3.9098195169728296" />
        <Con id="150" src="4" tgt="149" wght="-1.7598189679221017" />
        <Con id="151" src="149" tgt="7" wght="-4.5525206971394905" />
      </Connections>
    </Network>
    <Network id="42525" birthGen="1053" fitness="28.471660614013672">
      <Nodes>
        <Node type="bias" id="0" />
        <Node type="in" id="1" />
        <Node type="in" id="2" />
        <Node type="in" id="3" />
        <Node type="in" id="4" />
        <Node type="in" id="5" />
        <Node type="in" id="6" />
        <Node type="out" id="7" />
        <Node type="out" id="8" />
        <Node type="out" id="9" />
        <Node type="hid" id="86" />
        <Node type="hid" id="149" />
      </Nodes>
      <Connections>
        <Con id="14" src="1" tgt="8" wght="-5" />
        <Con id="31" src="3" tgt="7" wght="3.5368752651464344" />
        <Con id="37" src="3" tgt="8" wght="0.37408943558818508" />
        <Con id="46" src="4" tgt="7" wght="-2.3214874069652756" />
        <Con id="48" src="2" tgt="7" wght="-5" />
        <Con id="49" src="0" tgt="7" wght="3.2339168483233616" />
        <Con id="85" src="1" tgt="9" wght="3.4875583602115512" />
        <Con id="87" src="4" tgt="86" wght="-0.061186240106201231" />
        <Con id="151" src="149" tgt="7" wght="0.57809950783848763" />
      </Connections>
    </Network>
    <Network id="42526" birthGen="1053" fitness="29.558891296386719">
      <Nodes>
        <Node type="bias" id="0" />
        <Node type="in" id="1" />
        <Node type="in" id="2" />
        <Node type="in" id="3" />
        <Node type="in" id="4" />
        <Node type="in" id="5" />
        <Node type="in" id="6" />
        <Node type="out" id="7" />
        <Node type="out" id="8" />
        <Node type="out" id="9" />
        <Node type="hid" id="86" />
        <Node type="hid" id="149" />
      </Nodes>
      <Connections>
        <Con id="14" src="1" tgt="8" wght="-5" />
        <Con id="31" src="3" tgt="7" wght="3.5368752651464344" />
        <Con id="37" src="3" tgt="8" wght="0.37408943558818508" />
        <Con id="46" src="4" tgt="7" wght="-2.28057401824682" />
        <Con id="48" src="2" tgt="7" wght="-5" />
        <Con id="49" src="0" tgt="7" wght="3.23105503991446" />
        <Con id="85" src="1" tgt="9" wght="3.4875583602115512" />
        <Con id="87" src="4" tgt="86" wght="-0.061186240106201231" />
        <Con id="151" src="149" tgt="7" wght="0.57809950783848763" />
      </Connections>
    </Network>
    <Network id="42527" birthGen="1053" fitness="12.053436279296875">
      <Nodes>
        <Node type="bias" id="0" />
        <Node type="in" id="1" />
        <Node type="in" id="2" />
        <Node type="in" id="3" />
        <Node type="in" id="4" />
        <Node type="in" id="5" />
        <Node type="in" id="6" />
        <Node type="out" id="7" />
        <Node type="out" id="8" />
        <Node type="out" id="9" />
        <Node type="hid" id="86" />
        <Node type="hid" id="149" />
      </Nodes>
      <Connections>
        <Con id="14" src="1" tgt="8" wght="-5" />
        <Con id="31" src="3" tgt="7" wght="3.5368752651464344" />
        <Con id="37" src="3" tgt="8" wght="0.37408943558818508" />
        <Con id="46" src="4" tgt="7" wght="-2.28057401824682" />
        <Con id="48" src="2" tgt="7" wght="-4.9845441862903916" />
        <Con id="49" src="0" tgt="7" wght="3.2339168483233616" />
        <Con id="85" src="1" tgt="9" wght="3.4875583602115512" />
        <Con id="87" src="4" tgt="86" wght="-0.061186240106201231" />
        <Con id="151" src="149" tgt="7" wght="0.57809950783848763" />
      </Connections>
    </Network>
    <Network id="42528" birthGen="1053" fitness="29.569019317626953">
      <Nodes>
        <Node type="bias" id="0" />
        <Node type="in" id="1" />
        <Node type="in" id="2" />
        <Node type="in" id="3" />
        <Node type="in" id="4" />
        <Node type="in" id="5" />
        <Node type="in" id="6" />
        <Node type="out" id="7" />
        <Node type="out" id="8" />
        <Node type="out" id="9" />
        <Node type="hid" id="86" />
        <Node type="hid" id="149" />
      </Nodes>
      <Connections>
        <Con id="14" src="1" tgt="8" wght="-5" />
        <Con id="31" src="3" tgt="7" wght="3.5368752651464344" />
        <Con id="37" src="3" tgt="8" wght="0.37408943558818508" />
        <Con id="46" src="4" tgt="7" wght="-1.5724172465682855" />
        <Con id="48" src="2" tgt="7" wght="-5" />
        <Con id="49" src="0" tgt="7" wght="3.2339168483233616" />
        <Con id="85" src="1" tgt="9" wght="3.4875583602115512" />
        <Con id="87" src="4" tgt="86" wght="-0.061186240106201231" />
        <Con id="151" src="149" tgt="7" wght="0.57809950783848763" />
      </Connections>
    </Network>
    <Network id="42529" birthGen="1053" fitness="28.402507781982422">
      <Nodes>
        <Node type="bias" id="0" />
        <Node type="in" id="1" />
        <Node type="in" id="2" />
        <Node type="in" id="3" />
        <Node type="in" id="4" />
        <Node type="in" id="5" />
        <Node type="in" id="6" />
        <Node type="out" id="7" />
        <Node type="out" id="8" />
        <Node type="out" id="9" />
        <Node type="hid" id="86" />
        <Node type="hid" id="149" />
      </Nodes>
      <Connections>
        <Con id="14" src="1" tgt="8" wght="-5" />
        <Con id="31" src="3" tgt="7" wght="3.5176619718614162" />
        <Con id="37" src="3" tgt="8" wght="0.37408943558818508" />
        <Con id="46" src="4" tgt="7" wght="-2.28057401824682" />
        <Con id="48" src="2" tgt="7" wght="-5" />
        <Con id="49" src="0" tgt="7" wght="3.2339168483233616" />
        <Con id="85" src="1" tgt="9" wght="3.4875583602115512" />
        <Con id="87" src="4" tgt="86" wght="-0.061186240106201231" />
        <Con id="151" src="149" tgt="7" wght="0.57809950783848763" />
      </Connections>
    </Network>
    <Network id="42530" birthGen="1053" fitness="29.556819915771484">
      <Nodes>
        <Node type="bias" id="0" />
        <Node type="in" id="1" />
        <Node type="in" id="2" />
        <Node type="in" id="3" />
        <Node type="in" id="4" />
        <Node type="in" id="5" />
        <Node type="in" id="6" />
        <Node type="out" id="7" />
        <Node type="out" id="8" />
        <Node type="out" id="9" />
        <Node type="hid" id="149" />
      </Nodes>
      <Connections>
        <Con id="14" src="1" tgt="8" wght="-5" />
        <Con id="31" src="3" tgt="7" wght="3.5368752651464344" />
        <Con id="37" src="3" tgt="8" wght="0.37408943558818508" />
        <Con id="46" src="4" tgt="7" wght="-1.1673752706810916" />
        <Con id="48" src="2" tgt="7" wght="-5" />
        <Con id="49" src="0" tgt="7" wght="3.2339168483233616" />
        <Con id="85" src="1" tgt="9" wght="4.3297729334303012" />
        <Con id="151" src="149" tgt="7" wght="-4.4031443167530213" />
      </Connections>
    </Network>
    <Network id="42531" birthGen="1053" fitness="28.411525726318359">
      <Nodes>
        <Node type="bias" id="0" />
        <Node type="in" id="1" />
        <Node type="in" id="2" />
        <Node type="in" id="3" />
        <Node type="in" id="4" />
        <Node type="in" id="5" />
        <Node type="in" id="6" />
        <Node type="out" id="7" />
        <Node type="out" id="8" />
        <Node type="out" id="9" />
        <Node type="hid" id="86" />
      </Nodes>
      <Connections>
        <Con id="14" src="1" tgt="8" wght="-5" />
        <Con id="37" src="3" tgt="8" wght="0.3546171519945932" />
        <Con id="46" src="4" tgt="7" wght="3.3705656011423559" />
        <Con id="48" src="2" tgt="7" wght="-4.9155464223874761" />
        <Con id="69" src="5" tgt="9" wght="3.8600017523174328" />
        <Con id="85" src="1" tgt="9" wght="1.7119099010400898" />
        <Con id="87" src="4" tgt="86" wght="-3.6828652055955136" />
      </Connections>
    </Network>
    <Network id="42532" birthGen="1053" fitness="28.505943298339844">
      <Nodes>
        <Node type="bias" id="0" />
        <Node type="in" id="1" />
        <Node type="in" id="2" />
        <Node type="in" id="3" />
        <Node type="in" id="4" />
        <Node type="in" id="5" />
        <Node type="in" id="6" />
        <Node type="out" id="7" />
        <Node type="out" id="8" />
        <Node type="out" id="9" />
        <Node type="hid" id="86" />
      </Nodes>
      <Connections>
        <Con id="14" src="1" tgt="8" wght="-5" />
        <Con id="37" src="3" tgt="8" wght="0.3546171519945932" />
        <Con id="46" src="4" tgt="7" wght="3.3776771660497857" />
        <Con id="48" src="2" tgt="7" wght="-4.9155464223874761" />
        <Con id="85" src="1" tgt="9" wght="2.3947385071583938" />
        <Con id="87" src="4" tgt="86" wght="-5" />
      </Connections>
    </Network>
    <Network id="42533" birthGen="1053" fitness="2.2853243350982666">
      <Nodes>
        <Node type="bias" id="0" />
        <Node type="in" id="1" />
        <Node type="in" id="2" />
        <Node type="in" id="3" />
        <Node type="in" id="4" />
        <Node type="in" id="5" />
        <Node type="in" id="6" />
        <Node type="out" id="7" />
        <Node type="out" id="8" />
        <Node type="out" id="9" />
        <Node type="hid" id="86" />
        <Node type="hid" id="149" />
      </Nodes>
      <Connections>
        <Con id="14" src="1" tgt="8" wght="-4.9818821920623151" />
        <Con id="31" src="3" tgt="7" wght="3.5287463890073574" />
        <Con id="46" src="4" tgt="7" wght="1.7497788149500144" />
        <Con id="48" src="2" tgt="7" wght="1.2971925223246217" />
        <Con id="49" src="0" tgt="7" wght="-4.66711343953223" />
        <Con id="85" src="1" tgt="9" wght="1.7212665486665564" />
        <Con id="87" src="4" tgt="86" wght="-0.061186240106201231" />
        <Con id="151" src="149" tgt="7" wght="-4.7653660012868011" />
      </Connections>
    </Network>
    <Network id="42534" birthGen="1053" fitness="29.535955429077148">
      <Nodes>
        <Node type="bias" id="0" />
        <Node type="in" id="1" />
        <Node type="in" id="2" />
        <Node type="in" id="3" />
        <Node type="in" id="4" />
        <Node type="in" id="5" />
        <Node type="in" id="6" />
        <Node type="out" id="7" />
        <Node type="out" id="8" />
        <Node type="out" id="9" />
        <Node type="hid" id="86" />
        <Node type="hid" id="149" />
      </Nodes>
      <Connections>
        <Con id="14" src="1" tgt="8" wght="-4.9818821920623151" />
        <Con id="31" src="3" tgt="7" wght="3.4952520005139558" />
        <Con id="37" src="3" tgt="8" wght="0.3611864902449255" />
        <Con id="46" src="4" tgt="7" wght="1.7433651097690419" />
        <Con id="48" src="2" tgt="7" wght="1.3253695494921274" />
        <Con id="49" src="0" tgt="7" wght="-4.66711343953223" />
        <Con id="85" src="1" tgt="9" wght="1.7212665486665564" />
        <Con id="87" src="4" tgt="86" wght="-0.061186240106201231" />
        <Con id="151" src="149" tgt="7" wght="-4.7653660012868011" />
      </Connections>
    </Network>
    <Network id="42535" birthGen="1053" fitness="28.502761840820313">
      <Nodes>
        <Node type="bias" id="0" />
        <Node type="in" id="1" />
        <Node type="in" id="2" />
        <Node type="in" id="3" />
        <Node type="in" id="4" />
        <Node type="in" id="5" />
        <Node type="in" id="6" />
        <Node type="out" id="7" />
        <Node type="out" id="8" />
        <Node type="out" id="9" />
        <Node type="hid" id="86" />
        <Node type="hid" id="149" />
      </Nodes>
      <Connections>
        <Con id="14" src="1" tgt="8" wght="-4.9818821920623151" />
        <Con id="31" src="3" tgt="7" wght="3.5287463890073574" />
        <Con id="37" src="3" tgt="8" wght="0.3611864902449255" />
        <Con id="46" src="4" tgt="7" wght="1.7497788149500144" />
        <Con id="48" src="2" tgt="7" wght="1.8772352878738645" />
        <Con id="49" src="0" tgt="7" wght="-4.66711343953223" />
        <Con id="85" src="1" tgt="9" wght="1.7212665486665564" />
        <Con id="87" src="4" tgt="86" wght="-0.061186240106201231" />
        <Con id="151" src="149" tgt="7" wght="-4.7653660012868011" />
      </Connections>
    </Network>
    <Network id="42536" birthGen="1053" fitness="28.48161506652832">
      <Nodes>
        <Node type="bias" id="0" />
        <Node type="in" id="1" />
        <Node type="in" id="2" />
        <Node type="in" id="3" />
        <Node type="in" id="4" />
        <Node type="in" id="5" />
        <Node type="in" id="6" />
        <Node type="out" id="7" />
        <Node type="out" id="8" />
        <Node type="out" id="9" />
        <Node type="hid" id="86" />
        <Node type="hid" id="149" />
      </Nodes>
      <Connections>
        <Con id="14" src="1" tgt="8" wght="-4.9818821920623151" />
        <Con id="31" src="3" tgt="7" wght="3.5287463890073574" />
        <Con id="37" src="3" tgt="8" wght="0.38526961196496312" />
        <Con id="46" src="4" tgt="7" wght="1.7456821167763334" />
        <Con id="48" src="2" tgt="7" wght="1.2971925223246217" />
        <Con id="49" src="0" tgt="7" wght="-4.66711343953223" />
        <Con id="85" src="1" tgt="9" wght="1.7212665486665564" />
        <Con id="87" src="4" tgt="86" wght="-0.061186240106201231" />
        <Con id="151" src="149" tgt="7" wght="-4.7653660012868011" />
      </Connections>
    </Network>
    <Network id="42537" birthGen="1053" fitness="0.0467560701072216">
      <Nodes>
        <Node type="bias" id="0" />
        <Node type="in" id="1" />
        <Node type="in" id="2" />
        <Node type="in" id="3" />
        <Node type="in" id="4" />
        <Node type="in" id="5" />
        <Node type="in" id="6" />
        <Node type="out" id="7" />
        <Node type="out" id="8" />
        <Node type="out" id="9" />
        <Node type="hid" id="86" />
        <Node type="hid" id="149" />
      </Nodes>
      <Connections>
        <Con id="14" src="1" tgt="8" wght="-4.9818821920623151" />
        <Con id="37" src="3" tgt="8" wght="0.3611864902449255" />
        <Con id="46" src="4" tgt="7" wght="1.7497788149500144" />
        <Con id="48" src="2" tgt="7" wght="1.2971925223246217" />
        <Con id="49" src="0" tgt="7" wght="-4.66711343953223" />
        <Con id="85" src="1" tgt="9" wght="1.7212665486665564" />
        <Con id="87" src="4" tgt="86" wght="-0.061186240106201231" />
        <Con id="151" src="149" tgt="7" wght="-4.7653660012868011" />
      </Connections>
    </Network>
    <Network id="42538" birthGen="1053" fitness="0.50854408740997314">
      <Nodes>
        <Node type="bias" id="0" />
        <Node type="in" id="1" />
        <Node type="in" id="2" />
        <Node type="in" id="3" />
        <Node type="in" id="4" />
        <Node type="in" id="5" />
        <Node type="in" id="6" />
        <Node type="out" id="7" />
        <Node type="out" id="8" />
        <Node type="out" id="9" />
        <Node type="hid" id="86" />
        <Node type="hid" id="149" />
      </Nodes>
      <Connections>
        <Con id="14" src="1" tgt="8" wght="-4.9818821920623151" />
        <Con id="31" src="3" tgt="7" wght="3.5287463890073574" />
        <Con id="37" src="3" tgt="8" wght="0.3611864902449255" />
        <Con id="46" src="4" tgt="7" wght="1.7497788149500144" />
        <Con id="48" src="2" tgt="7" wght="1.2971925223246217" />
        <Con id="49" src="0" tgt="7" wght="-4.66711343953223" />
        <Con id="87" src="4" tgt="86" wght="-0.061186240106201231" />
        <Con id="151" src="149" tgt="7" wght="-4.7653660012868011" />
      </Connections>
    </Network>
  </Networks>
</Root>