<?xml version="1.0" encoding="utf-8"?>
<Root>
  <ActivationFunctions>
    <Fn id="0" name="SteepenedSigmoid" prob="1" />
  </ActivationFunctions>
  <Networks>
    <Network id="10791" birthGen="270" fitness="0.10304909199476242">
      <Nodes>
        <Node type="bias" id="0" />
        <Node type="in" id="1" />
        <Node type="in" id="2" />
        <Node type="in" id="3" />
        <Node type="in" id="4" />
        <Node type="in" id="5" />
        <Node type="out" id="6" />
        <Node type="out" id="7" />
      </Nodes>
      <Connections>
        <Con id="13" src="2" tgt="7" wght="3.8440058956878986" />
        <Con id="21" src="5" tgt="6" wght="-2.3102958558375239" />
        <Con id="22" src="2" tgt="6" wght="4.48247041774975" />
      </Connections>
    </Network>
    <Network id="10918" birthGen="273" fitness="0.16315317153930664">
      <Nodes>
        <Node type="bias" id="0" />
        <Node type="in" id="1" />
        <Node type="in" id="2" />
        <Node type="in" id="3" />
        <Node type="in" id="4" />
        <Node type="in" id="5" />
        <Node type="out" id="6" />
        <Node type="out" id="7" />
      </Nodes>
      <Connections>
        <Con id="13" src="2" tgt="7" wght="-3.7177206732079036" />
        <Con id="20" src="3" tgt="6" wght="0.17921931808533145" />
        <Con id="21" src="5" tgt="6" wght="0.22743497849296107" />
        <Con id="25" src="4" tgt="6" wght="-0.30677299292124982" />
      </Connections>
    </Network>
    <Network id="9893" birthGen="247" fitness="0.25566971302032471">
      <Nodes>
        <Node type="bias" id="0" />
        <Node type="in" id="1" />
        <Node type="in" id="2" />
        <Node type="in" id="3" />
        <Node type="in" id="4" />
        <Node type="in" id="5" />
        <Node type="out" id="6" />
        <Node type="out" id="7" />
      </Nodes>
      <Connections>
        <Con id="13" src="2" tgt="7" wght="-4.9883967180392368" />
        <Con id="20" src="3" tgt="6" wght="0.088711800137984617" />
        <Con id="21" src="5" tgt="6" wght="-0.07834082879887147" />
      </Connections>
    </Network>
    <Network id="10929" birthGen="273" fitness="0.24768461287021637">
      <Nodes>
        <Node type="bias" id="0" />
        <Node type="in" id="1" />
        <Node type="in" id="2" />
        <Node type="in" id="3" />
        <Node type="in" id="4" />
        <Node type="in" id="5" />
        <Node type="out" id="6" />
        <Node type="out" id="7" />
      </Nodes>
      <Connections>
        <Con id="13" src="2" tgt="7" wght="-4.9627960314672785" />
        <Con id="20" src="3" tgt="6" wght="0.088711800137984617" />
        <Con id="21" src="5" tgt="6" wght="-0.07834082879887147" />
      </Connections>
    </Network>
    <Network id="10922" birthGen="273" fitness="0.24650263786315918">
      <Nodes>
        <Node type="bias" id="0" />
        <Node type="in" id="1" />
        <Node type="in" id="2" />
        <Node type="in" id="3" />
        <Node type="in" id="4" />
        <Node type="in" id="5" />
        <Node type="out" id="6" />
        <Node type="out" id="7" />
      </Nodes>
      <Connections>
        <Con id="13" src="2" tgt="7" wght="-5" />
        <Con id="20" src="3" tgt="6" wght="0.088711800137984617" />
        <Con id="21" src="5" tgt="6" wght="-0.07834082879887147" />
      </Connections>
    </Network>
    <Network id="10766" birthGen="269" fitness="0.23506340384483337">
      <Nodes>
        <Node type="bias" id="0" />
        <Node type="in" id="1" />
        <Node type="in" id="2" />
        <Node type="in" id="3" />
        <Node type="in" id="4" />
        <Node type="in" id="5" />
        <Node type="out" id="6" />
        <Node type="out" id="7" />
      </Nodes>
      <Connections>
        <Con id="13" src="2" tgt="7" wght="-3.723087289313006" />
        <Con id="20" src="3" tgt="6" wght="0.10771384619296731" />
        <Con id="21" src="5" tgt="6" wght="-0.07834082879887147" />
      </Connections>
    </Network>
    <Network id="10930" birthGen="273" fitness="0.23473727703094482">
      <Nodes>
        <Node type="bias" id="0" />
        <Node type="in" id="1" />
        <Node type="in" id="2" />
        <Node type="in" id="3" />
        <Node type="in" id="4" />
        <Node type="in" id="5" />
        <Node type="out" id="6" />
        <Node type="out" id="7" />
      </Nodes>
      <Connections>
        <Con id="13" src="2" tgt="7" wght="-3.6635500183083027" />
        <Con id="20" src="3" tgt="6" wght="0.10771384619296731" />
        <Con id="21" src="5" tgt="6" wght="-0.07834082879887147" />
      </Connections>
    </Network>
    <Network id="10901" birthGen="272" fitness="0.1154642254114151">
      <Nodes>
        <Node type="bias" id="0" />
        <Node type="in" id="1" />
        <Node type="in" id="2" />
        <Node type="in" id="3" />
        <Node type="in" id="4" />
        <Node type="in" id="5" />
        <Node type="out" id="6" />
        <Node type="out" id="7" />
      </Nodes>
      <Connections>
        <Con id="13" src="2" tgt="7" wght="-2.0667114128979747" />
        <Con id="20" src="3" tgt="6" wght="1.529962321200611" />
        <Con id="21" src="5" tgt="6" wght="0.35707299243034468" />
        <Con id="24" src="0" tgt="6" wght="-0.65735246280165116" />
        <Con id="25" src="4" tgt="6" wght="0.10784352214316459" />
      </Connections>
    </Network>
    <Network id="10914" birthGen="273" fitness="0.043866571038961411">
      <Nodes>
        <Node type="bias" id="0" />
        <Node type="in" id="1" />
        <Node type="in" id="2" />
        <Node type="in" id="3" />
        <Node type="in" id="4" />
        <Node type="in" id="5" />
        <Node type="out" id="6" />
        <Node type="out" id="7" />
        <Node type="hid" id="45" />
      </Nodes>
      <Connections>
        <Con id="13" src="2" tgt="7" wght="-2.6373342304141234" />
        <Con id="20" src="3" tgt="6" wght="1.5700071627583179" />
        <Con id="21" src="5" tgt="6" wght="0.36364304754784482" />
        <Con id="24" src="0" tgt="6" wght="-0.67933279767979493" />
        <Con id="46" src="4" tgt="45" wght="0.11805544117558693" />
        <Con id="47" src="45" tgt="6" wght="5" />
      </Connections>
    </Network>
    <Network id="10944" birthGen="273" fitness="0.10301880538463593">
      <Nodes>
        <Node type="bias" id="0" />
        <Node type="in" id="1" />
        <Node type="in" id="2" />
        <Node type="in" id="3" />
        <Node type="in" id="4" />
        <Node type="in" id="5" />
        <Node type="out" id="6" />
        <Node type="out" id="7" />
      </Nodes>
      <Connections>
        <Con id="13" src="2" tgt="7" wght="3.0265006253926288" />
        <Con id="20" src="3" tgt="6" wght="3.0365999415516853" />
        <Con id="21" src="5" tgt="6" wght="4.3124679884411536" />
        <Con id="22" src="2" tgt="6" wght="-4.9590226135442181" />
        <Con id="23" src="1" tgt="6" wght="4.2065018860042027" />
        <Con id="25" src="4" tgt="6" wght="-2.6683121187219419" />
      </Connections>
    </Network>
    <Network id="10747" birthGen="268" fitness="0.13398239016532898">
      <Nodes>
        <Node type="bias" id="0" />
        <Node type="in" id="1" />
        <Node type="in" id="2" />
        <Node type="in" id="3" />
        <Node type="in" id="4" />
        <Node type="in" id="5" />
        <Node type="out" id="6" />
        <Node type="out" id="7" />
        <Node type="hid" id="39" />
      </Nodes>
      <Connections>
        <Con id="13" src="2" tgt="7" wght="-2.2621496977234705" />
        <Con id="21" src="5" tgt="6" wght="2.648237264585342" />
        <Con id="25" src="4" tgt="6" wght="-2.5121436122768706" />
        <Con id="40" src="3" tgt="39" wght="-2.772023031170145" />
        <Con id="41" src="39" tgt="6" wght="-0.76998336519125543" />
      </Connections>
    </Network>
    <Network id="10950" birthGen="274" fitness="0.072948813438415527">
      <Nodes>
        <Node type="bias" id="0" />
        <Node type="in" id="1" />
        <Node type="in" id="2" />
        <Node type="in" id="3" />
        <Node type="in" id="4" />
        <Node type="in" id="5" />
        <Node type="out" id="6" />
        <Node type="out" id="7" />
      </Nodes>
      <Connections>
        <Con id="13" src="2" tgt="7" wght="3.8466397755084407" />
        <Con id="21" src="5" tgt="6" wght="-2.3102958558375239" />
        <Con id="22" src="2" tgt="6" wght="4.48247041774975" />
      </Connections>
    </Network>
    <Network id="10951" birthGen="274" fitness="0.048041492700576782">
      <Nodes>
        <Node type="bias" id="0" />
        <Node type="in" id="1" />
        <Node type="in" id="2" />
        <Node type="in" id="3" />
        <Node type="in" id="4" />
        <Node type="in" id="5" />
        <Node type="out" id="6" />
        <Node type="out" id="7" />
      </Nodes>
      <Connections>
        <Con id="13" src="2" tgt="7" wght="3.8440058956878986" />
        <Con id="21" src="5" tgt="6" wght="-2.3102958558375239" />
        <Con id="22" src="2" tgt="6" wght="4.4737824327346836" />
      </Connections>
    </Network>
    <Network id="10952" birthGen="274" fitness="0.0923641175031662">
      <Nodes>
        <Node type="bias" id="0" />
        <Node type="in" id="1" />
        <Node type="in" id="2" />
        <Node type="in" id="3" />
        <Node type="in" id="4" />
        <Node type="in" id="5" />
        <Node type="out" id="6" />
        <Node type="out" id="7" />
      </Nodes>
      <Connections>
        <Con id="13" src="2" tgt="7" wght="3.820507850388362" />
        <Con id="21" src="5" tgt="6" wght="-2.2835333461171312" />
        <Con id="22" src="2" tgt="6" wght="4.48247041774975" />
      </Connections>
    </Network>
    <Network id="10953" birthGen="274" fitness="0.051564622670412064">
      <Nodes>
        <Node type="bias" id="0" />
        <Node type="in" id="1" />
        <Node type="in" id="2" />
        <Node type="in" id="3" />
        <Node type="in" id="4" />
        <Node type="in" id="5" />
        <Node type="out" id="6" />
        <Node type="out" id="7" />
      </Nodes>
      <Connections>
        <Con id="13" src="2" tgt="7" wght="4.21625398820335" />
        <Con id="21" src="5" tgt="6" wght="-2.9822382149308271" />
        <Con id="22" src="2" tgt="6" wght="3.6223049988737475" />
      </Connections>
    </Network>
    <Network id="10954" birthGen="274" fitness="0.0543280653655529">
      <Nodes>
        <Node type="bias" id="0" />
        <Node type="in" id="1" />
        <Node type="in" id="2" />
        <Node type="in" id="3" />
        <Node type="in" id="4" />
        <Node type="in" id="5" />
        <Node type="out" id="6" />
        <Node type="out" id="7" />
      </Nodes>
      <Connections>
        <Con id="13" src="2" tgt="7" wght="-3.7177206732079036" />
        <Con id="20" src="3" tgt="6" wght="2.27397907525301" />
        <Con id="21" src="5" tgt="6" wght="-0.2186858281493187" />
        <Con id="25" src="4" tgt="6" wght="-0.30677299292124982" />
      </Connections>
    </Network>
    <Network id="10955" birthGen="274" fitness="0.19245508313179016">
      <Nodes>
        <Node type="bias" id="0" />
        <Node type="in" id="1" />
        <Node type="in" id="2" />
        <Node type="in" id="3" />
        <Node type="in" id="4" />
        <Node type="in" id="5" />
        <Node type="out" id="6" />
        <Node type="out" id="7" />
      </Nodes>
      <Connections>
        <Con id="13" src="2" tgt="7" wght="-3.691648662295858" />
        <Con id="20" src="3" tgt="6" wght="0.17921931808533145" />
        <Con id="21" src="5" tgt="6" wght="0.22743497849296107" />
        <Con id="25" src="4" tgt="6" wght="-0.30677299292124982" />
      </Connections>
    </Network>
    <Network id="10956" birthGen="274" fitness="0.0421803779900074">
      <Nodes>
        <Node type="bias" id="0" />
        <Node type="in" id="1" />
        <Node type="in" id="2" />
        <Node type="in" id="3" />
        <Node type="in" id="4" />
        <Node type="in" id="5" />
        <Node type="out" id="6" />
        <Node type="out" id="7" />
      </Nodes>
      <Connections>
        <Con id="13" src="2" tgt="7" wght="-3.7177206732079036" />
        <Con id="20" src="3" tgt="6" wght="0.17921931808533145" />
        <Con id="21" src="5" tgt="6" wght="0.50857134935793691" />
        <Con id="25" src="4" tgt="6" wght="-0.184096204084446" />
      </Connections>
    </Network>
    <Network id="10957" birthGen="274" fitness="0.05458778515458107">
      <Nodes>
        <Node type="bias" id="0" />
        <Node type="in" id="1" />
        <Node type="in" id="2" />
        <Node type="in" id="3" />
        <Node type="in" id="4" />
        <Node type="in" id="5" />
        <Node type="out" id="6" />
        <Node type="out" id="7" />
      </Nodes>
      <Connections>
        <Con id="13" src="2" tgt="7" wght="-3.7177206732079036" />
        <Con id="20" src="3" tgt="6" wght="0.17921931808533145" />
        <Con id="21" src="5" tgt="6" wght="-0.11846579117917427" />
        <Con id="25" src="4" tgt="6" wght="-0.30677299292124982" />
      </Connections>
    </Network>
    <Network id="10958" birthGen="274" fitness="0.24074631929397583">
      <Nodes>
        <Node type="bias" id="0" />
        <Node type="in" id="1" />
        <Node type="in" id="2" />
        <Node type="in" id="3" />
        <Node type="in" id="4" />
        <Node type="in" id="5" />
        <Node type="out" id="6" />
        <Node type="out" id="7" />
      </Nodes>
      <Connections>
        <Con id="13" src="2" tgt="7" wght="-4.9883967180392368" />
        <Con id="20" src="3" tgt="6" wght="0.072232461407229956" />
        <Con id="21" src="5" tgt="6" wght="-0.07834082879887147" />
      </Connections>
    </Network>
    <Network id="10959" birthGen="274" fitness="0">
      <Nodes>
        <Node type="bias" id="0" />
        <Node type="in" id="1" />
        <Node type="in" id="2" />
        <Node type="in" id="3" />
        <Node type="in" id="4" />
        <Node type="in" id="5" />
        <Node type="out" id="6" />
        <Node type="out" id="7" />
      </Nodes>
      <Connections>
        <Con id="13" src="2" tgt="7" wght="0.022200429812073708" />
        <Con id="20" src="3" tgt="6" wght="3.5614785505458713" />
        <Con id="21" src="5" tgt="6" wght="-0.07834082879887147" />
      </Connections>
    </Network>
    <Network id="10960" birthGen="274" fitness="0.25347110629081726">
      <Nodes>
        <Node type="bias" id="0" />
        <Node type="in" id="1" />
        <Node type="in" id="2" />
        <Node type="in" id="3" />
        <Node type="in" id="4" />
        <Node type="in" id="5" />
        <Node type="out" id="6" />
        <Node type="out" id="7" />
      </Nodes>
      <Connections>
        <Con id="13" src="2" tgt="7" wght="-4.9627960314672785" />
        <Con id="20" src="3" tgt="6" wght="0.088711800137984617" />
        <Con id="21" src="5" tgt="6" wght="-0.07834082879887147" />
      </Connections>
    </Network>
    <Network id="10961" birthGen="274" fitness="0.25343531370162964">
      <Nodes>
        <Node type="bias" id="0" />
        <Node type="in" id="1" />
        <Node type="in" id="2" />
        <Node type="in" id="3" />
        <Node type="in" id="4" />
        <Node type="in" id="5" />
        <Node type="out" id="6" />
        <Node type="out" id="7" />
      </Nodes>
      <Connections>
        <Con id="13" src="2" tgt="7" wght="-5" />
        <Con id="20" src="3" tgt="6" wght="0.088711800137984617" />
        <Con id="21" src="5" tgt="6" wght="-0.07834082879887147" />
      </Connections>
    </Network>
    <Network id="10962" birthGen="274" fitness="0.24217064678668976">
      <Nodes>
        <Node type="bias" id="0" />
        <Node type="in" id="1" />
        <Node type="in" id="2" />
        <Node type="in" id="3" />
        <Node type="in" id="4" />
        <Node type="in" id="5" />
        <Node type="out" id="6" />
        <Node type="out" id="7" />
      </Nodes>
      <Connections>
        <Con id="13" src="2" tgt="7" wght="-3.7316158900486402" />
        <Con id="20" src="3" tgt="6" wght="0.10771384619296731" />
        <Con id="21" src="5" tgt="6" wght="-0.07834082879887147" />
      </Connections>
    </Network>
    <Network id="10963" birthGen="274" fitness="0.23788996040821075">
      <Nodes>
        <Node type="bias" id="0" />
        <Node type="in" id="1" />
        <Node type="in" id="2" />
        <Node type="in" id="3" />
        <Node type="in" id="4" />
        <Node type="in" id="5" />
        <Node type="out" id="6" />
        <Node type="out" id="7" />
      </Nodes>
      <Connections>
        <Con id="13" src="2" tgt="7" wght="-3.2700633769854903" />
        <Con id="20" src="3" tgt="6" wght="0.10771384619296731" />
        <Con id="21" src="5" tgt="6" wght="-0.07834082879887147" />
      </Connections>
    </Network>
    <Network id="10964" birthGen="274" fitness="0.24191634356975555">
      <Nodes>
        <Node type="bias" id="0" />
        <Node type="in" id="1" />
        <Node type="in" id="2" />
        <Node type="in" id="3" />
        <Node type="in" id="4" />
        <Node type="in" id="5" />
        <Node type="out" id="6" />
        <Node type="out" id="7" />
      </Nodes>
      <Connections>
        <Con id="13" src="2" tgt="7" wght="-3.6635500183083027" />
        <Con id="20" src="3" tgt="6" wght="0.10771384619296731" />
        <Con id="21" src="5" tgt="6" wght="-0.07834082879887147" />
      </Connections>
    </Network>
    <Network id="10965" birthGen="274" fitness="0.24191634356975555">
      <Nodes>
        <Node type="bias" id="0" />
        <Node type="in" id="1" />
        <Node type="in" id="2" />
        <Node type="in" id="3" />
        <Node type="in" id="4" />
        <Node type="in" id="5" />
        <Node type="out" id="6" />
        <Node type="out" id="7" />
      </Nodes>
      <Connections>
        <Con id="13" src="2" tgt="7" wght="-3.6635500183083027" />
        <Con id="20" src="3" tgt="6" wght="0.10771384619296731" />
        <Con id="21" src="5" tgt="6" wght="-0.07834082879887147" />
      </Connections>
    </Network>
    <Network id="10966" birthGen="274" fitness="0.043444555252790451">
      <Nodes>
        <Node type="bias" id="0" />
        <Node type="in" id="1" />
        <Node type="in" id="2" />
        <Node type="in" id="3" />
        <Node type="in" id="4" />
        <Node type="in" id="5" />
        <Node type="out" id="6" />
        <Node type="out" id="7" />
      </Nodes>
      <Connections>
        <Con id="13" src="2" tgt="7" wght="-2.0667114128979747" />
        <Con id="20" src="3" tgt="6" wght="1.529962321200611" />
        <Con id="21" src="5" tgt="6" wght="2.5237023977730382" />
        <Con id="24" src="0" tgt="6" wght="-0.65735246280165116" />
        <Con id="25" src="4" tgt="6" wght="-0.38839466131154143" />
      </Connections>
    </Network>
    <Network id="10967" birthGen="274" fitness="0.054270461201667786">
      <Nodes>
        <Node type="bias" id="0" />
        <Node type="in" id="1" />
        <Node type="in" id="2" />
        <Node type="in" id="3" />
        <Node type="in" id="4" />
        <Node type="in" id="5" />
        <Node type="out" id="6" />
        <Node type="out" id="7" />
      </Nodes>
      <Connections>
        <Con id="13" src="2" tgt="7" wght="-2.0667114128979747" />
        <Con id="20" src="3" tgt="6" wght="1.529962321200611" />
        <Con id="21" src="5" tgt="6" wght="-0.75732323919718336" />
        <Con id="24" src="0" tgt="6" wght="-0.55805450429377013" />
        <Con id="25" src="4" tgt="6" wght="0.75391671910510083" />
      </Connections>
    </Network>
    <Network id="10968" birthGen="274" fitness="0.053408339619636536">
      <Nodes>
        <Node type="bias" id="0" />
        <Node type="in" id="1" />
        <Node type="in" id="2" />
        <Node type="in" id="3" />
        <Node type="in" id="4" />
        <Node type="in" id="5" />
        <Node type="out" id="6" />
        <Node type="out" id="7" />
      </Nodes>
      <Connections>
        <Con id="13" src="2" tgt="7" wght="-2.1286320529244072" />
        <Con id="20" src="3" tgt="6" wght="1.529962321200611" />
        <Con id="21" src="5" tgt="6" wght="0.35707299243034468" />
        <Con id="24" src="0" tgt="6" wght="-1.3175309271531621" />
        <Con id="25" src="4" tgt="6" wght="0.10784352214316459" />
      </Connections>
    </Network>
    <Network id="10969" birthGen="274" fitness="0.056859720498323441">
      <Nodes>
        <Node type="bias" id="0" />
        <Node type="in" id="1" />
        <Node type="in" id="2" />
        <Node type="in" id="3" />
        <Node type="in" id="4" />
        <Node type="in" id="5" />
        <Node type="out" id="6" />
        <Node type="out" id="7" />
      </Nodes>
      <Connections>
        <Con id="13" src="2" tgt="7" wght="-2.0316342536616863" />
        <Con id="20" src="3" tgt="6" wght="1.529962321200611" />
        <Con id="21" src="5" tgt="6" wght="0.35707299243034468" />
        <Con id="24" src="0" tgt="6" wght="-0.68402472887284582" />
        <Con id="25" src="4" tgt="6" wght="0.058714772542347915" />
      </Connections>
    </Network>
    <Network id="10970" birthGen="274" fitness="0.05315745621919632">
      <Nodes>
        <Node type="bias" id="0" />
        <Node type="in" id="1" />
        <Node type="in" id="2" />
        <Node type="in" id="3" />
        <Node type="in" id="4" />
        <Node type="in" id="5" />
        <Node type="out" id="6" />
        <Node type="out" id="7" />
      </Nodes>
      <Connections>
        <Con id="13" src="2" tgt="7" wght="-2.0667114128979747" />
        <Con id="20" src="3" tgt="6" wght="1.529962321200611" />
        <Con id="21" src="5" tgt="6" wght="-0.99486252603195235" />
        <Con id="24" src="0" tgt="6" wght="-0.65735246280165116" />
        <Con id="25" src="4" tgt="6" wght="0.10784352214316459" />
      </Connections>
    </Network>
    <Network id="10971" birthGen="274" fitness="0.053027179092168808">
      <Nodes>
        <Node type="bias" id="0" />
        <Node type="in" id="1" />
        <Node type="in" id="2" />
        <Node type="in" id="3" />
        <Node type="in" id="4" />
        <Node type="in" id="5" />
        <Node type="out" id="6" />
        <Node type="out" id="7" />
      </Nodes>
      <Connections>
        <Con id="13" src="2" tgt="7" wght="-2.63507000968225" />
        <Con id="20" src="3" tgt="6" wght="1.5700071627583179" />
        <Con id="21" src="5" tgt="6" wght="0.36364304754784482" />
        <Con id="24" src="0" tgt="6" wght="-1.3259733727757104" />
        <Con id="25" src="4" tgt="6" wght="0.10052985598360031" />
      </Connections>
    </Network>
    <Network id="10972" birthGen="274" fitness="0.071805581450462341">
      <Nodes>
        <Node type="bias" id="0" />
        <Node type="in" id="1" />
        <Node type="in" id="2" />
        <Node type="in" id="3" />
        <Node type="in" id="4" />
        <Node type="in" id="5" />
        <Node type="out" id="6" />
        <Node type="out" id="7" />
      </Nodes>
      <Connections>
        <Con id="13" src="2" tgt="7" wght="-2.63507000968225" />
        <Con id="20" src="3" tgt="6" wght="2.3988669357881403" />
        <Con id="21" src="5" tgt="6" wght="0.36364304754784482" />
        <Con id="24" src="0" tgt="6" wght="-0.65777040898853811" />
        <Con id="25" src="4" tgt="6" wght="0.10052985598360031" />
      </Connections>
    </Network>
    <Network id="10973" birthGen="274" fitness="0.043418057262897491">
      <Nodes>
        <Node type="bias" id="0" />
        <Node type="in" id="1" />
        <Node type="in" id="2" />
        <Node type="in" id="3" />
        <Node type="in" id="4" />
        <Node type="in" id="5" />
        <Node type="out" id="6" />
        <Node type="out" id="7" />
      </Nodes>
      <Connections>
        <Con id="13" src="2" tgt="7" wght="-2.63507000968225" />
        <Con id="20" src="3" tgt="6" wght="1.5700071627583179" />
        <Con id="21" src="5" tgt="6" wght="0.36364304754784482" />
        <Con id="24" src="0" tgt="6" wght="-0.65777040898853811" />
        <Con id="25" src="4" tgt="6" wght="1.0026138304945342" />
      </Connections>
    </Network>
    <Network id="10974" birthGen="274" fitness="0.052683424204587936">
      <Nodes>
        <Node type="bias" id="0" />
        <Node type="in" id="1" />
        <Node type="in" id="2" />
        <Node type="in" id="3" />
        <Node type="in" id="4" />
        <Node type="in" id="5" />
        <Node type="out" id="6" />
        <Node type="out" id="7" />
      </Nodes>
      <Connections>
        <Con id="13" src="2" tgt="7" wght="-2.63507000968225" />
        <Con id="20" src="3" tgt="6" wght="0.506190501011198" />
        <Con id="21" src="5" tgt="6" wght="0.36364304754784482" />
        <Con id="24" src="0" tgt="6" wght="-1.0201434131137594" />
        <Con id="25" src="4" tgt="6" wght="-1.3205886066564825" />
      </Connections>
    </Network>
    <Network id="10975" birthGen="274" fitness="0.11211174726486206">
      <Nodes>
        <Node type="bias" id="0" />
        <Node type="in" id="1" />
        <Node type="in" id="2" />
        <Node type="in" id="3" />
        <Node type="in" id="4" />
        <Node type="in" id="5" />
        <Node type="out" id="6" />
        <Node type="out" id="7" />
      </Nodes>
      <Connections>
        <Con id="13" src="2" tgt="7" wght="-0.96832150785912718" />
        <Con id="20" src="3" tgt="6" wght="1.5700071627583179" />
        <Con id="21" src="5" tgt="6" wght="0.36364304754784482" />
        <Con id="24" src="0" tgt="6" wght="-0.65777040898853811" />
        <Con id="25" src="4" tgt="6" wght="0.10052985598360031" />
      </Connections>
    </Network>
    <Network id="10976" birthGen="274" fitness="0.09319305419921875">
      <Nodes>
        <Node type="bias" id="0" />
        <Node type="in" id="1" />
        <Node type="in" id="2" />
        <Node type="in" id="3" />
        <Node type="in" id="4" />
        <Node type="in" id="5" />
        <Node type="out" id="6" />
        <Node type="out" id="7" />
      </Nodes>
      <Connections>
        <Con id="13" src="2" tgt="7" wght="-2.63507000968225" />
        <Con id="20" src="3" tgt="6" wght="1.5532932112240407" />
        <Con id="21" src="5" tgt="6" wght="0.36364304754784482" />
        <Con id="24" src="0" tgt="6" wght="-0.65738654339146152" />
        <Con id="25" src="4" tgt="6" wght="0.12088208423594263" />
      </Connections>
    </Network>
    <Network id="10977" birthGen="274" fitness="0.052986353635787964">
      <Nodes>
        <Node type="bias" id="0" />
        <Node type="in" id="1" />
        <Node type="in" id="2" />
        <Node type="in" id="3" />
        <Node type="in" id="4" />
        <Node type="in" id="5" />
        <Node type="out" id="6" />
        <Node type="out" id="7" />
        <Node type="hid" id="45" />
      </Nodes>
      <Connections>
        <Con id="13" src="2" tgt="7" wght="-2.2551997835669919" />
        <Con id="20" src="3" tgt="6" wght="1.5700071627583179" />
        <Con id="21" src="5" tgt="6" wght="-0.95722975039948566" />
        <Con id="24" src="0" tgt="6" wght="-1.9964818965075362" />
        <Con id="46" src="4" tgt="45" wght="-0.49833054388605413" />
        <Con id="47" src="45" tgt="6" wght="5" />
      </Connections>
    </Network>
    <Network id="10978" birthGen="274" fitness="0.052996926009655">
      <Nodes>
        <Node type="bias" id="0" />
        <Node type="in" id="1" />
        <Node type="in" id="2" />
        <Node type="in" id="3" />
        <Node type="in" id="4" />
        <Node type="in" id="5" />
        <Node type="out" id="6" />
        <Node type="out" id="7" />
        <Node type="hid" id="45" />
      </Nodes>
      <Connections>
        <Con id="13" src="2" tgt="7" wght="-2.2551997835669919" />
        <Con id="20" src="3" tgt="6" wght="1.5700071627583179" />
        <Con id="21" src="5" tgt="6" wght="-0.96222039444402041" />
        <Con id="24" src="0" tgt="6" wght="-0.636670068777962" />
        <Con id="46" src="4" tgt="45" wght="-0.65409392246284936" />
        <Con id="47" src="45" tgt="6" wght="5" />
      </Connections>
    </Network>
    <Network id="10979" birthGen="274" fitness="0.052973367273807526">
      <Nodes>
        <Node type="bias" id="0" />
        <Node type="in" id="1" />
        <Node type="in" id="2" />
        <Node type="in" id="3" />
        <Node type="in" id="4" />
        <Node type="in" id="5" />
        <Node type="out" id="6" />
        <Node type="out" id="7" />
        <Node type="hid" id="45" />
      </Nodes>
      <Connections>
        <Con id="13" src="2" tgt="7" wght="-2.2551997835669919" />
        <Con id="20" src="3" tgt="6" wght="1.5700071627583179" />
        <Con id="21" src="5" tgt="6" wght="-0.95722975039948566" />
        <Con id="24" src="0" tgt="6" wght="-0.678537363333282" />
        <Con id="46" src="4" tgt="45" wght="-0.66540029266415046" />
        <Con id="47" src="45" tgt="6" wght="5" />
      </Connections>
    </Network>
    <Network id="10980" birthGen="274" fitness="0.043741252273321152">
      <Nodes>
        <Node type="bias" id="0" />
        <Node type="in" id="1" />
        <Node type="in" id="2" />
        <Node type="in" id="3" />
        <Node type="in" id="4" />
        <Node type="in" id="5" />
        <Node type="out" id="6" />
        <Node type="out" id="7" />
        <Node type="hid" id="45" />
      </Nodes>
      <Connections>
        <Con id="13" src="2" tgt="7" wght="-2.6373342304141234" />
        <Con id="20" src="3" tgt="6" wght="1.5700071627583179" />
        <Con id="21" src="5" tgt="6" wght="0.36364304754784482" />
        <Con id="24" src="0" tgt="6" wght="-0.65279018874633932" />
        <Con id="46" src="4" tgt="45" wght="0.11805544117558693" />
        <Con id="47" src="45" tgt="6" wght="5" />
      </Connections>
    </Network>
    <Network id="10981" birthGen="274" fitness="0.076729997992515564">
      <Nodes>
        <Node type="bias" id="0" />
        <Node type="in" id="1" />
        <Node type="in" id="2" />
        <Node type="in" id="3" />
        <Node type="in" id="4" />
        <Node type="in" id="5" />
        <Node type="out" id="6" />
        <Node type="out" id="7" />
      </Nodes>
      <Connections>
        <Con id="13" src="2" tgt="7" wght="3.0265006253926288" />
        <Con id="20" src="3" tgt="6" wght="3.0048414826982688" />
        <Con id="21" src="5" tgt="6" wght="4.3058568392181806" />
        <Con id="22" src="2" tgt="6" wght="-4.9590226135442181" />
        <Con id="23" src="1" tgt="6" wght="4.2291511541702436" />
        <Con id="25" src="4" tgt="6" wght="-2.6683121187219419" />
      </Connections>
    </Network>
    <Network id="10982" birthGen="274" fitness="0.0816725492477417">
      <Nodes>
        <Node type="bias" id="0" />
        <Node type="in" id="1" />
        <Node type="in" id="2" />
        <Node type="in" id="3" />
        <Node type="in" id="4" />
        <Node type="in" id="5" />
        <Node type="out" id="6" />
        <Node type="out" id="7" />
      </Nodes>
      <Connections>
        <Con id="13" src="2" tgt="7" wght="3.4090498206352828" />
        <Con id="20" src="3" tgt="6" wght="3.0365999415516853" />
        <Con id="21" src="5" tgt="6" wght="4.3124679884411536" />
        <Con id="22" src="2" tgt="6" wght="-4.9590226135442181" />
        <Con id="23" src="1" tgt="6" wght="4.2065018860042027" />
        <Con id="25" src="4" tgt="6" wght="-2.6683121187219419" />
      </Connections>
    </Network>
    <Network id="10983" birthGen="274" fitness="0.078295193612575531">
      <Nodes>
        <Node type="bias" id="0" />
        <Node type="in" id="1" />
        <Node type="in" id="2" />
        <Node type="in" id="3" />
        <Node type="in" id="4" />
        <Node type="in" id="5" />
        <Node type="out" id="6" />
        <Node type="out" id="7" />
      </Nodes>
      <Connections>
        <Con id="13" src="2" tgt="7" wght="3.0265006253926288" />
        <Con id="20" src="3" tgt="6" wght="3.0365999415516853" />
        <Con id="21" src="5" tgt="6" wght="4.3124679884411536" />
        <Con id="22" src="2" tgt="6" wght="-4.948826687523332" />
        <Con id="23" src="1" tgt="6" wght="4.2065018860042027" />
        <Con id="25" src="4" tgt="6" wght="-2.6683121187219419" />
      </Connections>
    </Network>
    <Network id="10984" birthGen="274" fitness="0.078852780163288116">
      <Nodes>
        <Node type="bias" id="0" />
        <Node type="in" id="1" />
        <Node type="in" id="2" />
        <Node type="in" id="3" />
        <Node type="in" id="4" />
        <Node type="in" id="5" />
        <Node type="out" id="6" />
        <Node type="out" id="7" />
      </Nodes>
      <Connections>
        <Con id="13" src="2" tgt="7" wght="3.0265006253926288" />
        <Con id="20" src="3" tgt="6" wght="3.0365999415516853" />
        <Con id="21" src="5" tgt="6" wght="4.3124679884411536" />
        <Con id="22" src="2" tgt="6" wght="-4.9323816154815177" />
        <Con id="23" src="1" tgt="6" wght="4.2065018860042027" />
        <Con id="25" src="4" tgt="6" wght="-2.6683121187219419" />
      </Connections>
    </Network>
    <Network id="10985" birthGen="274" fitness="0.044020757079124451">
      <Nodes>
        <Node type="bias" id="0" />
        <Node type="in" id="1" />
        <Node type="in" id="2" />
        <Node type="in" id="3" />
        <Node type="in" id="4" />
        <Node type="in" id="5" />
        <Node type="out" id="6" />
        <Node type="out" id="7" />
        <Node type="hid" id="39" />
      </Nodes>
      <Connections>
        <Con id="13" src="2" tgt="7" wght="-3.2263721020552412" />
        <Con id="21" src="5" tgt="6" wght="2.434119468104742" />
        <Con id="25" src="4" tgt="6" wght="-0.37096152994486964" />
        <Con id="40" src="3" tgt="39" wght="-2.772023031170145" />
        <Con id="41" src="39" tgt="6" wght="-0.76998336519125543" />
      </Connections>
    </Network>
    <Network id="10986" birthGen="274" fitness="0.020148072391748428">
      <Nodes>
        <Node type="bias" id="0" />
        <Node type="in" id="1" />
        <Node type="in" id="2" />
        <Node type="in" id="3" />
        <Node type="in" id="4" />
        <Node type="in" id="5" />
        <Node type="out" id="6" />
        <Node type="out" id="7" />
        <Node type="hid" id="39" />
      </Nodes>
      <Connections>
        <Con id="13" src="2" tgt="7" wght="-2.2621496977234705" />
        <Con id="21" src="5" tgt="6" wght="2.648237264585342" />
        <Con id="25" src="4" tgt="6" wght="-2.304088679465532" />
        <Con id="40" src="3" tgt="39" wght="-2.772023031170145" />
        <Con id="41" src="39" tgt="6" wght="-0.76998336519125543" />
      </Connections>
    </Network>
    <Network id="10987" birthGen="274" fitness="0.079546041786670685">
      <Nodes>
        <Node type="bias" id="0" />
        <Node type="in" id="1" />
        <Node type="in" id="2" />
        <Node type="in" id="3" />
        <Node type="in" id="4" />
        <Node type="in" id="5" />
        <Node type="out" id="6" />
        <Node type="out" id="7" />
        <Node type="hid" id="39" />
      </Nodes>
      <Connections>
        <Con id="13" src="2" tgt="7" wght="-2.2621496977234705" />
        <Con id="21" src="5" tgt="6" wght="2.648237264585342" />
        <Con id="25" src="4" tgt="6" wght="-2.5121436122768706" />
        <Con id="40" src="3" tgt="39" wght="-3.2786556530406843" />
        <Con id="41" src="39" tgt="6" wght="-0.76998336519125543" />
      </Connections>
    </Network>
    <Network id="10988" birthGen="274" fitness="0.12806308269500732">
      <Nodes>
        <Node type="bias" id="0" />
        <Node type="in" id="1" />
        <Node type="in" id="2" />
        <Node type="in" id="3" />
        <Node type="in" id="4" />
        <Node type="in" id="5" />
        <Node type="out" id="6" />
        <Node type="out" id="7" />
        <Node type="hid" id="39" />
      </Nodes>
      <Connections>
        <Con id="13" src="2" tgt="7" wght="-2.2622457994346084" />
        <Con id="21" src="5" tgt="6" wght="2.648237264585342" />
        <Con id="25" src="4" tgt="6" wght="-2.5121436122768706" />
        <Con id="40" src="3" tgt="39" wght="-2.772023031170145" />
        <Con id="41" src="39" tgt="6" wght="-0.76998336519125543" />
      </Connections>
    </Network>
  </Networks>
</Root>