<?xml version="1.0" encoding="utf-8"?>
<Root>
  <ActivationFunctions>
    <Fn id="0" name="SteepenedSigmoid" prob="1" />
  </ActivationFunctions>
  <Networks>
    <Network id="17966" birthGen="444" fitness="28.303380966186523">
      <Nodes>
        <Node type="bias" id="0" />
        <Node type="in" id="1" />
        <Node type="in" id="2" />
        <Node type="in" id="3" />
        <Node type="in" id="4" />
        <Node type="in" id="5" />
        <Node type="in" id="6" />
        <Node type="out" id="7" />
        <Node type="out" id="8" />
        <Node type="out" id="9" />
        <Node type="hid" id="60" />
      </Nodes>
      <Connections>
        <Con id="32" src="4" tgt="8" wght="2.17713230576586" />
        <Con id="47" src="0" tgt="7" wght="-2.90576397034776" />
        <Con id="51" src="1" tgt="7" wght="4.62240003871937" />
        <Con id="61" src="1" tgt="60" wght="-0.59885991464732224" />
        <Con id="62" src="60" tgt="8" wght="-4.8650366283437272" />
        <Con id="66" src="2" tgt="9" wght="4.20606090075584" />
        <Con id="74" src="1" tgt="9" wght="-4.1964213994248194" />
        <Con id="76" src="3" tgt="9" wght="-1.203890544490807" />
      </Connections>
    </Network>
    <Network id="17973" birthGen="444" fitness="29.450010299682617">
      <Nodes>
        <Node type="bias" id="0" />
        <Node type="in" id="1" />
        <Node type="in" id="2" />
        <Node type="in" id="3" />
        <Node type="in" id="4" />
        <Node type="in" id="5" />
        <Node type="in" id="6" />
        <Node type="out" id="7" />
        <Node type="out" id="8" />
        <Node type="out" id="9" />
        <Node type="hid" id="60" />
        <Node type="hid" id="83" />
      </Nodes>
      <Connections>
        <Con id="32" src="4" tgt="8" wght="1.6986250671912813" />
        <Con id="47" src="0" tgt="7" wght="-1.3930367808545119" />
        <Con id="51" src="1" tgt="7" wght="2.9516861477643812" />
        <Con id="61" src="1" tgt="60" wght="-1.8762077223561144" />
        <Con id="62" src="60" tgt="8" wght="-5" />
        <Con id="84" src="2" tgt="83" wght="2.7726880835552827" />
        <Con id="85" src="83" tgt="9" wght="4.2150753624313486" />
      </Connections>
    </Network>
    <Network id="17990" birthGen="444" fitness="29.440074920654297">
      <Nodes>
        <Node type="bias" id="0" />
        <Node type="in" id="1" />
        <Node type="in" id="2" />
        <Node type="in" id="3" />
        <Node type="in" id="4" />
        <Node type="in" id="5" />
        <Node type="in" id="6" />
        <Node type="out" id="7" />
        <Node type="out" id="8" />
        <Node type="out" id="9" />
        <Node type="hid" id="60" />
        <Node type="hid" id="83" />
      </Nodes>
      <Connections>
        <Con id="32" src="4" tgt="8" wght="1.6986250671912813" />
        <Con id="47" src="0" tgt="7" wght="-1.3930367808545119" />
        <Con id="51" src="1" tgt="7" wght="2.9516861477643812" />
        <Con id="61" src="1" tgt="60" wght="-1.8762077223561144" />
        <Con id="62" src="60" tgt="8" wght="-5" />
        <Con id="84" src="2" tgt="83" wght="2.498557197387727" />
        <Con id="85" src="83" tgt="9" wght="3.8621249844255288" />
      </Connections>
    </Network>
    <Network id="17974" birthGen="444" fitness="29.429935455322266">
      <Nodes>
        <Node type="bias" id="0" />
        <Node type="in" id="1" />
        <Node type="in" id="2" />
        <Node type="in" id="3" />
        <Node type="in" id="4" />
        <Node type="in" id="5" />
        <Node type="in" id="6" />
        <Node type="out" id="7" />
        <Node type="out" id="8" />
        <Node type="out" id="9" />
        <Node type="hid" id="60" />
        <Node type="hid" id="83" />
      </Nodes>
      <Connections>
        <Con id="32" src="4" tgt="8" wght="1.6986250671912813" />
        <Con id="47" src="0" tgt="7" wght="-1.3930367808545119" />
        <Con id="51" src="1" tgt="7" wght="2.9516861477643812" />
        <Con id="61" src="1" tgt="60" wght="-1.868032364225672" />
        <Con id="62" src="60" tgt="8" wght="-5" />
        <Con id="84" src="2" tgt="83" wght="2.4630998037509491" />
        <Con id="85" src="83" tgt="9" wght="4.2150753624313486" />
      </Connections>
    </Network>
    <Network id="17980" birthGen="444" fitness="29.415378570556641">
      <Nodes>
        <Node type="bias" id="0" />
        <Node type="in" id="1" />
        <Node type="in" id="2" />
        <Node type="in" id="3" />
        <Node type="in" id="4" />
        <Node type="in" id="5" />
        <Node type="in" id="6" />
        <Node type="out" id="7" />
        <Node type="out" id="8" />
        <Node type="out" id="9" />
        <Node type="hid" id="60" />
        <Node type="hid" id="83" />
      </Nodes>
      <Connections>
        <Con id="32" src="4" tgt="8" wght="1.6986250671912813" />
        <Con id="47" src="0" tgt="7" wght="-1.3764254499924689" />
        <Con id="51" src="1" tgt="7" wght="2.9516861477643812" />
        <Con id="61" src="1" tgt="60" wght="-1.8762077223561144" />
        <Con id="62" src="60" tgt="8" wght="-5" />
        <Con id="84" src="2" tgt="83" wght="2.4493409250564282" />
        <Con id="85" src="83" tgt="9" wght="4.2150753624313486" />
      </Connections>
    </Network>
    <Network id="17994" birthGen="444" fitness="29.435956954956055">
      <Nodes>
        <Node type="bias" id="0" />
        <Node type="in" id="1" />
        <Node type="in" id="2" />
        <Node type="in" id="3" />
        <Node type="in" id="4" />
        <Node type="in" id="5" />
        <Node type="in" id="6" />
        <Node type="out" id="7" />
        <Node type="out" id="8" />
        <Node type="out" id="9" />
        <Node type="hid" id="60" />
        <Node type="hid" id="83" />
      </Nodes>
      <Connections>
        <Con id="32" src="4" tgt="8" wght="1.6986250671912813" />
        <Con id="47" src="0" tgt="7" wght="-1.3764254499924689" />
        <Con id="51" src="1" tgt="7" wght="1.8091417936201244" />
        <Con id="61" src="1" tgt="60" wght="-1.8762077223561144" />
        <Con id="62" src="60" tgt="8" wght="-5" />
        <Con id="84" src="2" tgt="83" wght="1.43400450568102" />
        <Con id="85" src="83" tgt="9" wght="4.2150753624313486" />
      </Connections>
    </Network>
    <Network id="18000" birthGen="444" fitness="29.404195785522461">
      <Nodes>
        <Node type="bias" id="0" />
        <Node type="in" id="1" />
        <Node type="in" id="2" />
        <Node type="in" id="3" />
        <Node type="in" id="4" />
        <Node type="in" id="5" />
        <Node type="in" id="6" />
        <Node type="out" id="7" />
        <Node type="out" id="8" />
        <Node type="out" id="9" />
        <Node type="hid" id="60" />
        <Node type="hid" id="83" />
      </Nodes>
      <Connections>
        <Con id="32" src="4" tgt="8" wght="1.6655512190588817" />
        <Con id="37" src="2" tgt="7" wght="0.30835728576344573" />
        <Con id="47" src="0" tgt="7" wght="-2.7831220838667612" />
        <Con id="51" src="1" tgt="7" wght="4.25466088754108" />
        <Con id="61" src="1" tgt="60" wght="-1.9232597178872197" />
        <Con id="62" src="60" tgt="8" wght="-5" />
        <Con id="84" src="2" tgt="83" wght="0.73814637035827468" />
        <Con id="85" src="83" tgt="9" wght="0.23043154249324066" />
      </Connections>
    </Network>
    <Network id="17929" birthGen="443" fitness="27.253427505493164">
      <Nodes>
        <Node type="bias" id="0" />
        <Node type="in" id="1" />
        <Node type="in" id="2" />
        <Node type="in" id="3" />
        <Node type="in" id="4" />
        <Node type="in" id="5" />
        <Node type="in" id="6" />
        <Node type="out" id="7" />
        <Node type="out" id="8" />
        <Node type="out" id="9" />
        <Node type="hid" id="60" />
      </Nodes>
      <Connections>
        <Con id="32" src="4" tgt="8" wght="2.1567026244613157" />
        <Con id="33" src="6" tgt="7" wght="0.64244827106351254" />
        <Con id="47" src="0" tgt="7" wght="-1.8572786217555404" />
        <Con id="51" src="1" tgt="7" wght="2.3705538269132376" />
        <Con id="61" src="1" tgt="60" wght="-0.56941284469706377" />
        <Con id="62" src="60" tgt="8" wght="-4.7943323679991545" />
        <Con id="66" src="2" tgt="9" wght="2.7217452403525679" />
        <Con id="74" src="1" tgt="9" wght="4.4978800308341915" />
        <Con id="75" src="60" tgt="9" wght="-0.73431721970360331" />
      </Connections>
    </Network>
    <Network id="18004" birthGen="445" fitness="4.2099218368530273">
      <Nodes>
        <Node type="bias" id="0" />
        <Node type="in" id="1" />
        <Node type="in" id="2" />
        <Node type="in" id="3" />
        <Node type="in" id="4" />
        <Node type="in" id="5" />
        <Node type="in" id="6" />
        <Node type="out" id="7" />
        <Node type="out" id="8" />
        <Node type="out" id="9" />
        <Node type="hid" id="60" />
      </Nodes>
      <Connections>
        <Con id="32" src="4" tgt="8" wght="2.1567026244613157" />
        <Con id="33" src="6" tgt="7" wght="-4.0253613149780865" />
        <Con id="47" src="0" tgt="7" wght="-1.8318226341734214" />
        <Con id="51" src="1" tgt="7" wght="3.0231705710749806" />
        <Con id="61" src="1" tgt="60" wght="-0.60782868880778551" />
        <Con id="62" src="60" tgt="8" wght="-4.7935044278135859" />
        <Con id="66" src="2" tgt="9" wght="2.9798724233445926" />
        <Con id="74" src="1" tgt="9" wght="-2.8197964548040781" />
        <Con id="75" src="60" tgt="9" wght="2.6321668829768896" />
      </Connections>
    </Network>
    <Network id="18005" birthGen="445" fitness="2.1911218166351318">
      <Nodes>
        <Node type="bias" id="0" />
        <Node type="in" id="1" />
        <Node type="in" id="2" />
        <Node type="in" id="3" />
        <Node type="in" id="4" />
        <Node type="in" id="5" />
        <Node type="in" id="6" />
        <Node type="out" id="7" />
        <Node type="out" id="8" />
        <Node type="out" id="9" />
        <Node type="hid" id="60" />
      </Nodes>
      <Connections>
        <Con id="32" src="4" tgt="8" wght="2.1567026244613157" />
        <Con id="33" src="6" tgt="7" wght="-4.0253613149780865" />
        <Con id="47" src="0" tgt="7" wght="-1.8318226341734214" />
        <Con id="51" src="1" tgt="7" wght="3.0231705710749806" />
        <Con id="61" src="1" tgt="60" wght="-0.60782868880778551" />
        <Con id="62" src="60" tgt="8" wght="-4.6353858765113856" />
        <Con id="66" src="2" tgt="9" wght="2.9798724233445926" />
        <Con id="74" src="1" tgt="9" wght="-2.8197964548040781" />
        <Con id="75" src="60" tgt="9" wght="-1.5171747870128369" />
      </Connections>
    </Network>
    <Network id="18006" birthGen="445" fitness="29.37653923034668">
      <Nodes>
        <Node type="bias" id="0" />
        <Node type="in" id="1" />
        <Node type="in" id="2" />
        <Node type="in" id="3" />
        <Node type="in" id="4" />
        <Node type="in" id="5" />
        <Node type="in" id="6" />
        <Node type="out" id="7" />
        <Node type="out" id="8" />
        <Node type="out" id="9" />
        <Node type="hid" id="60" />
      </Nodes>
      <Connections>
        <Con id="32" src="4" tgt="8" wght="2.1567026244613157" />
        <Con id="33" src="6" tgt="7" wght="-4.0253613149780865" />
        <Con id="47" src="0" tgt="7" wght="-1.8318226341734214" />
        <Con id="51" src="1" tgt="7" wght="3.0231705710749806" />
        <Con id="61" src="1" tgt="60" wght="-0.61675457958570634" />
        <Con id="62" src="60" tgt="8" wght="-4.7935044278135859" />
        <Con id="66" src="2" tgt="9" wght="2.9798724233445926" />
        <Con id="74" src="1" tgt="9" wght="-2.8197964548040781" />
        <Con id="75" src="60" tgt="9" wght="-1.5171747870128369" />
      </Connections>
    </Network>
    <Network id="18007" birthGen="445" fitness="1.2901381254196167">
      <Nodes>
        <Node type="bias" id="0" />
        <Node type="in" id="1" />
        <Node type="in" id="2" />
        <Node type="in" id="3" />
        <Node type="in" id="4" />
        <Node type="in" id="5" />
        <Node type="in" id="6" />
        <Node type="out" id="7" />
        <Node type="out" id="8" />
        <Node type="out" id="9" />
        <Node type="hid" id="60" />
      </Nodes>
      <Connections>
        <Con id="32" src="4" tgt="8" wght="2.1567026244613157" />
        <Con id="33" src="6" tgt="7" wght="-4.0253613149780865" />
        <Con id="47" src="0" tgt="7" wght="-1.8318226341734214" />
        <Con id="51" src="1" tgt="7" wght="3.0231705710749806" />
        <Con id="61" src="1" tgt="60" wght="-2.0039483961004696" />
        <Con id="62" src="60" tgt="8" wght="-4.7935044278135859" />
        <Con id="66" src="2" tgt="9" wght="2.9798724233445926" />
        <Con id="74" src="1" tgt="9" wght="-2.8197964548040781" />
        <Con id="75" src="60" tgt="9" wght="-1.5171747870128369" />
      </Connections>
    </Network>
    <Network id="18008" birthGen="445" fitness="26.244440078735352">
      <Nodes>
        <Node type="bias" id="0" />
        <Node type="in" id="1" />
        <Node type="in" id="2" />
        <Node type="in" id="3" />
        <Node type="in" id="4" />
        <Node type="in" id="5" />
        <Node type="in" id="6" />
        <Node type="out" id="7" />
        <Node type="out" id="8" />
        <Node type="out" id="9" />
        <Node type="hid" id="60" />
      </Nodes>
      <Connections>
        <Con id="32" src="4" tgt="8" wght="2.1567026244613157" />
        <Con id="33" src="6" tgt="7" wght="-5" />
        <Con id="47" src="0" tgt="7" wght="-1.8318226341734214" />
        <Con id="51" src="1" tgt="7" wght="3.0231705710749806" />
        <Con id="61" src="1" tgt="60" wght="-0.60782868880778551" />
        <Con id="62" src="60" tgt="8" wght="-4.7935044278135859" />
        <Con id="66" src="2" tgt="9" wght="2.9798724233445926" />
        <Con id="74" src="1" tgt="9" wght="-2.8197964548040781" />
        <Con id="75" src="60" tgt="9" wght="-0.0096659026829601924" />
      </Connections>
    </Network>
    <Network id="18009" birthGen="445" fitness="3.2825307846069336">
      <Nodes>
        <Node type="bias" id="0" />
        <Node type="in" id="1" />
        <Node type="in" id="2" />
        <Node type="in" id="3" />
        <Node type="in" id="4" />
        <Node type="in" id="5" />
        <Node type="in" id="6" />
        <Node type="out" id="7" />
        <Node type="out" id="8" />
        <Node type="out" id="9" />
        <Node type="hid" id="60" />
      </Nodes>
      <Connections>
        <Con id="32" src="4" tgt="8" wght="2.1710068917917611" />
        <Con id="33" src="6" tgt="7" wght="-4.0253613149780865" />
        <Con id="47" src="0" tgt="7" wght="-1.8318226341734214" />
        <Con id="51" src="1" tgt="7" wght="3.0231705710749806" />
        <Con id="61" src="1" tgt="60" wght="-0.60782868880778551" />
        <Con id="62" src="60" tgt="8" wght="-4.7879874496878791" />
        <Con id="66" src="2" tgt="9" wght="2.9798724233445926" />
        <Con id="74" src="1" tgt="9" wght="-2.8197964548040781" />
        <Con id="75" src="60" tgt="9" wght="-1.5051004629509812" />
      </Connections>
    </Network>
    <Network id="18010" birthGen="445" fitness="28.359537124633789">
      <Nodes>
        <Node type="bias" id="0" />
        <Node type="in" id="1" />
        <Node type="in" id="2" />
        <Node type="in" id="3" />
        <Node type="in" id="4" />
        <Node type="in" id="5" />
        <Node type="in" id="6" />
        <Node type="out" id="7" />
        <Node type="out" id="8" />
        <Node type="out" id="9" />
        <Node type="hid" id="60" />
      </Nodes>
      <Connections>
        <Con id="32" src="4" tgt="8" wght="2.1627475683093174" />
        <Con id="33" src="6" tgt="7" wght="-4.0040920763435741" />
        <Con id="47" src="0" tgt="7" wght="-1.8318226341734214" />
        <Con id="51" src="1" tgt="7" wght="3.0649357212645709" />
        <Con id="61" src="1" tgt="60" wght="-0.63372574955818117" />
        <Con id="62" src="60" tgt="8" wght="-4.82894537600684" />
        <Con id="66" src="2" tgt="9" wght="2.2577412333591167" />
        <Con id="74" src="1" tgt="9" wght="-2.8197964548040781" />
        <Con id="75" src="60" tgt="9" wght="-1.5171747870128369" />
      </Connections>
    </Network>
    <Network id="18011" birthGen="445" fitness="28.303260803222656">
      <Nodes>
        <Node type="bias" id="0" />
        <Node type="in" id="1" />
        <Node type="in" id="2" />
        <Node type="in" id="3" />
        <Node type="in" id="4" />
        <Node type="in" id="5" />
        <Node type="in" id="6" />
        <Node type="out" id="7" />
        <Node type="out" id="8" />
        <Node type="out" id="9" />
        <Node type="hid" id="60" />
      </Nodes>
      <Connections>
        <Con id="32" src="4" tgt="8" wght="2.1627475683093174" />
        <Con id="33" src="6" tgt="7" wght="-4.021378852419593" />
        <Con id="47" src="0" tgt="7" wght="-1.8318226341734214" />
        <Con id="51" src="1" tgt="7" wght="3.0267149644868772" />
        <Con id="61" src="1" tgt="60" wght="-0.60782868880778551" />
        <Con id="62" src="60" tgt="8" wght="-4.82894537600684" />
        <Con id="66" src="2" tgt="9" wght="2.2577412333591167" />
        <Con id="74" src="1" tgt="9" wght="-2.8197964548040781" />
        <Con id="75" src="60" tgt="9" wght="-1.5171747870128369" />
      </Connections>
    </Network>
    <Network id="18012" birthGen="445" fitness="0.046858374029397964">
      <Nodes>
        <Node type="bias" id="0" />
        <Node type="in" id="1" />
        <Node type="in" id="2" />
        <Node type="in" id="3" />
        <Node type="in" id="4" />
        <Node type="in" id="5" />
        <Node type="in" id="6" />
        <Node type="out" id="7" />
        <Node type="out" id="8" />
        <Node type="out" id="9" />
        <Node type="hid" id="60" />
      </Nodes>
      <Connections>
        <Con id="32" src="4" tgt="8" wght="2.1627475683093174" />
        <Con id="33" src="6" tgt="7" wght="-4.0253613149780865" />
        <Con id="47" src="0" tgt="7" wght="-1.8318226341734214" />
        <Con id="51" src="1" tgt="7" wght="0.72119497383862674" />
        <Con id="61" src="1" tgt="60" wght="-1.6642242696131726" />
        <Con id="62" src="60" tgt="8" wght="-4.82894537600684" />
        <Con id="66" src="2" tgt="9" wght="0.2494495477461891" />
        <Con id="74" src="1" tgt="9" wght="-2.8197964548040781" />
        <Con id="75" src="60" tgt="9" wght="-1.5171747870128369" />
      </Connections>
    </Network>
    <Network id="18013" birthGen="445" fitness="28.336050033569336">
      <Nodes>
        <Node type="bias" id="0" />
        <Node type="in" id="1" />
        <Node type="in" id="2" />
        <Node type="in" id="3" />
        <Node type="in" id="4" />
        <Node type="in" id="5" />
        <Node type="in" id="6" />
        <Node type="out" id="7" />
        <Node type="out" id="8" />
        <Node type="out" id="9" />
        <Node type="hid" id="60" />
      </Nodes>
      <Connections>
        <Con id="32" src="4" tgt="8" wght="2.1627475683093174" />
        <Con id="33" src="6" tgt="7" wght="-4.0253613149780865" />
        <Con id="47" src="0" tgt="7" wght="-1.8318226341734214" />
        <Con id="51" src="1" tgt="7" wght="3.0267149644868772" />
        <Con id="61" src="1" tgt="60" wght="-0.60782868880778551" />
        <Con id="62" src="60" tgt="8" wght="-4.82894537600684" />
        <Con id="66" src="2" tgt="9" wght="2.2360329476245777" />
        <Con id="74" src="1" tgt="9" wght="-2.856371140437135" />
        <Con id="75" src="60" tgt="9" wght="-1.5171747870128369" />
      </Connections>
    </Network>
    <Network id="18014" birthGen="445" fitness="27.235002517700195">
      <Nodes>
        <Node type="bias" id="0" />
        <Node type="in" id="1" />
        <Node type="in" id="2" />
        <Node type="in" id="3" />
        <Node type="in" id="4" />
        <Node type="in" id="5" />
        <Node type="in" id="6" />
        <Node type="out" id="7" />
        <Node type="out" id="8" />
        <Node type="out" id="9" />
        <Node type="hid" id="60" />
      </Nodes>
      <Connections>
        <Con id="32" src="4" tgt="8" wght="2.1627475683093174" />
        <Con id="33" src="6" tgt="7" wght="-4.0253613149780865" />
        <Con id="47" src="0" tgt="7" wght="-1.8318226341734214" />
        <Con id="51" src="1" tgt="7" wght="3.0389819053907" />
        <Con id="61" src="1" tgt="60" wght="-0.60782868880778551" />
        <Con id="62" src="60" tgt="8" wght="-4.82894537600684" />
        <Con id="66" src="2" tgt="9" wght="2.2789960897240968" />
        <Con id="74" src="1" tgt="9" wght="-2.8197964548040781" />
        <Con id="75" src="60" tgt="9" wght="-1.5561897522089874" />
      </Connections>
    </Network>
    <Network id="18015" birthGen="445" fitness="0.18142302334308624">
      <Nodes>
        <Node type="bias" id="0" />
        <Node type="in" id="1" />
        <Node type="in" id="2" />
        <Node type="in" id="3" />
        <Node type="in" id="4" />
        <Node type="in" id="5" />
        <Node type="in" id="6" />
        <Node type="out" id="7" />
        <Node type="out" id="8" />
        <Node type="out" id="9" />
        <Node type="hid" id="60" />
      </Nodes>
      <Connections>
        <Con id="32" src="4" tgt="8" wght="2.17713230576586" />
        <Con id="47" src="0" tgt="7" wght="-2.7337309121501434" />
        <Con id="51" src="1" tgt="7" wght="4.62240003871937" />
        <Con id="61" src="1" tgt="60" wght="-0.42647304282926135" />
        <Con id="62" src="60" tgt="8" wght="-4.8650366283437272" />
        <Con id="66" src="2" tgt="9" wght="4.20606090075584" />
        <Con id="74" src="1" tgt="9" wght="-4.1964213994248194" />
        <Con id="76" src="3" tgt="9" wght="-1.203890544490807" />
      </Connections>
    </Network>
    <Network id="18016" birthGen="445" fitness="25.212791442871094">
      <Nodes>
        <Node type="bias" id="0" />
        <Node type="in" id="1" />
        <Node type="in" id="2" />
        <Node type="in" id="3" />
        <Node type="in" id="4" />
        <Node type="in" id="5" />
        <Node type="in" id="6" />
        <Node type="out" id="7" />
        <Node type="out" id="8" />
        <Node type="out" id="9" />
        <Node type="hid" id="60" />
      </Nodes>
      <Connections>
        <Con id="32" src="4" tgt="8" wght="2.17713230576586" />
        <Con id="47" src="0" tgt="7" wght="-2.90576397034776" />
        <Con id="51" src="1" tgt="7" wght="4.62240003871937" />
        <Con id="61" src="1" tgt="60" wght="-0.59885991464732224" />
        <Con id="62" src="60" tgt="8" wght="-4.8650366283437272" />
        <Con id="66" src="2" tgt="9" wght="4.20606090075584" />
        <Con id="74" src="1" tgt="9" wght="-4.218260297549719" />
        <Con id="76" src="3" tgt="9" wght="-1.203890544490807" />
      </Connections>
    </Network>
    <Network id="18017" birthGen="445" fitness="0.0468972884118557">
      <Nodes>
        <Node type="bias" id="0" />
        <Node type="in" id="1" />
        <Node type="in" id="2" />
        <Node type="in" id="3" />
        <Node type="in" id="4" />
        <Node type="in" id="5" />
        <Node type="in" id="6" />
        <Node type="out" id="7" />
        <Node type="out" id="8" />
        <Node type="out" id="9" />
        <Node type="hid" id="60" />
      </Nodes>
      <Connections>
        <Con id="32" src="4" tgt="8" wght="2.17713230576586" />
        <Con id="47" src="0" tgt="7" wght="-2.90576397034776" />
        <Con id="51" src="1" tgt="7" wght="0.44360855128616095" />
        <Con id="61" src="1" tgt="60" wght="-0.59885991464732224" />
        <Con id="62" src="60" tgt="8" wght="3.1315301638096571" />
        <Con id="66" src="2" tgt="9" wght="-2.52595538739115" />
        <Con id="74" src="1" tgt="9" wght="-4.1964213994248194" />
        <Con id="76" src="3" tgt="9" wght="-1.203890544490807" />
      </Connections>
    </Network>
    <Network id="18018" birthGen="445" fitness="28.295680999755859">
      <Nodes>
        <Node type="bias" id="0" />
        <Node type="in" id="1" />
        <Node type="in" id="2" />
        <Node type="in" id="3" />
        <Node type="in" id="4" />
        <Node type="in" id="5" />
        <Node type="in" id="6" />
        <Node type="out" id="7" />
        <Node type="out" id="8" />
        <Node type="out" id="9" />
        <Node type="hid" id="60" />
      </Nodes>
      <Connections>
        <Con id="32" src="4" tgt="8" wght="2.17713230576586" />
        <Con id="47" src="0" tgt="7" wght="-3.568563511227425" />
        <Con id="51" src="1" tgt="7" wght="4.62240003871937" />
        <Con id="61" src="1" tgt="60" wght="-0.59885991464732224" />
        <Con id="62" src="60" tgt="8" wght="-4.8650366283437272" />
        <Con id="66" src="2" tgt="9" wght="5" />
        <Con id="74" src="1" tgt="9" wght="-4.1964213994248194" />
        <Con id="76" src="3" tgt="9" wght="-1.203890544490807" />
      </Connections>
    </Network>
    <Network id="18019" birthGen="445" fitness="9.1981773376464844">
      <Nodes>
        <Node type="bias" id="0" />
        <Node type="in" id="1" />
        <Node type="in" id="2" />
        <Node type="in" id="3" />
        <Node type="in" id="4" />
        <Node type="in" id="5" />
        <Node type="in" id="6" />
        <Node type="out" id="7" />
        <Node type="out" id="8" />
        <Node type="out" id="9" />
        <Node type="hid" id="60" />
        <Node type="hid" id="83" />
      </Nodes>
      <Connections>
        <Con id="32" src="4" tgt="8" wght="1.716343952110875" />
        <Con id="47" src="0" tgt="7" wght="-1.3737123528097492" />
        <Con id="51" src="1" tgt="7" wght="2.9516861477643812" />
        <Con id="61" src="1" tgt="60" wght="-1.8593851006516107" />
        <Con id="62" src="60" tgt="8" wght="-5" />
        <Con id="84" src="2" tgt="83" wght="1.8181083021940805" />
        <Con id="85" src="83" tgt="9" wght="5" />
      </Connections>
    </Network>
    <Network id="18020" birthGen="445" fitness="29.340127944946289">
      <Nodes>
        <Node type="bias" id="0" />
        <Node type="in" id="1" />
        <Node type="in" id="2" />
        <Node type="in" id="3" />
        <Node type="in" id="4" />
        <Node type="in" id="5" />
        <Node type="in" id="6" />
        <Node type="out" id="7" />
        <Node type="out" id="8" />
        <Node type="out" id="9" />
        <Node type="hid" id="60" />
        <Node type="hid" id="83" />
      </Nodes>
      <Connections>
        <Con id="32" src="4" tgt="8" wght="1.6986250671912813" />
        <Con id="47" src="0" tgt="7" wght="-1.3764254499924689" />
        <Con id="51" src="1" tgt="7" wght="2.9516861477643812" />
        <Con id="61" src="1" tgt="60" wght="-1.8762077223561144" />
        <Con id="62" src="60" tgt="8" wght="-5" />
        <Con id="84" src="2" tgt="83" wght="1.8055866809796173" />
        <Con id="85" src="83" tgt="9" wght="5" />
      </Connections>
    </Network>
    <Network id="18021" birthGen="445" fitness="2.1808500289916992">
      <Nodes>
        <Node type="bias" id="0" />
        <Node type="in" id="1" />
        <Node type="in" id="2" />
        <Node type="in" id="3" />
        <Node type="in" id="4" />
        <Node type="in" id="5" />
        <Node type="in" id="6" />
        <Node type="out" id="7" />
        <Node type="out" id="8" />
        <Node type="out" id="9" />
        <Node type="hid" id="60" />
        <Node type="hid" id="83" />
      </Nodes>
      <Connections>
        <Con id="32" src="4" tgt="8" wght="1.6986250671912813" />
        <Con id="47" src="0" tgt="7" wght="-1.3764254499924689" />
        <Con id="51" src="1" tgt="7" wght="1.8091417936201244" />
        <Con id="61" src="1" tgt="60" wght="-1.8762077223561144" />
        <Con id="62" src="60" tgt="8" wght="-5" />
        <Con id="84" src="2" tgt="83" wght="1.43400450568102" />
        <Con id="85" src="83" tgt="9" wght="4.2150753624313486" />
      </Connections>
    </Network>
    <Network id="18022" birthGen="445" fitness="28.31443977355957">
      <Nodes>
        <Node type="bias" id="0" />
        <Node type="in" id="1" />
        <Node type="in" id="2" />
        <Node type="in" id="3" />
        <Node type="in" id="4" />
        <Node type="in" id="5" />
        <Node type="in" id="6" />
        <Node type="out" id="7" />
        <Node type="out" id="8" />
        <Node type="out" id="9" />
        <Node type="hid" id="60" />
        <Node type="hid" id="83" />
      </Nodes>
      <Connections>
        <Con id="32" src="4" tgt="8" wght="1.6986250671912813" />
        <Con id="47" src="0" tgt="7" wght="-1.3764254499924689" />
        <Con id="51" src="1" tgt="7" wght="1.8091417936201244" />
        <Con id="61" src="1" tgt="60" wght="-1.8762077223561144" />
        <Con id="62" src="60" tgt="8" wght="-5" />
        <Con id="84" src="2" tgt="83" wght="1.43400450568102" />
        <Con id="85" src="83" tgt="9" wght="5" />
      </Connections>
    </Network>
    <Network id="18023" birthGen="445" fitness="28.26506233215332">
      <Nodes>
        <Node type="bias" id="0" />
        <Node type="in" id="1" />
        <Node type="in" id="2" />
        <Node type="in" id="3" />
        <Node type="in" id="4" />
        <Node type="in" id="5" />
        <Node type="in" id="6" />
        <Node type="out" id="7" />
        <Node type="out" id="8" />
        <Node type="out" id="9" />
        <Node type="hid" id="60" />
        <Node type="hid" id="83" />
      </Nodes>
      <Connections>
        <Con id="32" src="4" tgt="8" wght="1.6536403879226307" />
        <Con id="37" src="2" tgt="7" wght="-1.7650491637269654" />
        <Con id="47" src="0" tgt="7" wght="-1.8281256805548394" />
        <Con id="51" src="1" tgt="7" wght="4.0305252284438282" />
        <Con id="61" src="1" tgt="60" wght="-1.89832760660645" />
        <Con id="62" src="60" tgt="8" wght="-4.975158340005315" />
        <Con id="84" src="2" tgt="83" wght="2.4292024092967446" />
        <Con id="85" src="83" tgt="9" wght="0.23043154249324066" />
      </Connections>
    </Network>
    <Network id="18024" birthGen="445" fitness="30.378118515014648">
      <Nodes>
        <Node type="bias" id="0" />
        <Node type="in" id="1" />
        <Node type="in" id="2" />
        <Node type="in" id="3" />
        <Node type="in" id="4" />
        <Node type="in" id="5" />
        <Node type="in" id="6" />
        <Node type="out" id="7" />
        <Node type="out" id="8" />
        <Node type="out" id="9" />
        <Node type="hid" id="60" />
        <Node type="hid" id="83" />
      </Nodes>
      <Connections>
        <Con id="32" src="4" tgt="8" wght="1.6536403879226307" />
        <Con id="37" src="2" tgt="7" wght="-0.88295275373848292" />
        <Con id="47" src="0" tgt="7" wght="-2.8144598975424766" />
        <Con id="51" src="1" tgt="7" wght="4.0305252284438282" />
        <Con id="61" src="1" tgt="60" wght="-1.89832760660645" />
        <Con id="62" src="60" tgt="8" wght="-4.9505994073182391" />
        <Con id="84" src="2" tgt="83" wght="2.4292024092967446" />
        <Con id="85" src="83" tgt="9" wght="0.23280261807772767" />
      </Connections>
    </Network>
    <Network id="18025" birthGen="445" fitness="29.304496765136719">
      <Nodes>
        <Node type="bias" id="0" />
        <Node type="in" id="1" />
        <Node type="in" id="2" />
        <Node type="in" id="3" />
        <Node type="in" id="4" />
        <Node type="in" id="5" />
        <Node type="in" id="6" />
        <Node type="out" id="7" />
        <Node type="out" id="8" />
        <Node type="out" id="9" />
        <Node type="hid" id="60" />
        <Node type="hid" id="83" />
      </Nodes>
      <Connections>
        <Con id="32" src="4" tgt="8" wght="1.6536403879226307" />
        <Con id="37" src="2" tgt="7" wght="-0.88295275373848292" />
        <Con id="47" src="0" tgt="7" wght="-3.7652962433256563" />
        <Con id="51" src="1" tgt="7" wght="4.0305252284438282" />
        <Con id="61" src="1" tgt="60" wght="-1.89832760660645" />
        <Con id="62" src="60" tgt="8" wght="-4.975158340005315" />
        <Con id="84" src="2" tgt="83" wght="2.4292024092967446" />
        <Con id="85" src="83" tgt="9" wght="0.23043154249324066" />
      </Connections>
    </Network>
    <Network id="18026" birthGen="445" fitness="26.201925277709961">
      <Nodes>
        <Node type="bias" id="0" />
        <Node type="in" id="1" />
        <Node type="in" id="2" />
        <Node type="in" id="3" />
        <Node type="in" id="4" />
        <Node type="in" id="5" />
        <Node type="in" id="6" />
        <Node type="out" id="7" />
        <Node type="out" id="8" />
        <Node type="out" id="9" />
        <Node type="hid" id="60" />
        <Node type="hid" id="83" />
      </Nodes>
      <Connections>
        <Con id="32" src="4" tgt="8" wght="1.6536403879226307" />
        <Con id="37" src="2" tgt="7" wght="-0.88295275373848292" />
        <Con id="47" src="0" tgt="7" wght="-2.8144598975424766" />
        <Con id="51" src="1" tgt="7" wght="4.0305252284438282" />
        <Con id="61" src="1" tgt="60" wght="-1.8870281809400584" />
        <Con id="62" src="60" tgt="8" wght="-4.975158340005315" />
        <Con id="84" src="2" tgt="83" wght="2.4292024092967446" />
        <Con id="85" src="83" tgt="9" wght="0.23043154249324066" />
      </Connections>
    </Network>
    <Network id="18027" birthGen="445" fitness="30.4178409576416">
      <Nodes>
        <Node type="bias" id="0" />
        <Node type="in" id="1" />
        <Node type="in" id="2" />
        <Node type="in" id="3" />
        <Node type="in" id="4" />
        <Node type="in" id="5" />
        <Node type="in" id="6" />
        <Node type="out" id="7" />
        <Node type="out" id="8" />
        <Node type="out" id="9" />
        <Node type="hid" id="60" />
        <Node type="hid" id="83" />
      </Nodes>
      <Connections>
        <Con id="32" src="4" tgt="8" wght="1.6655512190588817" />
        <Con id="37" src="2" tgt="7" wght="0.30835728576344573" />
        <Con id="47" src="0" tgt="7" wght="-2.7831220838667612" />
        <Con id="51" src="1" tgt="7" wght="4.25466088754108" />
        <Con id="61" src="1" tgt="60" wght="-1.9431828245589637" />
        <Con id="62" src="60" tgt="8" wght="-4.9927996563355626" />
        <Con id="84" src="2" tgt="83" wght="0.75918712114799725" />
        <Con id="85" src="83" tgt="9" wght="0.23043154249324066" />
      </Connections>
    </Network>
    <Network id="18028" birthGen="445" fitness="27.235452651977539">
      <Nodes>
        <Node type="bias" id="0" />
        <Node type="in" id="1" />
        <Node type="in" id="2" />
        <Node type="in" id="3" />
        <Node type="in" id="4" />
        <Node type="in" id="5" />
        <Node type="in" id="6" />
        <Node type="out" id="7" />
        <Node type="out" id="8" />
        <Node type="out" id="9" />
        <Node type="hid" id="60" />
        <Node type="hid" id="83" />
      </Nodes>
      <Connections>
        <Con id="32" src="4" tgt="8" wght="1.6655512190588817" />
        <Con id="37" src="2" tgt="7" wght="0.30835728576344573" />
        <Con id="47" src="0" tgt="7" wght="-2.7831220838667612" />
        <Con id="51" src="1" tgt="7" wght="4.25466088754108" />
        <Con id="61" src="1" tgt="60" wght="-1.9313097287898482" />
        <Con id="62" src="60" tgt="8" wght="-5" />
        <Con id="84" src="2" tgt="83" wght="0.73814637035827468" />
        <Con id="85" src="83" tgt="9" wght="0.23043154249324066" />
      </Connections>
    </Network>
    <Network id="18029" birthGen="445" fitness="0.26240292191505432">
      <Nodes>
        <Node type="bias" id="0" />
        <Node type="in" id="1" />
        <Node type="in" id="2" />
        <Node type="in" id="3" />
        <Node type="in" id="4" />
        <Node type="in" id="5" />
        <Node type="in" id="6" />
        <Node type="out" id="7" />
        <Node type="out" id="8" />
        <Node type="out" id="9" />
        <Node type="hid" id="60" />
        <Node type="hid" id="83" />
      </Nodes>
      <Connections>
        <Con id="32" src="4" tgt="8" wght="1.6655512190588817" />
        <Con id="37" src="2" tgt="7" wght="0.904423170217524" />
        <Con id="47" src="0" tgt="7" wght="-2.7831220838667612" />
        <Con id="51" src="1" tgt="7" wght="4.25466088754108" />
        <Con id="61" src="1" tgt="60" wght="-1.9232597178872197" />
        <Con id="62" src="60" tgt="8" wght="-5" />
        <Con id="84" src="2" tgt="83" wght="0.73814637035827468" />
        <Con id="85" src="83" tgt="9" wght="-0.25724658735407957" />
      </Connections>
    </Network>
    <Network id="18030" birthGen="445" fitness="30.399887084960938">
      <Nodes>
        <Node type="bias" id="0" />
        <Node type="in" id="1" />
        <Node type="in" id="2" />
        <Node type="in" id="3" />
        <Node type="in" id="4" />
        <Node type="in" id="5" />
        <Node type="in" id="6" />
        <Node type="out" id="7" />
        <Node type="out" id="8" />
        <Node type="out" id="9" />
        <Node type="hid" id="60" />
        <Node type="hid" id="83" />
      </Nodes>
      <Connections>
        <Con id="32" src="4" tgt="8" wght="1.6655512190588817" />
        <Con id="37" src="2" tgt="7" wght="0.30835728576344573" />
        <Con id="47" src="0" tgt="7" wght="-2.7831220838667612" />
        <Con id="51" src="1" tgt="7" wght="4.2749201561580028" />
        <Con id="61" src="1" tgt="60" wght="-1.9232597178872197" />
        <Con id="62" src="60" tgt="8" wght="-5" />
        <Con id="84" src="2" tgt="83" wght="0.73814637035827468" />
        <Con id="85" src="83" tgt="9" wght="0.21398891839864229" />
      </Connections>
    </Network>
    <Network id="18031" birthGen="445" fitness="0.043446850031614304">
      <Nodes>
        <Node type="bias" id="0" />
        <Node type="in" id="1" />
        <Node type="in" id="2" />
        <Node type="in" id="3" />
        <Node type="in" id="4" />
        <Node type="in" id="5" />
        <Node type="in" id="6" />
        <Node type="out" id="7" />
        <Node type="out" id="8" />
        <Node type="out" id="9" />
        <Node type="hid" id="60" />
        <Node type="hid" id="83" />
      </Nodes>
      <Connections>
        <Con id="32" src="4" tgt="8" wght="1.6655512190588817" />
        <Con id="37" src="2" tgt="7" wght="0.30835728576344573" />
        <Con id="47" src="0" tgt="7" wght="-4.9321335873428884" />
        <Con id="51" src="1" tgt="7" wght="4.25466088754108" />
        <Con id="61" src="1" tgt="60" wght="-1.9232597178872197" />
        <Con id="62" src="60" tgt="8" wght="-5" />
        <Con id="84" src="2" tgt="83" wght="0.73814637035827468" />
        <Con id="85" src="83" tgt="9" wght="0.23043154249324066" />
      </Connections>
    </Network>
    <Network id="18032" birthGen="445" fitness="4.2691435813903809">
      <Nodes>
        <Node type="bias" id="0" />
        <Node type="in" id="1" />
        <Node type="in" id="2" />
        <Node type="in" id="3" />
        <Node type="in" id="4" />
        <Node type="in" id="5" />
        <Node type="in" id="6" />
        <Node type="out" id="7" />
        <Node type="out" id="8" />
        <Node type="out" id="9" />
        <Node type="hid" id="60" />
      </Nodes>
      <Connections>
        <Con id="32" src="4" tgt="8" wght="2.1567026244613157" />
        <Con id="33" src="6" tgt="7" wght="-1.2485401565209031" />
        <Con id="47" src="0" tgt="7" wght="-1.8572786217555404" />
        <Con id="51" src="1" tgt="7" wght="2.3705538269132376" />
        <Con id="61" src="1" tgt="60" wght="-0.60782868880778551" />
        <Con id="62" src="60" tgt="8" wght="-4.7935044278135859" />
        <Con id="66" src="2" tgt="9" wght="2.7217452403525679" />
        <Con id="74" src="1" tgt="9" wght="4.5058960731252373" />
        <Con id="75" src="60" tgt="9" wght="-3.491715881973505" />
      </Connections>
    </Network>
    <Network id="18033" birthGen="445" fitness="28.312965393066406">
      <Nodes>
        <Node type="bias" id="0" />
        <Node type="in" id="1" />
        <Node type="in" id="2" />
        <Node type="in" id="3" />
        <Node type="in" id="4" />
        <Node type="in" id="5" />
        <Node type="in" id="6" />
        <Node type="out" id="7" />
        <Node type="out" id="8" />
        <Node type="out" id="9" />
        <Node type="hid" id="60" />
      </Nodes>
      <Connections>
        <Con id="32" src="4" tgt="8" wght="2.1567026244613157" />
        <Con id="33" src="6" tgt="7" wght="0.66608949172367093" />
        <Con id="47" src="0" tgt="7" wght="-1.8443180681224682" />
        <Con id="51" src="1" tgt="7" wght="2.3510131912351544" />
        <Con id="61" src="1" tgt="60" wght="-0.60782868880778551" />
        <Con id="62" src="60" tgt="8" wght="-4.7935044278135859" />
        <Con id="66" src="2" tgt="9" wght="2.7217452403525679" />
        <Con id="74" src="1" tgt="9" wght="4.5058960731252373" />
        <Con id="75" src="60" tgt="9" wght="-0.73431721970360331" />
      </Connections>
    </Network>
    <Network id="18034" birthGen="445" fitness="4.1723566055297852">
      <Nodes>
        <Node type="bias" id="0" />
        <Node type="in" id="1" />
        <Node type="in" id="2" />
        <Node type="in" id="3" />
        <Node type="in" id="4" />
        <Node type="in" id="5" />
        <Node type="in" id="6" />
        <Node type="out" id="7" />
        <Node type="out" id="8" />
        <Node type="out" id="9" />
        <Node type="hid" id="60" />
      </Nodes>
      <Connections>
        <Con id="32" src="4" tgt="8" wght="2.1567026244613157" />
        <Con id="33" src="6" tgt="7" wght="0.66743604134074819" />
        <Con id="47" src="0" tgt="7" wght="-1.8572786217555404" />
        <Con id="51" src="1" tgt="7" wght="2.3580126533049262" />
        <Con id="61" src="1" tgt="60" wght="-0.60782868880778551" />
        <Con id="62" src="60" tgt="8" wght="-4.7935044278135859" />
        <Con id="66" src="2" tgt="9" wght="2.7217452403525679" />
        <Con id="74" src="1" tgt="9" wght="4.5058960731252373" />
        <Con id="75" src="60" tgt="9" wght="-0.73431721970360331" />
      </Connections>
    </Network>
    <Network id="18035" birthGen="445" fitness="26.227081298828125">
      <Nodes>
        <Node type="bias" id="0" />
        <Node type="in" id="1" />
        <Node type="in" id="2" />
        <Node type="in" id="3" />
        <Node type="in" id="4" />
        <Node type="in" id="5" />
        <Node type="in" id="6" />
        <Node type="out" id="7" />
        <Node type="out" id="8" />
        <Node type="out" id="9" />
        <Node type="hid" id="60" />
      </Nodes>
      <Connections>
        <Con id="32" src="4" tgt="8" wght="2.1567026244613157" />
        <Con id="33" src="6" tgt="7" wght="0.64244827106351254" />
        <Con id="47" src="0" tgt="7" wght="-1.8572786217555404" />
        <Con id="51" src="1" tgt="7" wght="2.3705538269132376" />
        <Con id="61" src="1" tgt="60" wght="-0.60782868880778551" />
        <Con id="62" src="60" tgt="8" wght="-4.7935044278135859" />
        <Con id="66" src="2" tgt="9" wght="2.7217452403525679" />
        <Con id="74" src="1" tgt="9" wght="3.4543924519964362" />
        <Con id="75" src="60" tgt="9" wght="1.6233910899118689" />
      </Connections>
    </Network>
    <Network id="18036" birthGen="445" fitness="0.033100530505180359">
      <Nodes>
        <Node type="bias" id="0" />
        <Node type="in" id="1" />
        <Node type="in" id="2" />
        <Node type="in" id="3" />
        <Node type="in" id="4" />
        <Node type="in" id="5" />
        <Node type="in" id="6" />
        <Node type="out" id="7" />
        <Node type="out" id="8" />
        <Node type="out" id="9" />
        <Node type="hid" id="60" />
      </Nodes>
      <Connections>
        <Con id="32" src="4" tgt="8" wght="2.1567026244613157" />
        <Con id="33" src="6" tgt="7" wght="0.64244827106351254" />
        <Con id="47" src="0" tgt="7" wght="-1.8572786217555404" />
        <Con id="51" src="1" tgt="7" wght="2.3705538269132376" />
        <Con id="61" src="1" tgt="60" wght="-0.023128627145985625" />
        <Con id="62" src="60" tgt="8" wght="-4.7935044278135859" />
        <Con id="66" src="2" tgt="9" wght="2.7217452403525679" />
        <Con id="74" src="1" tgt="9" wght="4.5058960731252373" />
        <Con id="75" src="60" tgt="9" wght="0.10850232285888506" />
      </Connections>
    </Network>
    <Network id="18037" birthGen="445" fitness="0.082907155156135559">
      <Nodes>
        <Node type="bias" id="0" />
        <Node type="in" id="1" />
        <Node type="in" id="2" />
        <Node type="in" id="3" />
        <Node type="in" id="4" />
        <Node type="in" id="5" />
        <Node type="in" id="6" />
        <Node type="out" id="7" />
        <Node type="out" id="8" />
        <Node type="out" id="9" />
        <Node type="hid" id="60" />
      </Nodes>
      <Connections>
        <Con id="32" src="4" tgt="8" wght="1.5834721793111981" />
        <Con id="33" src="6" tgt="7" wght="1.1215233951907788" />
        <Con id="47" src="0" tgt="7" wght="-1.8572786217555404" />
        <Con id="51" src="1" tgt="7" wght="2.3705538269132376" />
        <Con id="61" src="1" tgt="60" wght="-0.60782868880778551" />
        <Con id="62" src="60" tgt="8" wght="-4.7935044278135859" />
        <Con id="66" src="2" tgt="9" wght="2.7217452403525679" />
        <Con id="74" src="1" tgt="9" wght="4.5058960731252373" />
        <Con id="75" src="60" tgt="9" wght="-0.73431721970360331" />
      </Connections>
    </Network>
    <Network id="18038" birthGen="445" fitness="5.1163697242736816">
      <Nodes>
        <Node type="bias" id="0" />
        <Node type="in" id="1" />
        <Node type="in" id="2" />
        <Node type="in" id="3" />
        <Node type="in" id="4" />
        <Node type="in" id="5" />
        <Node type="in" id="6" />
        <Node type="out" id="7" />
        <Node type="out" id="8" />
        <Node type="out" id="9" />
        <Node type="hid" id="60" />
      </Nodes>
      <Connections>
        <Con id="32" src="4" tgt="8" wght="2.1567026244613157" />
        <Con id="33" src="6" tgt="7" wght="1.1215233951907788" />
        <Con id="47" src="0" tgt="7" wght="-2.1541433849538922" />
        <Con id="51" src="1" tgt="7" wght="2.3705538269132376" />
        <Con id="61" src="1" tgt="60" wght="-0.60782868880778551" />
        <Con id="62" src="60" tgt="8" wght="-4.7935044278135859" />
        <Con id="66" src="2" tgt="9" wght="2.7217452403525679" />
        <Con id="74" src="1" tgt="9" wght="4.5058960731252373" />
        <Con id="75" src="60" tgt="9" wght="-0.73431721970360331" />
      </Connections>
    </Network>
    <Network id="18039" birthGen="445" fitness="27.253128051757813">
      <Nodes>
        <Node type="bias" id="0" />
        <Node type="in" id="1" />
        <Node type="in" id="2" />
        <Node type="in" id="3" />
        <Node type="in" id="4" />
        <Node type="in" id="5" />
        <Node type="in" id="6" />
        <Node type="out" id="7" />
        <Node type="out" id="8" />
        <Node type="out" id="9" />
        <Node type="hid" id="60" />
      </Nodes>
      <Connections>
        <Con id="32" src="4" tgt="8" wght="2.1567026244613157" />
        <Con id="33" src="6" tgt="7" wght="1.1215233951907788" />
        <Con id="47" src="0" tgt="7" wght="-1.8572786217555404" />
        <Con id="51" src="1" tgt="7" wght="2.3705538269132376" />
        <Con id="61" src="1" tgt="60" wght="-0.60782868880778551" />
        <Con id="62" src="60" tgt="8" wght="-4.7935044278135859" />
        <Con id="66" src="2" tgt="9" wght="2.7005049430115964" />
        <Con id="74" src="1" tgt="9" wght="4.5058960731252373" />
        <Con id="75" src="60" tgt="9" wght="-0.73431721970360331" />
      </Connections>
    </Network>
    <Network id="18040" birthGen="445" fitness="4.1952915191650391">
      <Nodes>
        <Node type="bias" id="0" />
        <Node type="in" id="1" />
        <Node type="in" id="2" />
        <Node type="in" id="3" />
        <Node type="in" id="4" />
        <Node type="in" id="5" />
        <Node type="in" id="6" />
        <Node type="out" id="7" />
        <Node type="out" id="8" />
        <Node type="out" id="9" />
        <Node type="hid" id="60" />
      </Nodes>
      <Connections>
        <Con id="32" src="4" tgt="8" wght="2.1567026244613157" />
        <Con id="33" src="6" tgt="7" wght="1.1215233951907788" />
        <Con id="47" src="0" tgt="7" wght="-1.8572786217555404" />
        <Con id="51" src="1" tgt="7" wght="2.3705538269132376" />
        <Con id="61" src="1" tgt="60" wght="-0.60782868880778551" />
        <Con id="62" src="60" tgt="8" wght="-4.7935044278135859" />
        <Con id="66" src="2" tgt="9" wght="2.7486069532240451" />
        <Con id="74" src="1" tgt="9" wght="3.1305609385662621" />
        <Con id="75" src="60" tgt="9" wght="1.3218872825916321" />
      </Connections>
    </Network>
    <Network id="18041" birthGen="445" fitness="29.363574981689453">
      <Nodes>
        <Node type="bias" id="0" />
        <Node type="in" id="1" />
        <Node type="in" id="2" />
        <Node type="in" id="3" />
        <Node type="in" id="4" />
        <Node type="in" id="5" />
        <Node type="in" id="6" />
        <Node type="out" id="7" />
        <Node type="out" id="8" />
        <Node type="out" id="9" />
        <Node type="hid" id="60" />
      </Nodes>
      <Connections>
        <Con id="32" src="4" tgt="8" wght="2.1567026244613157" />
        <Con id="33" src="6" tgt="7" wght="1.1215233951907788" />
        <Con id="47" src="0" tgt="7" wght="-1.8572786217555404" />
        <Con id="51" src="1" tgt="7" wght="2.3705538269132376" />
        <Con id="61" src="1" tgt="60" wght="-0.60782868880778551" />
        <Con id="62" src="60" tgt="8" wght="-4.7935044278135859" />
        <Con id="66" src="2" tgt="9" wght="2.7217452403525679" />
        <Con id="74" src="1" tgt="9" wght="4.5058960731252373" />
        <Con id="75" src="60" tgt="9" wght="-0.72492490210259453" />
      </Connections>
    </Network>
    <Network id="18042" birthGen="445" fitness="25.198278427124023">
      <Nodes>
        <Node type="bias" id="0" />
        <Node type="in" id="1" />
        <Node type="in" id="2" />
        <Node type="in" id="3" />
        <Node type="in" id="4" />
        <Node type="in" id="5" />
        <Node type="in" id="6" />
        <Node type="out" id="7" />
        <Node type="out" id="8" />
        <Node type="out" id="9" />
        <Node type="hid" id="60" />
      </Nodes>
      <Connections>
        <Con id="32" src="4" tgt="8" wght="2.1567026244613157" />
        <Con id="33" src="6" tgt="7" wght="-0.13281074105229485" />
        <Con id="47" src="0" tgt="7" wght="-1.8572786217555404" />
        <Con id="51" src="1" tgt="7" wght="2.3705538269132376" />
        <Con id="61" src="1" tgt="60" wght="-0.56941284469706377" />
        <Con id="62" src="60" tgt="8" wght="-4.7943323679991545" />
        <Con id="66" src="2" tgt="9" wght="2.7217452403525679" />
        <Con id="74" src="1" tgt="9" wght="4.4978800308341915" />
        <Con id="75" src="60" tgt="9" wght="-0.73431721970360331" />
      </Connections>
    </Network>
    <Network id="18043" birthGen="445" fitness="1.2251811027526855">
      <Nodes>
        <Node type="bias" id="0" />
        <Node type="in" id="1" />
        <Node type="in" id="2" />
        <Node type="in" id="3" />
        <Node type="in" id="4" />
        <Node type="in" id="5" />
        <Node type="in" id="6" />
        <Node type="out" id="7" />
        <Node type="out" id="8" />
        <Node type="out" id="9" />
        <Node type="hid" id="60" />
      </Nodes>
      <Connections>
        <Con id="32" src="4" tgt="8" wght="2.1567026244613157" />
        <Con id="33" src="6" tgt="7" wght="0.64244827106351254" />
        <Con id="47" src="0" tgt="7" wght="-1.8572786217555404" />
        <Con id="51" src="1" tgt="7" wght="2.8916882626539588" />
        <Con id="61" src="1" tgt="60" wght="-1.320740109939917" />
        <Con id="62" src="60" tgt="8" wght="-4.7943323679991545" />
        <Con id="66" src="2" tgt="9" wght="2.7217452403525679" />
        <Con id="74" src="1" tgt="9" wght="4.4978800308341915" />
        <Con id="75" src="60" tgt="9" wght="-0.73431721970360331" />
      </Connections>
    </Network>
    <Network id="18044" birthGen="445" fitness="26.197029113769531">
      <Nodes>
        <Node type="bias" id="0" />
        <Node type="in" id="1" />
        <Node type="in" id="2" />
        <Node type="in" id="3" />
        <Node type="in" id="4" />
        <Node type="in" id="5" />
        <Node type="in" id="6" />
        <Node type="out" id="7" />
        <Node type="out" id="8" />
        <Node type="out" id="9" />
        <Node type="hid" id="60" />
      </Nodes>
      <Connections>
        <Con id="32" src="4" tgt="8" wght="2.1567026244613157" />
        <Con id="33" src="6" tgt="7" wght="0.64244827106351254" />
        <Con id="47" src="0" tgt="7" wght="-1.8572786217555404" />
        <Con id="51" src="1" tgt="7" wght="2.3705538269132376" />
        <Con id="61" src="1" tgt="60" wght="-0.56941284469706377" />
        <Con id="62" src="60" tgt="8" wght="-4.7943323679991545" />
        <Con id="66" src="2" tgt="9" wght="2.7217452403525679" />
        <Con id="74" src="1" tgt="9" wght="4.4978800308341915" />
        <Con id="75" src="60" tgt="9" wght="-0.73431721970360331" />
        <Con id="76" src="3" tgt="9" wght="-2.1940155746415257" />
      </Connections>
    </Network>
    <Network id="18045" birthGen="445" fitness="29.323165893554688">
      <Nodes>
        <Node type="bias" id="0" />
        <Node type="in" id="1" />
        <Node type="in" id="2" />
        <Node type="in" id="3" />
        <Node type="in" id="4" />
        <Node type="in" id="5" />
        <Node type="in" id="6" />
        <Node type="out" id="7" />
        <Node type="out" id="8" />
        <Node type="out" id="9" />
        <Node type="hid" id="60" />
      </Nodes>
      <Connections>
        <Con id="32" src="4" tgt="8" wght="2.1567026244613157" />
        <Con id="33" src="6" tgt="7" wght="0.33351508719333672" />
        <Con id="47" src="0" tgt="7" wght="-1.8572786217555404" />
        <Con id="51" src="1" tgt="7" wght="2.3705538269132376" />
        <Con id="61" src="1" tgt="60" wght="-0.56941284469706377" />
        <Con id="62" src="60" tgt="8" wght="-4.7943323679991545" />
        <Con id="66" src="2" tgt="9" wght="2.7217452403525679" />
        <Con id="74" src="1" tgt="9" wght="5" />
        <Con id="75" src="60" tgt="9" wght="-0.73431721970360331" />
      </Connections>
    </Network>
  </Networks>
</Root>