<?xml version="1.0" encoding="utf-8"?>
<Root>
  <ActivationFunctions>
    <Fn id="0" name="SteepenedSigmoid" prob="1" />
  </ActivationFunctions>
  <Networks>
    <Network id="324" birthGen="43" fitness="0.060378819704055786">
      <Nodes>
        <Node type="bias" id="0" />
        <Node type="in" id="1" />
        <Node type="in" id="2" />
        <Node type="out" id="3" />
        <Node type="out" id="4" />
      </Nodes>
      <Connections>
        <Con id="6" src="0" tgt="4" wght="-3.8415055326348666" />
        <Con id="14" src="1" tgt="3" wght="0.6674579751917995" />
        <Con id="16" src="2" tgt="3" wght="-2.0335506431742196" />
      </Connections>
    </Network>
    <Network id="327" birthGen="43" fitness="0.13880114257335663">
      <Nodes>
        <Node type="bias" id="0" />
        <Node type="in" id="1" />
        <Node type="in" id="2" />
        <Node type="out" id="3" />
        <Node type="out" id="4" />
      </Nodes>
      <Connections>
        <Con id="6" src="0" tgt="4" wght="-5" />
        <Con id="14" src="1" tgt="3" wght="0.30529454350374591" />
        <Con id="16" src="2" tgt="3" wght="-3.6625025936271047" />
      </Connections>
    </Network>
    <Network id="329" birthGen="44" fitness="0.071002617478370667">
      <Nodes>
        <Node type="bias" id="0" />
        <Node type="in" id="1" />
        <Node type="in" id="2" />
        <Node type="out" id="3" />
        <Node type="out" id="4" />
      </Nodes>
      <Connections>
        <Con id="6" src="0" tgt="4" wght="-4.9548141358440567" />
        <Con id="14" src="1" tgt="3" wght="0.30789734884683606" />
        <Con id="16" src="2" tgt="3" wght="-2.0942081242636834" />
      </Connections>
    </Network>
    <Network id="330" birthGen="44" fitness="0.10882820934057236">
      <Nodes>
        <Node type="bias" id="0" />
        <Node type="in" id="1" />
        <Node type="in" id="2" />
        <Node type="out" id="3" />
        <Node type="out" id="4" />
      </Nodes>
      <Connections>
        <Con id="6" src="0" tgt="4" wght="-5" />
        <Con id="14" src="1" tgt="3" wght="0.30529454350374591" />
        <Con id="16" src="2" tgt="3" wght="-3.4106632073133842" />
      </Connections>
    </Network>
    <Network id="331" birthGen="44" fitness="0.049984831362962723">
      <Nodes>
        <Node type="bias" id="0" />
        <Node type="in" id="1" />
        <Node type="in" id="2" />
        <Node type="out" id="3" />
        <Node type="out" id="4" />
      </Nodes>
      <Connections>
        <Con id="6" src="0" tgt="4" wght="-5" />
        <Con id="14" src="1" tgt="3" wght="-0.67476338982221751" />
        <Con id="16" src="2" tgt="3" wght="-3.4099167835349151" />
      </Connections>
    </Network>
    <Network id="332" birthGen="44" fitness="0.061050958931446075">
      <Nodes>
        <Node type="bias" id="0" />
        <Node type="in" id="1" />
        <Node type="in" id="2" />
        <Node type="out" id="3" />
        <Node type="out" id="4" />
      </Nodes>
      <Connections>
        <Con id="6" src="0" tgt="4" wght="-3.2949795108091595" />
        <Con id="14" src="1" tgt="3" wght="0.46008019405920508" />
        <Con id="16" src="2" tgt="3" wght="-2.9081408544487264" />
      </Connections>
    </Network>
    <Network id="333" birthGen="44" fitness="1.7217108011245728">
      <Nodes>
        <Node type="bias" id="0" />
        <Node type="in" id="1" />
        <Node type="in" id="2" />
        <Node type="out" id="3" />
        <Node type="out" id="4" />
      </Nodes>
      <Connections>
        <Con id="6" src="0" tgt="4" wght="-4.9211993867657711" />
        <Con id="14" src="1" tgt="3" wght="-0.11868940203387324" />
        <Con id="16" src="2" tgt="3" wght="-4.0562758704881645" />
      </Connections>
    </Network>
    <Network id="334" birthGen="44" fitness="0.063115328550338745">
      <Nodes>
        <Node type="bias" id="0" />
        <Node type="in" id="1" />
        <Node type="in" id="2" />
        <Node type="out" id="3" />
        <Node type="out" id="4" />
      </Nodes>
      <Connections>
        <Con id="6" src="0" tgt="4" wght="4.76284955162555" />
        <Con id="14" src="1" tgt="3" wght="0.30529454350374591" />
        <Con id="16" src="2" tgt="3" wght="1.5081220678985119" />
      </Connections>
    </Network>
    <Network id="335" birthGen="44" fitness="0.14172591269016266">
      <Nodes>
        <Node type="bias" id="0" />
        <Node type="in" id="1" />
        <Node type="in" id="2" />
        <Node type="out" id="3" />
        <Node type="out" id="4" />
      </Nodes>
      <Connections>
        <Con id="6" src="0" tgt="4" wght="-5" />
        <Con id="14" src="1" tgt="3" wght="0.30886131808790895" />
        <Con id="16" src="2" tgt="3" wght="-3.6489251822982225" />
      </Connections>
    </Network>
    <Network id="336" birthGen="44" fitness="0.050023242831230164">
      <Nodes>
        <Node type="bias" id="0" />
        <Node type="in" id="1" />
        <Node type="in" id="2" />
        <Node type="out" id="3" />
        <Node type="out" id="4" />
      </Nodes>
      <Connections>
        <Con id="8" src="1" tgt="4" wght="-1.4428663406460236" />
      </Connections>
    </Network>
  </Networks>
</Root>