<?xml version="1.0" encoding="utf-8"?>
<Root>
  <ActivationFunctions>
    <Fn id="0" name="SteepenedSigmoid" prob="1" />
  </ActivationFunctions>
  <Networks>
    <Network id="9020" birthGen="224" fitness="4.1603484153747559">
      <Nodes>
        <Node type="bias" id="0" />
        <Node type="in" id="1" />
        <Node type="in" id="2" />
        <Node type="in" id="3" />
        <Node type="in" id="4" />
        <Node type="in" id="5" />
        <Node type="in" id="6" />
        <Node type="out" id="7" />
        <Node type="out" id="8" />
        <Node type="out" id="9" />
        <Node type="hid" id="43" />
      </Nodes>
      <Connections>
        <Con id="11" src="0" tgt="8" wght="-4.476610507308191" />
        <Con id="31" src="5" tgt="7" wght="-1.0688433545697171" />
        <Con id="33" src="4" tgt="8" wght="-3.0523350357154966" />
        <Con id="37" src="3" tgt="7" wght="3.6160777779031958" />
        <Con id="38" src="3" tgt="8" wght="1.0411920342602337" />
        <Con id="42" src="0" tgt="7" wght="-0.84788851281713318" />
        <Con id="44" src="4" tgt="43" wght="-0.89178947550811427" />
        <Con id="45" src="43" tgt="8" wght="2.5603162282449703" />
        <Con id="49" src="5" tgt="8" wght="-2.9133819192850887" />
        <Con id="57" src="0" tgt="9" wght="-3.9677675233684333" />
      </Connections>
    </Network>
  </Networks>
</Root>