<?xml version="1.0" encoding="utf-8"?>
<Root>
  <ActivationFunctions>
    <Fn id="0" name="SteepenedSigmoid" prob="1" />
  </ActivationFunctions>
  <Networks>
    <Network id="3720" birthGen="91" fitness="20.161428451538086">
      <Nodes>
        <Node type="bias" id="0" />
        <Node type="in" id="1" />
        <Node type="in" id="2" />
        <Node type="in" id="3" />
        <Node type="in" id="4" />
        <Node type="in" id="5" />
        <Node type="in" id="6" />
        <Node type="out" id="7" />
        <Node type="out" id="8" />
        <Node type="out" id="9" />
        <Node type="hid" id="53" />
      </Nodes>
      <Connections>
        <Con id="20" src="3" tgt="8" wght="-2.4446318754270724" />
        <Con id="31" src="3" tgt="7" wght="3.6420451238829821" />
        <Con id="33" src="0" tgt="8" wght="2.5609512442959592" />
        <Con id="42" src="0" tgt="7" wght="-1.8545372237189466" />
        <Con id="46" src="2" tgt="8" wght="4.0606276616852055" />
        <Con id="54" src="6" tgt="53" wght="1.6356975287275362" />
        <Con id="55" src="53" tgt="8" wght="-2.1784990394118022" />
        <Con id="57" src="3" tgt="9" wght="4.2847942792265314" />
      </Connections>
    </Network>
  </Networks>
</Root>