<?xml version="1.0" encoding="utf-8"?>
<Root>
  <ActivationFunctions>
    <Fn id="0" name="SteepenedSigmoid" prob="1" />
  </ActivationFunctions>
  <Networks>
    <Network id="4336" birthGen="107" fitness="0.46493082046508788">
      <Nodes>
        <Node type="bias" id="0" />
        <Node type="in" id="1" />
        <Node type="in" id="2" />
        <Node type="in" id="3" />
        <Node type="in" id="4" />
        <Node type="in" id="5" />
        <Node type="in" id="6" />
        <Node type="out" id="7" />
        <Node type="out" id="8" />
        <Node type="out" id="9" />
        <Node type="hid" id="42" />
      </Nodes>
      <Connections>
        <Con id="37" src="2" tgt="7" wght="0.8203042728669373" />
        <Con id="39" src="1" tgt="8" wght="3.8106595920003663" />
        <Con id="40" src="3" tgt="7" wght="-2.123020914707717" />
        <Con id="43" src="4" tgt="42" wght="1.601755004087914" />
        <Con id="44" src="42" tgt="8" wght="1.4335187954436324" />
      </Connections>
    </Network>
    <Network id="4334" birthGen="107" fitness="0.33407943248748778">
      <Nodes>
        <Node type="bias" id="0" />
        <Node type="in" id="1" />
        <Node type="in" id="2" />
        <Node type="in" id="3" />
        <Node type="in" id="4" />
        <Node type="in" id="5" />
        <Node type="in" id="6" />
        <Node type="out" id="7" />
        <Node type="out" id="8" />
        <Node type="out" id="9" />
        <Node type="hid" id="42" />
      </Nodes>
      <Connections>
        <Con id="37" src="2" tgt="7" wght="0.873880096039446" />
        <Con id="39" src="1" tgt="8" wght="3.8316314494831647" />
        <Con id="40" src="3" tgt="7" wght="-2.1431090709787939" />
        <Con id="43" src="4" tgt="42" wght="1.4855007661035764" />
        <Con id="44" src="42" tgt="8" wght="1.4408088555254619" />
      </Connections>
    </Network>
    <Network id="4333" birthGen="107" fitness="0.31237096786499025">
      <Nodes>
        <Node type="bias" id="0" />
        <Node type="in" id="1" />
        <Node type="in" id="2" />
        <Node type="in" id="3" />
        <Node type="in" id="4" />
        <Node type="in" id="5" />
        <Node type="in" id="6" />
        <Node type="out" id="7" />
        <Node type="out" id="8" />
        <Node type="out" id="9" />
        <Node type="hid" id="42" />
      </Nodes>
      <Connections>
        <Con id="37" src="2" tgt="7" wght="0.873880096039446" />
        <Con id="39" src="1" tgt="8" wght="3.814065437870116" />
        <Con id="40" src="3" tgt="7" wght="-2.1684356478443849" />
        <Con id="43" src="4" tgt="42" wght="2.2874103227024642" />
        <Con id="44" src="42" tgt="8" wght="1.4408088555254619" />
      </Connections>
    </Network>
    <Network id="4307" birthGen="107" fitness="0.49321231842041013">
      <Nodes>
        <Node type="bias" id="0" />
        <Node type="in" id="1" />
        <Node type="in" id="2" />
        <Node type="in" id="3" />
        <Node type="in" id="4" />
        <Node type="in" id="5" />
        <Node type="in" id="6" />
        <Node type="out" id="7" />
        <Node type="out" id="8" />
        <Node type="out" id="9" />
        <Node type="hid" id="51" />
        <Node type="hid" id="59" />
      </Nodes>
      <Connections>
        <Con id="23" src="4" tgt="8" wght="1.6672783339040589" />
        <Con id="37" src="2" tgt="7" wght="3.3060596003475333" />
        <Con id="40" src="3" tgt="7" wght="-4.9583185231220321" />
        <Con id="41" src="6" tgt="8" wght="3.72001637886922" />
        <Con id="52" src="3" tgt="51" wght="-3.9734633857371215" />
        <Con id="60" src="51" tgt="59" wght="-3.1483628724774975" />
        <Con id="61" src="59" tgt="8" wght="5" />
      </Connections>
    </Network>
    <Network id="4311" birthGen="107" fitness="0.35671420097351075">
      <Nodes>
        <Node type="bias" id="0" />
        <Node type="in" id="1" />
        <Node type="in" id="2" />
        <Node type="in" id="3" />
        <Node type="in" id="4" />
        <Node type="in" id="5" />
        <Node type="in" id="6" />
        <Node type="out" id="7" />
        <Node type="out" id="8" />
        <Node type="out" id="9" />
        <Node type="hid" id="51" />
        <Node type="hid" id="59" />
      </Nodes>
      <Connections>
        <Con id="23" src="4" tgt="8" wght="1.6774409803087462" />
        <Con id="37" src="2" tgt="7" wght="3.3672908392232386" />
        <Con id="40" src="3" tgt="7" wght="-4.9293613300537329" />
        <Con id="41" src="6" tgt="8" wght="3.7527169677030852" />
        <Con id="52" src="3" tgt="51" wght="-2.6856746834051246" />
        <Con id="60" src="51" tgt="59" wght="-3.8333169784295844" />
        <Con id="61" src="59" tgt="8" wght="5" />
        <Con id="64" src="51" tgt="9" wght="-2.2019792409881203" />
      </Connections>
    </Network>
    <Network id="4272" birthGen="106" fitness="0.4784226894378662">
      <Nodes>
        <Node type="bias" id="0" />
        <Node type="in" id="1" />
        <Node type="in" id="2" />
        <Node type="in" id="3" />
        <Node type="in" id="4" />
        <Node type="in" id="5" />
        <Node type="in" id="6" />
        <Node type="out" id="7" />
        <Node type="out" id="8" />
        <Node type="out" id="9" />
        <Node type="hid" id="51" />
        <Node type="hid" id="55" />
        <Node type="hid" id="59" />
      </Nodes>
      <Connections>
        <Con id="23" src="4" tgt="8" wght="2.7542987960368195" />
        <Con id="37" src="2" tgt="7" wght="4.367028367161752" />
        <Con id="40" src="3" tgt="7" wght="-4.3142021622972955" />
        <Con id="41" src="6" tgt="8" wght="5" />
        <Con id="52" src="3" tgt="51" wght="-0.55529269389808178" />
        <Con id="53" src="51" tgt="8" wght="3.1798350252211094" />
        <Con id="56" src="6" tgt="55" wght="-5" />
        <Con id="57" src="55" tgt="8" wght="2.493542578737467" />
        <Con id="60" src="51" tgt="59" wght="-1.9586979767851" />
        <Con id="61" src="59" tgt="8" wght="4.5894743361329544" />
      </Connections>
    </Network>
    <Network id="4321" birthGen="107" fitness="0.30880451202392578">
      <Nodes>
        <Node type="bias" id="0" />
        <Node type="in" id="1" />
        <Node type="in" id="2" />
        <Node type="in" id="3" />
        <Node type="in" id="4" />
        <Node type="in" id="5" />
        <Node type="in" id="6" />
        <Node type="out" id="7" />
        <Node type="out" id="8" />
        <Node type="out" id="9" />
        <Node type="hid" id="51" />
        <Node type="hid" id="55" />
      </Nodes>
      <Connections>
        <Con id="23" src="4" tgt="8" wght="2.7903044367644778" />
        <Con id="37" src="2" tgt="7" wght="4.3905248791544524" />
        <Con id="40" src="3" tgt="7" wght="-2.8702926414672087" />
        <Con id="52" src="3" tgt="51" wght="-0.60622554592558986" />
        <Con id="53" src="51" tgt="8" wght="4.90457239844847" />
        <Con id="56" src="6" tgt="55" wght="-4.9779434167259353" />
        <Con id="57" src="55" tgt="8" wght="2.4856611395332631" />
      </Connections>
    </Network>
    <Network id="4285" birthGen="106" fitness="0.42907638549804689">
      <Nodes>
        <Node type="bias" id="0" />
        <Node type="in" id="1" />
        <Node type="in" id="2" />
        <Node type="in" id="3" />
        <Node type="in" id="4" />
        <Node type="in" id="5" />
        <Node type="in" id="6" />
        <Node type="out" id="7" />
        <Node type="out" id="8" />
        <Node type="out" id="9" />
        <Node type="hid" id="51" />
      </Nodes>
      <Connections>
        <Con id="23" src="4" tgt="8" wght="3.7076022344559285" />
        <Con id="37" src="2" tgt="7" wght="2.0884691833922151" />
        <Con id="40" src="3" tgt="7" wght="-2.9131471896067556" />
        <Con id="41" src="6" tgt="8" wght="-0.68425365373855107" />
        <Con id="52" src="3" tgt="51" wght="1.4125970891822288" />
        <Con id="53" src="51" tgt="8" wght="5" />
        <Con id="54" src="4" tgt="9" wght="-2.1308810764101342" />
        <Con id="58" src="6" tgt="9" wght="-3.0439766659374903" />
      </Connections>
    </Network>
    <Network id="4283" birthGen="106" fitness="0.3135505676269531">
      <Nodes>
        <Node type="bias" id="0" />
        <Node type="in" id="1" />
        <Node type="in" id="2" />
        <Node type="in" id="3" />
        <Node type="in" id="4" />
        <Node type="in" id="5" />
        <Node type="in" id="6" />
        <Node type="out" id="7" />
        <Node type="out" id="8" />
        <Node type="out" id="9" />
        <Node type="hid" id="51" />
      </Nodes>
      <Connections>
        <Con id="23" src="4" tgt="8" wght="3.7076022344559285" />
        <Con id="37" src="2" tgt="7" wght="2.0884691833922151" />
        <Con id="40" src="3" tgt="7" wght="-2.9131471896067556" />
        <Con id="41" src="6" tgt="8" wght="-0.68425365373855107" />
        <Con id="52" src="3" tgt="51" wght="0.3195703897782125" />
        <Con id="53" src="51" tgt="8" wght="4.8687433713379082" />
        <Con id="54" src="4" tgt="9" wght="-1.7567930743098259" />
        <Con id="58" src="6" tgt="9" wght="-3.0618338850540803" />
      </Connections>
    </Network>
    <Network id="4341" birthGen="108" fitness="0.35567772388458252">
      <Nodes>
        <Node type="bias" id="0" />
        <Node type="in" id="1" />
        <Node type="in" id="2" />
        <Node type="in" id="3" />
        <Node type="in" id="4" />
        <Node type="in" id="5" />
        <Node type="in" id="6" />
        <Node type="out" id="7" />
        <Node type="out" id="8" />
        <Node type="out" id="9" />
        <Node type="hid" id="42" />
      </Nodes>
      <Connections>
        <Con id="37" src="2" tgt="7" wght="0.8203042728669373" />
        <Con id="39" src="1" tgt="8" wght="3.8106595920003663" />
        <Con id="40" src="3" tgt="7" wght="-2.123020914707717" />
        <Con id="43" src="4" tgt="42" wght="3.4028729314130937" />
        <Con id="44" src="42" tgt="8" wght="1.4335187954436324" />
      </Connections>
    </Network>
    <Network id="4342" birthGen="108" fitness="0.39449710845947267">
      <Nodes>
        <Node type="bias" id="0" />
        <Node type="in" id="1" />
        <Node type="in" id="2" />
        <Node type="in" id="3" />
        <Node type="in" id="4" />
        <Node type="in" id="5" />
        <Node type="in" id="6" />
        <Node type="out" id="7" />
        <Node type="out" id="8" />
        <Node type="out" id="9" />
        <Node type="hid" id="51" />
        <Node type="hid" id="59" />
      </Nodes>
      <Connections>
        <Con id="23" src="4" tgt="8" wght="1.6672783339040589" />
        <Con id="37" src="2" tgt="7" wght="3.3060596003475333" />
        <Con id="40" src="3" tgt="7" wght="-4.9686853780526379" />
        <Con id="41" src="6" tgt="8" wght="3.72001637886922" />
        <Con id="52" src="3" tgt="51" wght="-3.9606119917329048" />
        <Con id="60" src="51" tgt="59" wght="-3.1483628724774975" />
        <Con id="61" src="59" tgt="8" wght="5" />
      </Connections>
    </Network>
    <Network id="4343" birthGen="108" fitness="0.38157005310058595">
      <Nodes>
        <Node type="bias" id="0" />
        <Node type="in" id="1" />
        <Node type="in" id="2" />
        <Node type="in" id="3" />
        <Node type="in" id="4" />
        <Node type="in" id="5" />
        <Node type="in" id="6" />
        <Node type="out" id="7" />
        <Node type="out" id="8" />
        <Node type="out" id="9" />
        <Node type="hid" id="51" />
        <Node type="hid" id="59" />
      </Nodes>
      <Connections>
        <Con id="23" src="4" tgt="8" wght="1.6672783339040589" />
        <Con id="37" src="2" tgt="7" wght="4.18461428519688" />
        <Con id="40" src="3" tgt="7" wght="-4.9583185231220321" />
        <Con id="41" src="6" tgt="8" wght="3.6247633272243" />
        <Con id="52" src="3" tgt="51" wght="-3.9734633857371215" />
        <Con id="60" src="51" tgt="59" wght="-3.1483628724774975" />
        <Con id="61" src="59" tgt="8" wght="3.8603673835022505" />
      </Connections>
    </Network>
    <Network id="4344" birthGen="108" fitness="0.31636986732482908">
      <Nodes>
        <Node type="bias" id="0" />
        <Node type="in" id="1" />
        <Node type="in" id="2" />
        <Node type="in" id="3" />
        <Node type="in" id="4" />
        <Node type="in" id="5" />
        <Node type="in" id="6" />
        <Node type="out" id="7" />
        <Node type="out" id="8" />
        <Node type="out" id="9" />
        <Node type="hid" id="51" />
        <Node type="hid" id="59" />
      </Nodes>
      <Connections>
        <Con id="23" src="4" tgt="8" wght="1.7165685795064352" />
        <Con id="37" src="2" tgt="7" wght="3.3166138636086115" />
        <Con id="40" src="3" tgt="7" wght="-4.9583185231220321" />
        <Con id="41" src="6" tgt="8" wght="3.72001637886922" />
        <Con id="52" src="3" tgt="51" wght="-3.9550063302166389" />
        <Con id="60" src="51" tgt="59" wght="-3.1483628724774975" />
        <Con id="61" src="59" tgt="8" wght="5" />
      </Connections>
    </Network>
    <Network id="4345" birthGen="108" fitness="0.33696815967559812">
      <Nodes>
        <Node type="bias" id="0" />
        <Node type="in" id="1" />
        <Node type="in" id="2" />
        <Node type="in" id="3" />
        <Node type="in" id="4" />
        <Node type="in" id="5" />
        <Node type="in" id="6" />
        <Node type="out" id="7" />
        <Node type="out" id="8" />
        <Node type="out" id="9" />
        <Node type="hid" id="51" />
        <Node type="hid" id="59" />
      </Nodes>
      <Connections>
        <Con id="23" src="4" tgt="8" wght="1.6672783339040589" />
        <Con id="37" src="2" tgt="7" wght="3.3060596003475333" />
        <Con id="40" src="3" tgt="7" wght="-4.9583185231220321" />
        <Con id="41" src="6" tgt="8" wght="3.72001637886922" />
        <Con id="52" src="3" tgt="51" wght="-3.9734633857371215" />
        <Con id="60" src="51" tgt="59" wght="-3.1483628724774975" />
        <Con id="61" src="59" tgt="8" wght="5" />
        <Con id="63" src="3" tgt="9" wght="3.985323840752244" />
      </Connections>
    </Network>
    <Network id="4346" birthGen="108" fitness="0.35146656036376955">
      <Nodes>
        <Node type="bias" id="0" />
        <Node type="in" id="1" />
        <Node type="in" id="2" />
        <Node type="in" id="3" />
        <Node type="in" id="4" />
        <Node type="in" id="5" />
        <Node type="in" id="6" />
        <Node type="out" id="7" />
        <Node type="out" id="8" />
        <Node type="out" id="9" />
        <Node type="hid" id="51" />
        <Node type="hid" id="59" />
      </Nodes>
      <Connections>
        <Con id="23" src="4" tgt="8" wght="1.6774409803087462" />
        <Con id="37" src="2" tgt="7" wght="3.3672908392232386" />
        <Con id="40" src="3" tgt="7" wght="-4.9293613300537329" />
        <Con id="41" src="6" tgt="8" wght="5" />
        <Con id="52" src="3" tgt="51" wght="-2.6856746834051246" />
        <Con id="60" src="51" tgt="59" wght="-3.8333169784295844" />
        <Con id="61" src="59" tgt="8" wght="5" />
        <Con id="64" src="51" tgt="9" wght="-2.2019792409881203" />
      </Connections>
    </Network>
    <Network id="4347" birthGen="108" fitness="0.49252171516418458">
      <Nodes>
        <Node type="bias" id="0" />
        <Node type="in" id="1" />
        <Node type="in" id="2" />
        <Node type="in" id="3" />
        <Node type="in" id="4" />
        <Node type="in" id="5" />
        <Node type="in" id="6" />
        <Node type="out" id="7" />
        <Node type="out" id="8" />
        <Node type="out" id="9" />
        <Node type="hid" id="51" />
        <Node type="hid" id="59" />
      </Nodes>
      <Connections>
        <Con id="23" src="4" tgt="8" wght="0.87478545353908432" />
        <Con id="37" src="2" tgt="7" wght="3.3672908392232386" />
        <Con id="40" src="3" tgt="7" wght="-4.9293613300537329" />
        <Con id="41" src="6" tgt="8" wght="3.5528168424843813" />
        <Con id="52" src="3" tgt="51" wght="-2.6856746834051246" />
        <Con id="60" src="51" tgt="59" wght="-4.040194023902572" />
        <Con id="61" src="59" tgt="8" wght="5" />
        <Con id="64" src="51" tgt="9" wght="-2.2019792409881203" />
      </Connections>
    </Network>
    <Network id="4348" birthGen="108" fitness="0.40223250389099119">
      <Nodes>
        <Node type="bias" id="0" />
        <Node type="in" id="1" />
        <Node type="in" id="2" />
        <Node type="in" id="3" />
        <Node type="in" id="4" />
        <Node type="in" id="5" />
        <Node type="in" id="6" />
        <Node type="out" id="7" />
        <Node type="out" id="8" />
        <Node type="out" id="9" />
        <Node type="hid" id="51" />
        <Node type="hid" id="59" />
      </Nodes>
      <Connections>
        <Con id="23" src="4" tgt="8" wght="1.6774409803087462" />
        <Con id="37" src="2" tgt="7" wght="3.3672908392232386" />
        <Con id="40" src="3" tgt="7" wght="-4.9293613300537329" />
        <Con id="41" src="6" tgt="8" wght="3.7147057314964735" />
        <Con id="52" src="3" tgt="51" wght="-2.6935301160730907" />
        <Con id="60" src="51" tgt="59" wght="-3.8333169784295844" />
        <Con id="61" src="59" tgt="8" wght="5" />
        <Con id="64" src="51" tgt="9" wght="-2.2019792409881203" />
      </Connections>
    </Network>
    <Network id="4349" birthGen="108" fitness="0.30619916915893552">
      <Nodes>
        <Node type="bias" id="0" />
        <Node type="in" id="1" />
        <Node type="in" id="2" />
        <Node type="in" id="3" />
        <Node type="in" id="4" />
        <Node type="in" id="5" />
        <Node type="in" id="6" />
        <Node type="out" id="7" />
        <Node type="out" id="8" />
        <Node type="out" id="9" />
        <Node type="hid" id="51" />
        <Node type="hid" id="55" />
        <Node type="hid" id="59" />
      </Nodes>
      <Connections>
        <Con id="23" src="4" tgt="8" wght="2.7542987960368195" />
        <Con id="37" src="2" tgt="7" wght="4.367028367161752" />
        <Con id="40" src="3" tgt="7" wght="-4.3142021622972955" />
        <Con id="41" src="6" tgt="8" wght="3.5416322562577873" />
        <Con id="52" src="3" tgt="51" wght="-0.55529269389808178" />
        <Con id="53" src="51" tgt="8" wght="3.9474630609653452" />
        <Con id="56" src="6" tgt="55" wght="-3.5863783723115725" />
        <Con id="57" src="55" tgt="8" wght="2.493542578737467" />
        <Con id="60" src="51" tgt="59" wght="-1.9586979767851" />
        <Con id="61" src="59" tgt="8" wght="4.5894743361329544" />
      </Connections>
    </Network>
    <Network id="4350" birthGen="108" fitness="0.49716854095458984">
      <Nodes>
        <Node type="bias" id="0" />
        <Node type="in" id="1" />
        <Node type="in" id="2" />
        <Node type="in" id="3" />
        <Node type="in" id="4" />
        <Node type="in" id="5" />
        <Node type="in" id="6" />
        <Node type="out" id="7" />
        <Node type="out" id="8" />
        <Node type="out" id="9" />
        <Node type="hid" id="51" />
        <Node type="hid" id="55" />
        <Node type="hid" id="59" />
      </Nodes>
      <Connections>
        <Con id="23" src="4" tgt="8" wght="2.7542987960368195" />
        <Con id="37" src="2" tgt="7" wght="4.367028367161752" />
        <Con id="40" src="3" tgt="7" wght="-4.3142021622972955" />
        <Con id="41" src="6" tgt="8" wght="5" />
        <Con id="52" src="3" tgt="51" wght="-0.55529269389808178" />
        <Con id="53" src="51" tgt="8" wght="3.1798350252211094" />
        <Con id="56" src="6" tgt="55" wght="-5" />
        <Con id="57" src="55" tgt="8" wght="2.493542578737467" />
        <Con id="60" src="51" tgt="59" wght="-1.9586979767851" />
        <Con id="61" src="59" tgt="8" wght="4.5894743361329544" />
      </Connections>
    </Network>
    <Network id="4351" birthGen="108" fitness="0.33663609027862551">
      <Nodes>
        <Node type="bias" id="0" />
        <Node type="in" id="1" />
        <Node type="in" id="2" />
        <Node type="in" id="3" />
        <Node type="in" id="4" />
        <Node type="in" id="5" />
        <Node type="in" id="6" />
        <Node type="out" id="7" />
        <Node type="out" id="8" />
        <Node type="out" id="9" />
        <Node type="hid" id="51" />
        <Node type="hid" id="55" />
        <Node type="hid" id="59" />
      </Nodes>
      <Connections>
        <Con id="23" src="4" tgt="8" wght="3.4575567806533405" />
        <Con id="37" src="2" tgt="7" wght="4.367028367161752" />
        <Con id="40" src="3" tgt="7" wght="-4.3142021622972955" />
        <Con id="41" src="6" tgt="8" wght="5" />
        <Con id="52" src="3" tgt="51" wght="0.56446383883483731" />
        <Con id="53" src="51" tgt="8" wght="3.1798350252211094" />
        <Con id="56" src="6" tgt="55" wght="-5" />
        <Con id="57" src="55" tgt="8" wght="2.493542578737467" />
        <Con id="60" src="51" tgt="59" wght="-1.231213276246931" />
        <Con id="61" src="59" tgt="8" wght="4.5894743361329544" />
      </Connections>
    </Network>
    <Network id="4352" birthGen="108" fitness="0.43237977027893065">
      <Nodes>
        <Node type="bias" id="0" />
        <Node type="in" id="1" />
        <Node type="in" id="2" />
        <Node type="in" id="3" />
        <Node type="in" id="4" />
        <Node type="in" id="5" />
        <Node type="in" id="6" />
        <Node type="out" id="7" />
        <Node type="out" id="8" />
        <Node type="out" id="9" />
        <Node type="hid" id="51" />
        <Node type="hid" id="55" />
        <Node type="hid" id="59" />
      </Nodes>
      <Connections>
        <Con id="23" src="4" tgt="8" wght="2.7542987960368195" />
        <Con id="37" src="2" tgt="7" wght="4.367028367161752" />
        <Con id="40" src="3" tgt="7" wght="-4.6283446682417209" />
        <Con id="41" src="6" tgt="8" wght="5" />
        <Con id="52" src="3" tgt="51" wght="0.0522882754033378" />
        <Con id="53" src="51" tgt="8" wght="3.1798350252211094" />
        <Con id="56" src="6" tgt="55" wght="-5" />
        <Con id="57" src="55" tgt="8" wght="2.493542578737467" />
        <Con id="60" src="51" tgt="59" wght="-1.9586979767851" />
        <Con id="61" src="59" tgt="8" wght="4.28472685580755" />
      </Connections>
    </Network>
    <Network id="4353" birthGen="108" fitness="0.47139267921447753">
      <Nodes>
        <Node type="bias" id="0" />
        <Node type="in" id="1" />
        <Node type="in" id="2" />
        <Node type="in" id="3" />
        <Node type="in" id="4" />
        <Node type="in" id="5" />
        <Node type="in" id="6" />
        <Node type="out" id="7" />
        <Node type="out" id="8" />
        <Node type="out" id="9" />
        <Node type="hid" id="51" />
        <Node type="hid" id="55" />
      </Nodes>
      <Connections>
        <Con id="23" src="4" tgt="8" wght="2.7903044367644778" />
        <Con id="37" src="2" tgt="7" wght="4.2532487818971276" />
        <Con id="40" src="3" tgt="7" wght="-2.8702926414672087" />
        <Con id="52" src="3" tgt="51" wght="-4.1808354761451483" />
        <Con id="53" src="51" tgt="8" wght="-4.3544612219557166" />
        <Con id="56" src="6" tgt="55" wght="-4.9779434167259353" />
        <Con id="57" src="55" tgt="8" wght="2.4856611395332631" />
      </Connections>
    </Network>
    <Network id="4354" birthGen="108" fitness="0.39631285667419436">
      <Nodes>
        <Node type="bias" id="0" />
        <Node type="in" id="1" />
        <Node type="in" id="2" />
        <Node type="in" id="3" />
        <Node type="in" id="4" />
        <Node type="in" id="5" />
        <Node type="in" id="6" />
        <Node type="out" id="7" />
        <Node type="out" id="8" />
        <Node type="out" id="9" />
        <Node type="hid" id="51" />
        <Node type="hid" id="55" />
      </Nodes>
      <Connections>
        <Con id="23" src="4" tgt="8" wght="2.7903044367644778" />
        <Con id="37" src="2" tgt="7" wght="4.3905248791544524" />
        <Con id="40" src="3" tgt="7" wght="-1.7471322175038091" />
        <Con id="52" src="3" tgt="51" wght="-0.60622554592558986" />
        <Con id="53" src="51" tgt="8" wght="4.90457239844847" />
        <Con id="56" src="6" tgt="55" wght="-4.9779434167259353" />
        <Con id="57" src="55" tgt="8" wght="2.4856611395332631" />
      </Connections>
    </Network>
    <Network id="4355" birthGen="108" fitness="0.32603650093078612">
      <Nodes>
        <Node type="bias" id="0" />
        <Node type="in" id="1" />
        <Node type="in" id="2" />
        <Node type="in" id="3" />
        <Node type="in" id="4" />
        <Node type="in" id="5" />
        <Node type="in" id="6" />
        <Node type="out" id="7" />
        <Node type="out" id="8" />
        <Node type="out" id="9" />
        <Node type="hid" id="51" />
        <Node type="hid" id="55" />
      </Nodes>
      <Connections>
        <Con id="23" src="4" tgt="8" wght="2.2360505246724447" />
        <Con id="37" src="2" tgt="7" wght="4.3905248791544524" />
        <Con id="40" src="3" tgt="7" wght="-2.8702926414672087" />
        <Con id="52" src="3" tgt="51" wght="-0.60622554592558986" />
        <Con id="53" src="51" tgt="8" wght="4.90457239844847" />
        <Con id="56" src="6" tgt="55" wght="-4.9779434167259353" />
        <Con id="57" src="55" tgt="8" wght="2.4856611395332631" />
      </Connections>
    </Network>
    <Network id="4356" birthGen="108" fitness="0.47553782463073729">
      <Nodes>
        <Node type="bias" id="0" />
        <Node type="in" id="1" />
        <Node type="in" id="2" />
        <Node type="in" id="3" />
        <Node type="in" id="4" />
        <Node type="in" id="5" />
        <Node type="in" id="6" />
        <Node type="out" id="7" />
        <Node type="out" id="8" />
        <Node type="out" id="9" />
        <Node type="hid" id="51" />
      </Nodes>
      <Connections>
        <Con id="23" src="4" tgt="8" wght="3.7076022344559285" />
        <Con id="37" src="2" tgt="7" wght="2.0884691833922151" />
        <Con id="40" src="3" tgt="7" wght="-2.9131471896067556" />
        <Con id="41" src="6" tgt="8" wght="-0.68425365373855107" />
        <Con id="52" src="3" tgt="51" wght="1.4349384642660459" />
        <Con id="53" src="51" tgt="8" wght="5" />
        <Con id="54" src="4" tgt="9" wght="-2.1308810764101342" />
        <Con id="58" src="6" tgt="9" wght="-3.0207337792294542" />
      </Connections>
    </Network>
    <Network id="4357" birthGen="108" fitness="0.40191736221313479">
      <Nodes>
        <Node type="bias" id="0" />
        <Node type="in" id="1" />
        <Node type="in" id="2" />
        <Node type="in" id="3" />
        <Node type="in" id="4" />
        <Node type="in" id="5" />
        <Node type="in" id="6" />
        <Node type="out" id="7" />
        <Node type="out" id="8" />
        <Node type="out" id="9" />
        <Node type="hid" id="51" />
      </Nodes>
      <Connections>
        <Con id="23" src="4" tgt="8" wght="3.7076022344559285" />
        <Con id="37" src="2" tgt="7" wght="1.9019314650560146" />
        <Con id="40" src="3" tgt="7" wght="-2.9131471896067556" />
        <Con id="41" src="6" tgt="8" wght="-0.68425365373855107" />
        <Con id="52" src="3" tgt="51" wght="1.4125970891822288" />
        <Con id="53" src="51" tgt="8" wght="5" />
        <Con id="54" src="4" tgt="9" wght="-3.2592940227847924" />
        <Con id="58" src="6" tgt="9" wght="-4.6383924062181494" />
      </Connections>
    </Network>
    <Network id="4358" birthGen="108" fitness="0.24948716163635254">
      <Nodes>
        <Node type="bias" id="0" />
        <Node type="in" id="1" />
        <Node type="in" id="2" />
        <Node type="in" id="3" />
        <Node type="in" id="4" />
        <Node type="in" id="5" />
        <Node type="in" id="6" />
        <Node type="out" id="7" />
        <Node type="out" id="8" />
        <Node type="out" id="9" />
        <Node type="hid" id="51" />
      </Nodes>
      <Connections>
        <Con id="23" src="4" tgt="8" wght="3.7076022344559285" />
        <Con id="37" src="2" tgt="7" wght="-3.9416126208379865" />
        <Con id="40" src="3" tgt="7" wght="-2.9131471896067556" />
        <Con id="41" src="6" tgt="8" wght="-0.68425365373855107" />
        <Con id="52" src="3" tgt="51" wght="1.4125970891822288" />
        <Con id="53" src="51" tgt="8" wght="5" />
        <Con id="54" src="4" tgt="9" wght="-2.1308810764101342" />
        <Con id="58" src="6" tgt="9" wght="-3.0439766659374903" />
      </Connections>
    </Network>
    <Network id="4359" birthGen="108" fitness="0.46820011138916018">
      <Nodes>
        <Node type="bias" id="0" />
        <Node type="in" id="1" />
        <Node type="in" id="2" />
        <Node type="in" id="3" />
        <Node type="in" id="4" />
        <Node type="in" id="5" />
        <Node type="in" id="6" />
        <Node type="out" id="7" />
        <Node type="out" id="8" />
        <Node type="out" id="9" />
        <Node type="hid" id="51" />
      </Nodes>
      <Connections>
        <Con id="23" src="4" tgt="8" wght="3.7076022344559285" />
        <Con id="37" src="2" tgt="7" wght="2.0884691833922151" />
        <Con id="40" src="3" tgt="7" wght="-2.9131471896067556" />
        <Con id="41" src="6" tgt="8" wght="-0.68425365373855107" />
        <Con id="52" src="3" tgt="51" wght="0.3195703897782125" />
        <Con id="53" src="51" tgt="8" wght="4.8687433713379082" />
        <Con id="54" src="4" tgt="9" wght="-1.7567930743098259" />
        <Con id="58" src="6" tgt="9" wght="-3.0564109701663256" />
      </Connections>
    </Network>
    <Network id="4360" birthGen="108" fitness="0.32230095863342284">
      <Nodes>
        <Node type="bias" id="0" />
        <Node type="in" id="1" />
        <Node type="in" id="2" />
        <Node type="in" id="3" />
        <Node type="in" id="4" />
        <Node type="in" id="5" />
        <Node type="in" id="6" />
        <Node type="out" id="7" />
        <Node type="out" id="8" />
        <Node type="out" id="9" />
        <Node type="hid" id="51" />
      </Nodes>
      <Connections>
        <Con id="23" src="4" tgt="8" wght="3.7076022344559285" />
        <Con id="37" src="2" tgt="7" wght="2.0884691833922151" />
        <Con id="40" src="3" tgt="7" wght="-2.9131471896067556" />
        <Con id="41" src="6" tgt="8" wght="-0.68425365373855107" />
        <Con id="52" src="3" tgt="51" wght="-0.5713698213048759" />
        <Con id="53" src="51" tgt="8" wght="5" />
        <Con id="54" src="4" tgt="9" wght="-1.7567930743098259" />
        <Con id="58" src="6" tgt="9" wght="-3.0618338850540803" />
      </Connections>
    </Network>
    <Network id="4361" birthGen="108" fitness="0.49718613624572755">
      <Nodes>
        <Node type="bias" id="0" />
        <Node type="in" id="1" />
        <Node type="in" id="2" />
        <Node type="in" id="3" />
        <Node type="in" id="4" />
        <Node type="in" id="5" />
        <Node type="in" id="6" />
        <Node type="out" id="7" />
        <Node type="out" id="8" />
        <Node type="out" id="9" />
        <Node type="hid" id="51" />
      </Nodes>
      <Connections>
        <Con id="23" src="4" tgt="8" wght="3.7076022344559285" />
        <Con id="37" src="2" tgt="7" wght="2.0884691833922151" />
        <Con id="40" src="3" tgt="7" wght="-2.9131471896067556" />
        <Con id="41" src="6" tgt="8" wght="-0.68425365373855107" />
        <Con id="52" src="3" tgt="51" wght="-1.3375022066800306" />
        <Con id="53" src="51" tgt="8" wght="4.8687433713379082" />
        <Con id="54" src="4" tgt="9" wght="-1.7567930743098259" />
        <Con id="58" src="6" tgt="9" wght="-3.0618338850540803" />
      </Connections>
    </Network>
    <Network id="4362" birthGen="108" fitness="0.46366438865661619">
      <Nodes>
        <Node type="bias" id="0" />
        <Node type="in" id="1" />
        <Node type="in" id="2" />
        <Node type="in" id="3" />
        <Node type="in" id="4" />
        <Node type="in" id="5" />
        <Node type="in" id="6" />
        <Node type="out" id="7" />
        <Node type="out" id="8" />
        <Node type="out" id="9" />
        <Node type="hid" id="51" />
      </Nodes>
      <Connections>
        <Con id="23" src="4" tgt="8" wght="3.7076022344559285" />
        <Con id="37" src="2" tgt="7" wght="2.0884691833922151" />
        <Con id="40" src="3" tgt="7" wght="-2.9131471896067556" />
        <Con id="41" src="6" tgt="8" wght="-0.68425365373855107" />
        <Con id="52" src="3" tgt="51" wght="0.3195703897782125" />
        <Con id="53" src="51" tgt="8" wght="4.8268457075299347" />
        <Con id="54" src="4" tgt="9" wght="-1.7793209316930105" />
        <Con id="58" src="6" tgt="9" wght="-3.0618338850540803" />
      </Connections>
    </Network>
    <Network id="4363" birthGen="108" fitness="0.33252882957458496">
      <Nodes>
        <Node type="bias" id="0" />
        <Node type="in" id="1" />
        <Node type="in" id="2" />
        <Node type="in" id="3" />
        <Node type="in" id="4" />
        <Node type="in" id="5" />
        <Node type="in" id="6" />
        <Node type="out" id="7" />
        <Node type="out" id="8" />
        <Node type="out" id="9" />
        <Node type="hid" id="51" />
      </Nodes>
      <Connections>
        <Con id="23" src="4" tgt="8" wght="3.7076022344559285" />
        <Con id="37" src="2" tgt="7" wght="2.0884691833922151" />
        <Con id="40" src="3" tgt="7" wght="-2.9131471896067556" />
        <Con id="41" src="6" tgt="8" wght="-0.68425365373855107" />
        <Con id="52" src="3" tgt="51" wght="0.3195703897782125" />
        <Con id="53" src="51" tgt="8" wght="4.8687433713379082" />
        <Con id="54" src="4" tgt="9" wght="-1.7567930743098259" />
        <Con id="58" src="6" tgt="9" wght="-3.0830530508962766" />
      </Connections>
    </Network>
    <Network id="4364" birthGen="108" fitness="0.324660062789917">
      <Nodes>
        <Node type="bias" id="0" />
        <Node type="in" id="1" />
        <Node type="in" id="2" />
        <Node type="in" id="3" />
        <Node type="in" id="4" />
        <Node type="in" id="5" />
        <Node type="in" id="6" />
        <Node type="out" id="7" />
        <Node type="out" id="8" />
        <Node type="out" id="9" />
        <Node type="hid" id="51" />
      </Nodes>
      <Connections>
        <Con id="23" src="4" tgt="8" wght="-1.1899268720299006" />
        <Con id="37" src="2" tgt="7" wght="2.0884691833922151" />
        <Con id="40" src="3" tgt="7" wght="-2.9131471896067556" />
        <Con id="41" src="6" tgt="8" wght="-1.7665604362264276" />
        <Con id="52" src="3" tgt="51" wght="0.3195703897782125" />
        <Con id="53" src="51" tgt="8" wght="4.8687433713379082" />
        <Con id="54" src="4" tgt="9" wght="-1.7567930743098259" />
        <Con id="58" src="6" tgt="9" wght="-0.20203511696308851" />
      </Connections>
    </Network>
    <Network id="4365" birthGen="108" fitness="0.36807625293731688">
      <Nodes>
        <Node type="bias" id="0" />
        <Node type="in" id="1" />
        <Node type="in" id="2" />
        <Node type="in" id="3" />
        <Node type="in" id="4" />
        <Node type="in" id="5" />
        <Node type="in" id="6" />
        <Node type="out" id="7" />
        <Node type="out" id="8" />
        <Node type="out" id="9" />
        <Node type="hid" id="51" />
      </Nodes>
      <Connections>
        <Con id="23" src="4" tgt="8" wght="5" />
        <Con id="37" src="2" tgt="7" wght="1.577182794227368" />
        <Con id="40" src="3" tgt="7" wght="-2.0788690668532261" />
        <Con id="41" src="6" tgt="8" wght="-2.9870173314955579" />
        <Con id="52" src="3" tgt="51" wght="0.31559065258992186" />
        <Con id="53" src="51" tgt="8" wght="4.871702305108812" />
        <Con id="54" src="4" tgt="9" wght="-5" />
        <Con id="58" src="6" tgt="9" wght="-3.4913267067217379" />
      </Connections>
    </Network>
    <Network id="4366" birthGen="108" fitness="0.31828730106353759">
      <Nodes>
        <Node type="bias" id="0" />
        <Node type="in" id="1" />
        <Node type="in" id="2" />
        <Node type="in" id="3" />
        <Node type="in" id="4" />
        <Node type="in" id="5" />
        <Node type="in" id="6" />
        <Node type="out" id="7" />
        <Node type="out" id="8" />
        <Node type="out" id="9" />
        <Node type="hid" id="51" />
      </Nodes>
      <Connections>
        <Con id="23" src="4" tgt="8" wght="5" />
        <Con id="37" src="2" tgt="7" wght="1.5701770718736197" />
        <Con id="40" src="3" tgt="7" wght="-2.0690776056608611" />
        <Con id="41" src="6" tgt="8" wght="-2.9870173314955579" />
        <Con id="52" src="3" tgt="51" wght="0.31559065258992186" />
        <Con id="53" src="51" tgt="8" wght="4.8385069712421629" />
        <Con id="54" src="4" tgt="9" wght="-5" />
        <Con id="58" src="6" tgt="9" wght="-3.4913267067217379" />
      </Connections>
    </Network>
    <Network id="4367" birthGen="108" fitness="0.49168009757995607">
      <Nodes>
        <Node type="bias" id="0" />
        <Node type="in" id="1" />
        <Node type="in" id="2" />
        <Node type="in" id="3" />
        <Node type="in" id="4" />
        <Node type="in" id="5" />
        <Node type="in" id="6" />
        <Node type="out" id="7" />
        <Node type="out" id="8" />
        <Node type="out" id="9" />
        <Node type="hid" id="51" />
      </Nodes>
      <Connections>
        <Con id="23" src="4" tgt="8" wght="5" />
        <Con id="37" src="2" tgt="7" wght="1.5701770718736197" />
        <Con id="40" src="3" tgt="7" wght="-2.0690776056608611" />
        <Con id="41" src="6" tgt="8" wght="-4.3530913818986514" />
        <Con id="52" src="3" tgt="51" wght="0.31559065258992186" />
        <Con id="53" src="51" tgt="8" wght="4.871702305108812" />
        <Con id="54" src="4" tgt="9" wght="-5" />
        <Con id="58" src="6" tgt="9" wght="-3.4913267067217379" />
      </Connections>
    </Network>
    <Network id="4368" birthGen="108" fitness="0.32694849967956541">
      <Nodes>
        <Node type="bias" id="0" />
        <Node type="in" id="1" />
        <Node type="in" id="2" />
        <Node type="in" id="3" />
        <Node type="in" id="4" />
        <Node type="in" id="5" />
        <Node type="in" id="6" />
        <Node type="out" id="7" />
        <Node type="out" id="8" />
        <Node type="out" id="9" />
        <Node type="hid" id="51" />
      </Nodes>
      <Connections>
        <Con id="23" src="4" tgt="8" wght="5" />
        <Con id="37" src="2" tgt="7" wght="1.5701770718736197" />
        <Con id="40" src="3" tgt="7" wght="-2.0690776056608611" />
        <Con id="41" src="6" tgt="8" wght="-2.9870173314955579" />
        <Con id="52" src="3" tgt="51" wght="0.31559065258992186" />
        <Con id="53" src="51" tgt="8" wght="4.871702305108812" />
        <Con id="54" src="4" tgt="9" wght="-4.4864257841427966" />
        <Con id="58" src="6" tgt="9" wght="-3.4913267067217379" />
      </Connections>
    </Network>
    <Network id="4369" birthGen="108" fitness="0.40232367515563966">
      <Nodes>
        <Node type="bias" id="0" />
        <Node type="in" id="1" />
        <Node type="in" id="2" />
        <Node type="in" id="3" />
        <Node type="in" id="4" />
        <Node type="in" id="5" />
        <Node type="in" id="6" />
        <Node type="out" id="7" />
        <Node type="out" id="8" />
        <Node type="out" id="9" />
        <Node type="hid" id="51" />
      </Nodes>
      <Connections>
        <Con id="23" src="4" tgt="8" wght="4.418923626663279" />
        <Con id="37" src="2" tgt="7" wght="1.5701770718736197" />
        <Con id="40" src="3" tgt="7" wght="-2.0690776056608611" />
        <Con id="41" src="6" tgt="8" wght="-2.9870173314955579" />
        <Con id="52" src="3" tgt="51" wght="0.31559065258992186" />
        <Con id="53" src="51" tgt="8" wght="4.871702305108812" />
        <Con id="54" src="4" tgt="9" wght="-5" />
        <Con id="58" src="6" tgt="9" wght="-3.4913267067217379" />
      </Connections>
    </Network>
    <Network id="4370" birthGen="108" fitness="0.31174118518829347">
      <Nodes>
        <Node type="bias" id="0" />
        <Node type="in" id="1" />
        <Node type="in" id="2" />
        <Node type="in" id="3" />
        <Node type="in" id="4" />
        <Node type="in" id="5" />
        <Node type="in" id="6" />
        <Node type="out" id="7" />
        <Node type="out" id="8" />
        <Node type="out" id="9" />
        <Node type="hid" id="51" />
      </Nodes>
      <Connections>
        <Con id="23" src="4" tgt="8" wght="5" />
        <Con id="37" src="2" tgt="7" wght="1.5701770718736197" />
        <Con id="40" src="3" tgt="7" wght="-2.0690776056608611" />
        <Con id="41" src="6" tgt="8" wght="-2.5168387266344929" />
        <Con id="52" src="3" tgt="51" wght="0.30804725004545652" />
        <Con id="53" src="51" tgt="8" wght="4.871702305108812" />
        <Con id="54" src="4" tgt="9" wght="-5" />
        <Con id="58" src="6" tgt="9" wght="-3.4913267067217379" />
      </Connections>
    </Network>
    <Network id="4371" birthGen="108" fitness="0.48754711151123048">
      <Nodes>
        <Node type="bias" id="0" />
        <Node type="in" id="1" />
        <Node type="in" id="2" />
        <Node type="in" id="3" />
        <Node type="in" id="4" />
        <Node type="in" id="5" />
        <Node type="in" id="6" />
        <Node type="out" id="7" />
        <Node type="out" id="8" />
        <Node type="out" id="9" />
        <Node type="hid" id="51" />
      </Nodes>
      <Connections>
        <Con id="23" src="4" tgt="8" wght="5" />
        <Con id="37" src="2" tgt="7" wght="1.5701770718736197" />
        <Con id="40" src="3" tgt="7" wght="-3.3347245657419897" />
        <Con id="41" src="6" tgt="8" wght="-2.9870173314955579" />
        <Con id="52" src="3" tgt="51" wght="0.31559065258992186" />
        <Con id="53" src="51" tgt="8" wght="4.871702305108812" />
        <Con id="54" src="4" tgt="9" wght="-5" />
        <Con id="58" src="6" tgt="9" wght="-3.4913267067217379" />
      </Connections>
    </Network>
    <Network id="4372" birthGen="108" fitness="0.48659424781799315">
      <Nodes>
        <Node type="bias" id="0" />
        <Node type="in" id="1" />
        <Node type="in" id="2" />
        <Node type="in" id="3" />
        <Node type="in" id="4" />
        <Node type="in" id="5" />
        <Node type="in" id="6" />
        <Node type="out" id="7" />
        <Node type="out" id="8" />
        <Node type="out" id="9" />
        <Node type="hid" id="51" />
      </Nodes>
      <Connections>
        <Con id="23" src="4" tgt="8" wght="5" />
        <Con id="37" src="2" tgt="7" wght="1.5534196712345743" />
        <Con id="40" src="3" tgt="7" wght="-2.0443898782071988" />
        <Con id="41" src="6" tgt="8" wght="-5" />
        <Con id="52" src="3" tgt="51" wght="0.31559065258992186" />
        <Con id="53" src="51" tgt="8" wght="5" />
        <Con id="54" src="4" tgt="9" wght="-5" />
        <Con id="58" src="6" tgt="9" wght="-2.1901391632854939" />
      </Connections>
    </Network>
    <Network id="4373" birthGen="108" fitness="0.32900199890136717">
      <Nodes>
        <Node type="bias" id="0" />
        <Node type="in" id="1" />
        <Node type="in" id="2" />
        <Node type="in" id="3" />
        <Node type="in" id="4" />
        <Node type="in" id="5" />
        <Node type="in" id="6" />
        <Node type="out" id="7" />
        <Node type="out" id="8" />
        <Node type="out" id="9" />
        <Node type="hid" id="51" />
      </Nodes>
      <Connections>
        <Con id="23" src="4" tgt="8" wght="3.8569946367755095" />
        <Con id="37" src="2" tgt="7" wght="2.6337556881547548" />
        <Con id="40" src="3" tgt="7" wght="-2.0690776056608611" />
        <Con id="41" src="6" tgt="8" wght="-5" />
        <Con id="52" src="3" tgt="51" wght="0.31559065258992186" />
        <Con id="53" src="51" tgt="8" wght="5" />
        <Con id="54" src="4" tgt="9" wght="-5" />
        <Con id="58" src="6" tgt="9" wght="-2.1901391632854939" />
      </Connections>
    </Network>
    <Network id="4374" birthGen="108" fitness="0.33719983100891116">
      <Nodes>
        <Node type="bias" id="0" />
        <Node type="in" id="1" />
        <Node type="in" id="2" />
        <Node type="in" id="3" />
        <Node type="in" id="4" />
        <Node type="in" id="5" />
        <Node type="in" id="6" />
        <Node type="out" id="7" />
        <Node type="out" id="8" />
        <Node type="out" id="9" />
        <Node type="hid" id="51" />
      </Nodes>
      <Connections>
        <Con id="23" src="4" tgt="8" wght="5" />
        <Con id="37" src="2" tgt="7" wght="1.5534196712345743" />
        <Con id="40" src="3" tgt="7" wght="-2.0690776056608611" />
        <Con id="41" src="6" tgt="8" wght="-5" />
        <Con id="52" src="3" tgt="51" wght="-0.061313910086516432" />
        <Con id="53" src="51" tgt="8" wght="5" />
        <Con id="54" src="4" tgt="9" wght="-5" />
        <Con id="58" src="6" tgt="9" wght="-2.1901391632854939" />
      </Connections>
    </Network>
    <Network id="4375" birthGen="108" fitness="0.34589500427246095">
      <Nodes>
        <Node type="bias" id="0" />
        <Node type="in" id="1" />
        <Node type="in" id="2" />
        <Node type="in" id="3" />
        <Node type="in" id="4" />
        <Node type="in" id="5" />
        <Node type="in" id="6" />
        <Node type="out" id="7" />
        <Node type="out" id="8" />
        <Node type="out" id="9" />
        <Node type="hid" id="51" />
      </Nodes>
      <Connections>
        <Con id="23" src="4" tgt="8" wght="5" />
        <Con id="37" src="2" tgt="7" wght="1.5534196712345743" />
        <Con id="40" src="3" tgt="7" wght="-2.0690776056608611" />
        <Con id="41" src="6" tgt="8" wght="-5" />
        <Con id="52" src="3" tgt="51" wght="0.31559065258992186" />
        <Con id="53" src="51" tgt="8" wght="4.5449600069223051" />
        <Con id="54" src="4" tgt="9" wght="-5" />
        <Con id="58" src="6" tgt="9" wght="-2.1901391632854939" />
      </Connections>
    </Network>
    <Network id="4376" birthGen="108" fitness="0.4475534439086914">
      <Nodes>
        <Node type="bias" id="0" />
        <Node type="in" id="1" />
        <Node type="in" id="2" />
        <Node type="in" id="3" />
        <Node type="in" id="4" />
        <Node type="in" id="5" />
        <Node type="in" id="6" />
        <Node type="out" id="7" />
        <Node type="out" id="8" />
        <Node type="out" id="9" />
        <Node type="hid" id="51" />
      </Nodes>
      <Connections>
        <Con id="23" src="4" tgt="8" wght="5" />
        <Con id="37" src="2" tgt="7" wght="1.5534196712345743" />
        <Con id="40" src="3" tgt="7" wght="-2.0690776056608611" />
        <Con id="41" src="6" tgt="8" wght="-5" />
        <Con id="52" src="3" tgt="51" wght="0.31559065258992186" />
        <Con id="53" src="51" tgt="8" wght="5" />
        <Con id="54" src="4" tgt="9" wght="-5" />
        <Con id="58" src="6" tgt="9" wght="-2.1849638343645195" />
      </Connections>
    </Network>
    <Network id="4377" birthGen="108" fitness="0.333298659324646">
      <Nodes>
        <Node type="bias" id="0" />
        <Node type="in" id="1" />
        <Node type="in" id="2" />
        <Node type="in" id="3" />
        <Node type="in" id="4" />
        <Node type="in" id="5" />
        <Node type="in" id="6" />
        <Node type="out" id="7" />
        <Node type="out" id="8" />
        <Node type="out" id="9" />
        <Node type="hid" id="51" />
      </Nodes>
      <Connections>
        <Con id="23" src="4" tgt="8" wght="4.6636635464493281" />
        <Con id="37" src="2" tgt="7" wght="0.33353297971189022" />
        <Con id="40" src="3" tgt="7" wght="-2.0640150042343492" />
        <Con id="41" src="6" tgt="8" wght="-5" />
        <Con id="52" src="3" tgt="51" wght="0.291532799577741" />
        <Con id="53" src="51" tgt="8" wght="-0.999297546222806" />
        <Con id="54" src="4" tgt="9" wght="-5" />
        <Con id="58" src="6" tgt="9" wght="-2.1901391632854939" />
      </Connections>
    </Network>
    <Network id="4378" birthGen="108" fitness="0.40299005508422853">
      <Nodes>
        <Node type="bias" id="0" />
        <Node type="in" id="1" />
        <Node type="in" id="2" />
        <Node type="in" id="3" />
        <Node type="in" id="4" />
        <Node type="in" id="5" />
        <Node type="in" id="6" />
        <Node type="out" id="7" />
        <Node type="out" id="8" />
        <Node type="out" id="9" />
        <Node type="hid" id="51" />
      </Nodes>
      <Connections>
        <Con id="23" src="4" tgt="8" wght="4.6636635464493281" />
        <Con id="37" src="2" tgt="7" wght="1.6470223182816712" />
        <Con id="40" src="3" tgt="7" wght="-2.0640150042343492" />
        <Con id="41" src="6" tgt="8" wght="-5" />
        <Con id="52" src="3" tgt="51" wght="0.291532799577741" />
        <Con id="53" src="51" tgt="8" wght="5" />
        <Con id="54" src="4" tgt="9" wght="-5" />
        <Con id="58" src="6" tgt="9" wght="-2.1901391632854939" />
      </Connections>
    </Network>
    <Network id="4379" birthGen="108" fitness="0.280759596824646">
      <Nodes>
        <Node type="bias" id="0" />
        <Node type="in" id="1" />
        <Node type="in" id="2" />
        <Node type="in" id="3" />
        <Node type="in" id="4" />
        <Node type="in" id="5" />
        <Node type="in" id="6" />
        <Node type="out" id="7" />
        <Node type="out" id="8" />
        <Node type="out" id="9" />
        <Node type="hid" id="51" />
      </Nodes>
      <Connections>
        <Con id="23" src="4" tgt="8" wght="4.6636635464493281" />
        <Con id="37" src="2" tgt="7" wght="1.5888256278595985" />
        <Con id="40" src="3" tgt="7" wght="4.1255715163424611" />
        <Con id="41" src="6" tgt="8" wght="0.75754596851766109" />
        <Con id="52" src="3" tgt="51" wght="0.291532799577741" />
        <Con id="53" src="51" tgt="8" wght="5" />
        <Con id="54" src="4" tgt="9" wght="-5" />
        <Con id="58" src="6" tgt="9" wght="2.4025464756414294" />
      </Connections>
    </Network>
    <Network id="4380" birthGen="108" fitness="0.47525224685668943">
      <Nodes>
        <Node type="bias" id="0" />
        <Node type="in" id="1" />
        <Node type="in" id="2" />
        <Node type="in" id="3" />
        <Node type="in" id="4" />
        <Node type="in" id="5" />
        <Node type="in" id="6" />
        <Node type="out" id="7" />
        <Node type="out" id="8" />
        <Node type="out" id="9" />
        <Node type="hid" id="51" />
      </Nodes>
      <Connections>
        <Con id="23" src="4" tgt="8" wght="4.6636635464493281" />
        <Con id="37" src="2" tgt="7" wght="1.5888256278595985" />
        <Con id="40" src="3" tgt="7" wght="-2.0640150042343492" />
        <Con id="41" src="6" tgt="8" wght="-5" />
        <Con id="52" src="3" tgt="51" wght="0.291532799577741" />
        <Con id="53" src="51" tgt="8" wght="5" />
        <Con id="54" src="4" tgt="9" wght="-4.9385943628003526" />
        <Con id="58" src="6" tgt="9" wght="-2.1901391632854939" />
      </Connections>
    </Network>
    <Network id="4381" birthGen="108" fitness="0.415724515914917">
      <Nodes>
        <Node type="bias" id="0" />
        <Node type="in" id="1" />
        <Node type="in" id="2" />
        <Node type="in" id="3" />
        <Node type="in" id="4" />
        <Node type="in" id="5" />
        <Node type="in" id="6" />
        <Node type="out" id="7" />
        <Node type="out" id="8" />
        <Node type="out" id="9" />
        <Node type="hid" id="51" />
      </Nodes>
      <Connections>
        <Con id="23" src="4" tgt="8" wght="4.6636635464493281" />
        <Con id="37" src="2" tgt="7" wght="1.5888256278595985" />
        <Con id="40" src="3" tgt="7" wght="-0.413616773057367" />
        <Con id="41" src="6" tgt="8" wght="-5" />
        <Con id="52" src="3" tgt="51" wght="0.291532799577741" />
        <Con id="53" src="51" tgt="8" wght="5" />
        <Con id="54" src="4" tgt="9" wght="-5" />
        <Con id="58" src="6" tgt="9" wght="-2.1901391632854939" />
      </Connections>
    </Network>
  </Networks>
</Root>