<?xml version="1.0" encoding="utf-8"?>
<Root>
  <ActivationFunctions>
    <Fn id="0" name="SteepenedSigmoid" prob="1" />
  </ActivationFunctions>
  <Networks>
    <Network id="4361" birthGen="108" fitness="0.49718613624572755">
      <Nodes>
        <Node type="bias" id="0" />
        <Node type="in" id="1" />
        <Node type="in" id="2" />
        <Node type="in" id="3" />
        <Node type="in" id="4" />
        <Node type="in" id="5" />
        <Node type="in" id="6" />
        <Node type="out" id="7" />
        <Node type="out" id="8" />
        <Node type="out" id="9" />
        <Node type="hid" id="51" />
      </Nodes>
      <Connections>
        <Con id="23" src="4" tgt="8" wght="3.7076022344559285" />
        <Con id="37" src="2" tgt="7" wght="2.0884691833922151" />
        <Con id="40" src="3" tgt="7" wght="-2.9131471896067556" />
        <Con id="41" src="6" tgt="8" wght="-0.68425365373855107" />
        <Con id="52" src="3" tgt="51" wght="-1.3375022066800306" />
        <Con id="53" src="51" tgt="8" wght="4.8687433713379082" />
        <Con id="54" src="4" tgt="9" wght="-1.7567930743098259" />
        <Con id="58" src="6" tgt="9" wght="-3.0618338850540803" />
      </Connections>
    </Network>
  </Networks>
</Root>