<?xml version="1.0" encoding="utf-8"?>
<Root>
  <ActivationFunctions>
    <Fn id="0" name="SteepenedSigmoid" prob="1" />
  </ActivationFunctions>
  <Networks>
    <Network id="6719" birthGen="167" fitness="2.4473659515380861">
      <Nodes>
        <Node type="bias" id="0" />
        <Node type="in" id="1" />
        <Node type="in" id="2" />
        <Node type="in" id="3" />
        <Node type="in" id="4" />
        <Node type="in" id="5" />
        <Node type="in" id="6" />
        <Node type="out" id="7" />
        <Node type="out" id="8" />
        <Node type="out" id="9" />
        <Node type="hid" id="57" />
      </Nodes>
      <Connections>
        <Con id="31" src="5" tgt="7" wght="-0.95519109047753314" />
        <Con id="32" src="6" tgt="7" wght="-2.5226434970708502" />
        <Con id="33" src="4" tgt="8" wght="3.2092795906381353" />
        <Con id="34" src="6" tgt="8" wght="-0.587218130834355" />
        <Con id="35" src="1" tgt="8" wght="4.8582326518095016" />
        <Con id="36" src="2" tgt="7" wght="-1.7504776364645749" />
        <Con id="38" src="1" tgt="7" wght="4.0811236853021917" />
        <Con id="42" src="4" tgt="7" wght="0.13039585050261962" />
        <Con id="49" src="5" tgt="8" wght="-1.5864375190471116" />
        <Con id="58" src="3" tgt="57" wght="4.7657456956115407" />
        <Con id="60" src="1" tgt="9" wght="0.83969251712001647" />
      </Connections>
    </Network>
  </Networks>
</Root>