<?xml version="1.0" encoding="utf-8"?>
<Root>
  <ActivationFunctions>
    <Fn id="0" name="SteepenedSigmoid" prob="1" />
  </ActivationFunctions>
  <Networks>
    <Network id="12402" birthGen="308" fitness="4.888671875">
      <Nodes>
        <Node type="bias" id="0" />
        <Node type="in" id="1" />
        <Node type="in" id="2" />
        <Node type="in" id="3" />
        <Node type="in" id="4" />
        <Node type="in" id="5" />
        <Node type="in" id="6" />
        <Node type="out" id="7" />
        <Node type="out" id="8" />
        <Node type="out" id="9" />
        <Node type="hid" id="46" />
        <Node type="hid" id="73" />
      </Nodes>
      <Connections>
        <Con id="31" src="3" tgt="7" wght="2.9713737358004866" />
        <Con id="32" src="2" tgt="7" wght="2.5548079930061975" />
        <Con id="35" src="2" tgt="8" wght="-4.9540923899845541" />
        <Con id="36" src="5" tgt="8" wght="1.6120972473664932" />
        <Con id="37" src="3" tgt="8" wght="-2.3998044787733743" />
        <Con id="47" src="3" tgt="46" wght="0.12114271616189382" />
        <Con id="48" src="46" tgt="8" wght="5" />
        <Con id="64" src="2" tgt="9" wght="4.2724384816617871" />
        <Con id="74" src="46" tgt="73" wght="2.89158192930939" />
        <Con id="75" src="73" tgt="9" wght="4.3050275563818179" />
      </Connections>
    </Network>
  </Networks>
</Root>