<?xml version="1.0" encoding="utf-8"?>
<Root>
  <ActivationFunctions>
    <Fn id="0" name="SteepenedSigmoid" prob="1" />
  </ActivationFunctions>
  <Networks>
    <Network id="12259" birthGen="305" fitness="4.46037483215332">
      <Nodes>
        <Node type="bias" id="0" />
        <Node type="in" id="1" />
        <Node type="in" id="2" />
        <Node type="in" id="3" />
        <Node type="in" id="4" />
        <Node type="in" id="5" />
        <Node type="in" id="6" />
        <Node type="out" id="7" />
        <Node type="out" id="8" />
        <Node type="out" id="9" />
        <Node type="hid" id="46" />
        <Node type="hid" id="86" />
      </Nodes>
      <Connections>
        <Con id="11" src="0" tgt="8" wght="3.468288448637673" />
        <Con id="31" src="3" tgt="7" wght="4.8863191064700224" />
        <Con id="32" src="2" tgt="7" wght="1.7339674593919865" />
        <Con id="35" src="2" tgt="8" wght="-4.3067964676874144" />
        <Con id="36" src="5" tgt="8" wght="-2.3740530743507451" />
        <Con id="49" src="46" tgt="9" wght="3.9666681371222032" />
        <Con id="87" src="3" tgt="86" wght="-3.5452683888609049" />
        <Con id="88" src="86" tgt="46" wght="-4.5286950134686554" />
      </Connections>
    </Network>
    <Network id="12271" birthGen="305" fitness="4.4506511688232422">
      <Nodes>
        <Node type="bias" id="0" />
        <Node type="in" id="1" />
        <Node type="in" id="2" />
        <Node type="in" id="3" />
        <Node type="in" id="4" />
        <Node type="in" id="5" />
        <Node type="in" id="6" />
        <Node type="out" id="7" />
        <Node type="out" id="8" />
        <Node type="out" id="9" />
        <Node type="hid" id="46" />
      </Nodes>
      <Connections>
        <Con id="11" src="0" tgt="8" wght="-0.22031890741920665" />
        <Con id="31" src="3" tgt="7" wght="5" />
        <Con id="32" src="2" tgt="7" wght="2.5278206204413984" />
        <Con id="36" src="5" tgt="8" wght="-2.6701074018607516" />
        <Con id="38" src="1" tgt="8" wght="3.3751541805486678" />
        <Con id="47" src="3" tgt="46" wght="1.3384336562106716" />
        <Con id="48" src="46" tgt="8" wght="3.9854326933238773" />
        <Con id="49" src="46" tgt="9" wght="4.57991218743966" />
        <Con id="79" src="1" tgt="9" wght="-0.97317455019935484" />
      </Connections>
    </Network>
    <Network id="12339" birthGen="307" fitness="4.66222038269043">
      <Nodes>
        <Node type="bias" id="0" />
        <Node type="in" id="1" />
        <Node type="in" id="2" />
        <Node type="in" id="3" />
        <Node type="in" id="4" />
        <Node type="in" id="5" />
        <Node type="in" id="6" />
        <Node type="out" id="7" />
        <Node type="out" id="8" />
        <Node type="out" id="9" />
        <Node type="hid" id="46" />
      </Nodes>
      <Connections>
        <Con id="11" src="0" tgt="8" wght="-0.22031890741920665" />
        <Con id="31" src="3" tgt="7" wght="5" />
        <Con id="32" src="2" tgt="7" wght="2.5278206204413984" />
        <Con id="36" src="5" tgt="8" wght="-2.6701074018607516" />
        <Con id="38" src="1" tgt="8" wght="3.3751541805486678" />
        <Con id="47" src="3" tgt="46" wght="1.3384336562106716" />
        <Con id="48" src="46" tgt="8" wght="4.7952425231794908" />
        <Con id="49" src="46" tgt="9" wght="4.57991218743966" />
        <Con id="79" src="1" tgt="9" wght="-0.97317455019935484" />
      </Connections>
    </Network>
    <Network id="12305" birthGen="306" fitness="4.2621234893798832">
      <Nodes>
        <Node type="bias" id="0" />
        <Node type="in" id="1" />
        <Node type="in" id="2" />
        <Node type="in" id="3" />
        <Node type="in" id="4" />
        <Node type="in" id="5" />
        <Node type="in" id="6" />
        <Node type="out" id="7" />
        <Node type="out" id="8" />
        <Node type="out" id="9" />
        <Node type="hid" id="46" />
      </Nodes>
      <Connections>
        <Con id="11" src="0" tgt="8" wght="-0.20245774656036192" />
        <Con id="31" src="3" tgt="7" wght="5" />
        <Con id="32" src="2" tgt="7" wght="1.702283047223893" />
        <Con id="36" src="5" tgt="8" wght="-2.620496451927492" />
        <Con id="38" src="1" tgt="8" wght="5" />
        <Con id="47" src="3" tgt="46" wght="2.6846458683626704" />
        <Con id="48" src="46" tgt="8" wght="5" />
        <Con id="49" src="46" tgt="9" wght="5" />
      </Connections>
    </Network>
    <Network id="12308" birthGen="306" fitness="4.4598476409912111">
      <Nodes>
        <Node type="bias" id="0" />
        <Node type="in" id="1" />
        <Node type="in" id="2" />
        <Node type="in" id="3" />
        <Node type="in" id="4" />
        <Node type="in" id="5" />
        <Node type="in" id="6" />
        <Node type="out" id="7" />
        <Node type="out" id="8" />
        <Node type="out" id="9" />
        <Node type="hid" id="46" />
      </Nodes>
      <Connections>
        <Con id="11" src="0" tgt="8" wght="-1.2280338323548734" />
        <Con id="31" src="3" tgt="7" wght="5" />
        <Con id="32" src="2" tgt="7" wght="1.6893425788753191" />
        <Con id="36" src="5" tgt="8" wght="-2.620496451927492" />
        <Con id="38" src="1" tgt="8" wght="5" />
        <Con id="41" src="6" tgt="8" wght="-1.7205230898124482" />
        <Con id="47" src="3" tgt="46" wght="3.966340229515843" />
        <Con id="48" src="46" tgt="8" wght="4.7373702203126422" />
        <Con id="49" src="46" tgt="9" wght="4.7264135374911822" />
      </Connections>
    </Network>
    <Network id="12280" birthGen="305" fitness="4.4599819183349609">
      <Nodes>
        <Node type="bias" id="0" />
        <Node type="in" id="1" />
        <Node type="in" id="2" />
        <Node type="in" id="3" />
        <Node type="in" id="4" />
        <Node type="in" id="5" />
        <Node type="in" id="6" />
        <Node type="out" id="7" />
        <Node type="out" id="8" />
        <Node type="out" id="9" />
        <Node type="hid" id="46" />
        <Node type="hid" id="73" />
      </Nodes>
      <Connections>
        <Con id="11" src="0" tgt="8" wght="-4.08619511231774" />
        <Con id="31" src="3" tgt="7" wght="3.2017098085752225" />
        <Con id="32" src="2" tgt="7" wght="4.640281613367681" />
        <Con id="35" src="2" tgt="8" wght="-5" />
        <Con id="36" src="5" tgt="8" wght="2.0533758495002985" />
        <Con id="37" src="3" tgt="8" wght="4.87942894457167" />
        <Con id="38" src="1" tgt="8" wght="4.2655342516759216" />
        <Con id="47" src="3" tgt="46" wght="3.87142560924503" />
        <Con id="48" src="46" tgt="8" wght="4.53297131229192" />
        <Con id="49" src="46" tgt="9" wght="3.0993570348298816" />
        <Con id="64" src="2" tgt="9" wght="5" />
        <Con id="74" src="46" tgt="73" wght="2.8666220977902412" />
        <Con id="75" src="73" tgt="9" wght="2.7627800544723868" />
      </Connections>
    </Network>
    <Network id="12352" birthGen="307" fitness="4.6849605560302736">
      <Nodes>
        <Node type="bias" id="0" />
        <Node type="in" id="1" />
        <Node type="in" id="2" />
        <Node type="in" id="3" />
        <Node type="in" id="4" />
        <Node type="in" id="5" />
        <Node type="in" id="6" />
        <Node type="out" id="7" />
        <Node type="out" id="8" />
        <Node type="out" id="9" />
        <Node type="hid" id="46" />
        <Node type="hid" id="73" />
      </Nodes>
      <Connections>
        <Con id="31" src="3" tgt="7" wght="2.9634172060101944" />
        <Con id="32" src="2" tgt="7" wght="2.0009326896458752" />
        <Con id="35" src="2" tgt="8" wght="-4.9133964592580668" />
        <Con id="36" src="5" tgt="8" wght="1.5683925747439555" />
        <Con id="37" src="3" tgt="8" wght="-2.3998044787733743" />
        <Con id="47" src="3" tgt="46" wght="0.12159682944966063" />
        <Con id="48" src="46" tgt="8" wght="5" />
        <Con id="64" src="2" tgt="9" wght="4.2724384816617871" />
        <Con id="74" src="46" tgt="73" wght="2.89158192930939" />
        <Con id="75" src="73" tgt="9" wght="4.2989433811123545" />
      </Connections>
    </Network>
    <Network id="12353" birthGen="307" fitness="4.6704421997070309">
      <Nodes>
        <Node type="bias" id="0" />
        <Node type="in" id="1" />
        <Node type="in" id="2" />
        <Node type="in" id="3" />
        <Node type="in" id="4" />
        <Node type="in" id="5" />
        <Node type="in" id="6" />
        <Node type="out" id="7" />
        <Node type="out" id="8" />
        <Node type="out" id="9" />
        <Node type="hid" id="46" />
        <Node type="hid" id="73" />
      </Nodes>
      <Connections>
        <Con id="31" src="3" tgt="7" wght="2.9713737358004866" />
        <Con id="32" src="2" tgt="7" wght="2.5548079930061975" />
        <Con id="35" src="2" tgt="8" wght="-4.9540923899845541" />
        <Con id="36" src="5" tgt="8" wght="1.6120972473664932" />
        <Con id="37" src="3" tgt="8" wght="-2.3998044787733743" />
        <Con id="47" src="3" tgt="46" wght="0.12159682944966063" />
        <Con id="48" src="46" tgt="8" wght="5" />
        <Con id="64" src="2" tgt="9" wght="4.2724384816617871" />
        <Con id="74" src="46" tgt="73" wght="2.89158192930939" />
        <Con id="75" src="73" tgt="9" wght="4.3050275563818179" />
      </Connections>
    </Network>
    <Network id="12361" birthGen="307" fitness="4.6655128479003904">
      <Nodes>
        <Node type="bias" id="0" />
        <Node type="in" id="1" />
        <Node type="in" id="2" />
        <Node type="in" id="3" />
        <Node type="in" id="4" />
        <Node type="in" id="5" />
        <Node type="in" id="6" />
        <Node type="out" id="7" />
        <Node type="out" id="8" />
        <Node type="out" id="9" />
        <Node type="hid" id="46" />
      </Nodes>
      <Connections>
        <Con id="11" src="0" tgt="8" wght="1.8026904309613421" />
        <Con id="31" src="3" tgt="7" wght="3.8715588503571738" />
        <Con id="32" src="2" tgt="7" wght="0.83823781971252886" />
        <Con id="35" src="2" tgt="8" wght="-3.7711672230507576" />
        <Con id="36" src="5" tgt="8" wght="0.78615953225433344" />
        <Con id="47" src="3" tgt="46" wght="-4.0517149936137669" />
        <Con id="49" src="46" tgt="9" wght="4.14904812883872" />
      </Connections>
    </Network>
    <Network id="12365" birthGen="307" fitness="4.8795703887939457">
      <Nodes>
        <Node type="bias" id="0" />
        <Node type="in" id="1" />
        <Node type="in" id="2" />
        <Node type="in" id="3" />
        <Node type="in" id="4" />
        <Node type="in" id="5" />
        <Node type="in" id="6" />
        <Node type="out" id="7" />
        <Node type="out" id="8" />
        <Node type="out" id="9" />
        <Node type="hid" id="46" />
      </Nodes>
      <Connections>
        <Con id="11" src="0" tgt="8" wght="1.8201516504500144" />
        <Con id="31" src="3" tgt="7" wght="3.8796699202146359" />
        <Con id="32" src="2" tgt="7" wght="0.83823781971252886" />
        <Con id="35" src="2" tgt="8" wght="-3.7711672230507576" />
        <Con id="36" src="5" tgt="8" wght="0.78615953225433344" />
        <Con id="47" src="3" tgt="46" wght="-2.8599109419095683" />
        <Con id="49" src="46" tgt="9" wght="3.9008707824323468" />
      </Connections>
    </Network>
    <Network id="12366" birthGen="308" fitness="4.4539646148681644">
      <Nodes>
        <Node type="bias" id="0" />
        <Node type="in" id="1" />
        <Node type="in" id="2" />
        <Node type="in" id="3" />
        <Node type="in" id="4" />
        <Node type="in" id="5" />
        <Node type="in" id="6" />
        <Node type="out" id="7" />
        <Node type="out" id="8" />
        <Node type="out" id="9" />
        <Node type="hid" id="46" />
        <Node type="hid" id="86" />
      </Nodes>
      <Connections>
        <Con id="11" src="0" tgt="8" wght="3.468288448637673" />
        <Con id="31" src="3" tgt="7" wght="5" />
        <Con id="32" src="2" tgt="7" wght="1.9164427466922014" />
        <Con id="35" src="2" tgt="8" wght="-4.3067964676874144" />
        <Con id="36" src="5" tgt="8" wght="-2.3740530743507451" />
        <Con id="49" src="46" tgt="9" wght="3.9666681371222032" />
        <Con id="87" src="3" tgt="86" wght="-3.5452683888609049" />
        <Con id="88" src="86" tgt="46" wght="-4.5286950134686554" />
      </Connections>
    </Network>
    <Network id="12367" birthGen="308" fitness="4.88598403930664">
      <Nodes>
        <Node type="bias" id="0" />
        <Node type="in" id="1" />
        <Node type="in" id="2" />
        <Node type="in" id="3" />
        <Node type="in" id="4" />
        <Node type="in" id="5" />
        <Node type="in" id="6" />
        <Node type="out" id="7" />
        <Node type="out" id="8" />
        <Node type="out" id="9" />
        <Node type="hid" id="46" />
        <Node type="hid" id="86" />
      </Nodes>
      <Connections>
        <Con id="11" src="0" tgt="8" wght="3.468288448637673" />
        <Con id="31" src="3" tgt="7" wght="4.8863191064700224" />
        <Con id="32" src="2" tgt="7" wght="1.7419586347098517" />
        <Con id="35" src="2" tgt="8" wght="-4.2833784914977873" />
        <Con id="36" src="5" tgt="8" wght="-2.3740530743507451" />
        <Con id="49" src="46" tgt="9" wght="3.9666681371222032" />
        <Con id="87" src="3" tgt="86" wght="-3.5452683888609049" />
        <Con id="88" src="86" tgt="46" wght="-4.5286950134686554" />
      </Connections>
    </Network>
    <Network id="12368" birthGen="308" fitness="4.2470039367675785">
      <Nodes>
        <Node type="bias" id="0" />
        <Node type="in" id="1" />
        <Node type="in" id="2" />
        <Node type="in" id="3" />
        <Node type="in" id="4" />
        <Node type="in" id="5" />
        <Node type="in" id="6" />
        <Node type="out" id="7" />
        <Node type="out" id="8" />
        <Node type="out" id="9" />
        <Node type="hid" id="46" />
        <Node type="hid" id="86" />
      </Nodes>
      <Connections>
        <Con id="11" src="0" tgt="8" wght="3.468288448637673" />
        <Con id="31" src="3" tgt="7" wght="5" />
        <Con id="32" src="2" tgt="7" wght="1.7339674593919865" />
        <Con id="35" src="2" tgt="8" wght="-5" />
        <Con id="36" src="5" tgt="8" wght="-2.3740530743507451" />
        <Con id="49" src="46" tgt="9" wght="3.9666681371222032" />
        <Con id="87" src="3" tgt="86" wght="-3.5452683888609049" />
        <Con id="88" src="86" tgt="46" wght="-4.5286950134686554" />
      </Connections>
    </Network>
    <Network id="12369" birthGen="308" fitness="4.4607624053955082">
      <Nodes>
        <Node type="bias" id="0" />
        <Node type="in" id="1" />
        <Node type="in" id="2" />
        <Node type="in" id="3" />
        <Node type="in" id="4" />
        <Node type="in" id="5" />
        <Node type="in" id="6" />
        <Node type="out" id="7" />
        <Node type="out" id="8" />
        <Node type="out" id="9" />
        <Node type="hid" id="46" />
      </Nodes>
      <Connections>
        <Con id="11" src="0" tgt="8" wght="-1.4500876352649874" />
        <Con id="31" src="3" tgt="7" wght="4.6512109728067479" />
        <Con id="32" src="2" tgt="7" wght="1.7244092456405664" />
        <Con id="36" src="5" tgt="8" wght="-2.620496451927492" />
        <Con id="38" src="1" tgt="8" wght="3.7535673799103244" />
        <Con id="41" src="6" tgt="8" wght="4.7949667181819677" />
        <Con id="47" src="3" tgt="46" wght="1.1096767419497868" />
        <Con id="48" src="46" tgt="8" wght="4.9438863983985586" />
        <Con id="49" src="46" tgt="9" wght="5" />
        <Con id="62" src="4" tgt="9" wght="5" />
      </Connections>
    </Network>
    <Network id="12370" birthGen="308" fitness="4.2485061645507809">
      <Nodes>
        <Node type="bias" id="0" />
        <Node type="in" id="1" />
        <Node type="in" id="2" />
        <Node type="in" id="3" />
        <Node type="in" id="4" />
        <Node type="in" id="5" />
        <Node type="in" id="6" />
        <Node type="out" id="7" />
        <Node type="out" id="8" />
        <Node type="out" id="9" />
        <Node type="hid" id="46" />
      </Nodes>
      <Connections>
        <Con id="11" src="0" tgt="8" wght="-1.4219539007171988" />
        <Con id="31" src="3" tgt="7" wght="4.6512109728067479" />
        <Con id="32" src="2" tgt="7" wght="1.7244092456405664" />
        <Con id="36" src="5" tgt="8" wght="-2.620496451927492" />
        <Con id="38" src="1" tgt="8" wght="3.7535673799103244" />
        <Con id="41" src="6" tgt="8" wght="4.7949667181819677" />
        <Con id="47" src="3" tgt="46" wght="1.1096767419497868" />
        <Con id="48" src="46" tgt="8" wght="4.9438863983985586" />
        <Con id="49" src="46" tgt="9" wght="5" />
        <Con id="62" src="4" tgt="9" wght="4.9751382876974661" />
      </Connections>
    </Network>
    <Network id="12371" birthGen="308" fitness="4.4557186126708981">
      <Nodes>
        <Node type="bias" id="0" />
        <Node type="in" id="1" />
        <Node type="in" id="2" />
        <Node type="in" id="3" />
        <Node type="in" id="4" />
        <Node type="in" id="5" />
        <Node type="in" id="6" />
        <Node type="out" id="7" />
        <Node type="out" id="8" />
        <Node type="out" id="9" />
        <Node type="hid" id="46" />
      </Nodes>
      <Connections>
        <Con id="11" src="0" tgt="8" wght="-1.4219539007171988" />
        <Con id="31" src="3" tgt="7" wght="4.6512109728067479" />
        <Con id="32" src="2" tgt="7" wght="1.7244092456405664" />
        <Con id="36" src="5" tgt="8" wght="-2.620496451927492" />
        <Con id="38" src="1" tgt="8" wght="3.7535673799103244" />
        <Con id="41" src="6" tgt="8" wght="4.7949667181819677" />
        <Con id="47" src="3" tgt="46" wght="1.1096767419497868" />
        <Con id="48" src="46" tgt="8" wght="4.9438863983985586" />
        <Con id="49" src="46" tgt="9" wght="4.9781561688692264" />
        <Con id="62" src="4" tgt="9" wght="4.9903225976896968" />
      </Connections>
    </Network>
    <Network id="12372" birthGen="308" fitness="2.6497655868530274">
      <Nodes>
        <Node type="bias" id="0" />
        <Node type="in" id="1" />
        <Node type="in" id="2" />
        <Node type="in" id="3" />
        <Node type="in" id="4" />
        <Node type="in" id="5" />
        <Node type="in" id="6" />
        <Node type="out" id="7" />
        <Node type="out" id="8" />
        <Node type="out" id="9" />
        <Node type="hid" id="46" />
      </Nodes>
      <Connections>
        <Con id="11" src="0" tgt="8" wght="-1.4219539007171988" />
        <Con id="31" src="3" tgt="7" wght="4.6512109728067479" />
        <Con id="32" src="2" tgt="7" wght="1.7244092456405664" />
        <Con id="36" src="5" tgt="8" wght="-2.620496451927492" />
        <Con id="38" src="1" tgt="8" wght="3.7535673799103244" />
        <Con id="41" src="6" tgt="8" wght="4.7949667181819677" />
        <Con id="47" src="3" tgt="46" wght="-4.2556857177987695" />
        <Con id="48" src="46" tgt="8" wght="4.9438863983985586" />
        <Con id="49" src="46" tgt="9" wght="5" />
        <Con id="62" src="4" tgt="9" wght="5" />
      </Connections>
    </Network>
    <Network id="12373" birthGen="308" fitness="4.4508083343505858">
      <Nodes>
        <Node type="bias" id="0" />
        <Node type="in" id="1" />
        <Node type="in" id="2" />
        <Node type="in" id="3" />
        <Node type="in" id="4" />
        <Node type="in" id="5" />
        <Node type="in" id="6" />
        <Node type="out" id="7" />
        <Node type="out" id="8" />
        <Node type="out" id="9" />
        <Node type="hid" id="46" />
      </Nodes>
      <Connections>
        <Con id="11" src="0" tgt="8" wght="-1.4219539007171988" />
        <Con id="31" src="3" tgt="7" wght="4.6512109728067479" />
        <Con id="32" src="2" tgt="7" wght="1.7244092456405664" />
        <Con id="36" src="5" tgt="8" wght="-2.620496451927492" />
        <Con id="38" src="1" tgt="8" wght="3.7535673799103244" />
        <Con id="41" src="6" tgt="8" wght="4.7949667181819677" />
        <Con id="47" src="3" tgt="46" wght="1.1096767419497868" />
        <Con id="48" src="46" tgt="8" wght="4.9438863983985586" />
        <Con id="49" src="46" tgt="9" wght="5" />
        <Con id="62" src="4" tgt="9" wght="4.7631904734847836" />
      </Connections>
    </Network>
    <Network id="12374" birthGen="308" fitness="4.2436061859130856">
      <Nodes>
        <Node type="bias" id="0" />
        <Node type="in" id="1" />
        <Node type="in" id="2" />
        <Node type="in" id="3" />
        <Node type="in" id="4" />
        <Node type="in" id="5" />
        <Node type="in" id="6" />
        <Node type="out" id="7" />
        <Node type="out" id="8" />
        <Node type="out" id="9" />
        <Node type="hid" id="46" />
      </Nodes>
      <Connections>
        <Con id="11" src="0" tgt="8" wght="-1.4219539007171988" />
        <Con id="31" src="3" tgt="7" wght="4.6512109728067479" />
        <Con id="32" src="2" tgt="7" wght="1.7244092456405664" />
        <Con id="36" src="5" tgt="8" wght="-3.1320532236579082" />
        <Con id="38" src="1" tgt="8" wght="3.7535673799103244" />
        <Con id="41" src="6" tgt="8" wght="4.7949667181819677" />
        <Con id="47" src="3" tgt="46" wght="1.1096767419497868" />
        <Con id="48" src="46" tgt="8" wght="4.9438863983985586" />
        <Con id="49" src="46" tgt="9" wght="2.9216965414511722" />
        <Con id="62" src="4" tgt="9" wght="5" />
      </Connections>
    </Network>
    <Network id="12375" birthGen="308" fitness="4.6752719879150391">
      <Nodes>
        <Node type="bias" id="0" />
        <Node type="in" id="1" />
        <Node type="in" id="2" />
        <Node type="in" id="3" />
        <Node type="in" id="4" />
        <Node type="in" id="5" />
        <Node type="in" id="6" />
        <Node type="out" id="7" />
        <Node type="out" id="8" />
        <Node type="out" id="9" />
        <Node type="hid" id="46" />
      </Nodes>
      <Connections>
        <Con id="11" src="0" tgt="8" wght="-1.4219539007171988" />
        <Con id="31" src="3" tgt="7" wght="4.6512109728067479" />
        <Con id="32" src="2" tgt="7" wght="1.7252398586090907" />
        <Con id="36" src="5" tgt="8" wght="-2.5800784645061907" />
        <Con id="38" src="1" tgt="8" wght="4.5696221817802058" />
        <Con id="41" src="6" tgt="8" wght="4.7949667181819677" />
        <Con id="47" src="3" tgt="46" wght="1.1082200147211552" />
        <Con id="48" src="46" tgt="8" wght="4.9852287295955717" />
        <Con id="49" src="46" tgt="9" wght="5" />
        <Con id="62" src="4" tgt="9" wght="4.9855787440875625" />
      </Connections>
    </Network>
    <Network id="12376" birthGen="308" fitness="4.6739902496337891">
      <Nodes>
        <Node type="bias" id="0" />
        <Node type="in" id="1" />
        <Node type="in" id="2" />
        <Node type="in" id="3" />
        <Node type="in" id="4" />
        <Node type="in" id="5" />
        <Node type="in" id="6" />
        <Node type="out" id="7" />
        <Node type="out" id="8" />
        <Node type="out" id="9" />
        <Node type="hid" id="46" />
      </Nodes>
      <Connections>
        <Con id="11" src="0" tgt="8" wght="-1.4219539007171988" />
        <Con id="31" src="3" tgt="7" wght="4.6512109728067479" />
        <Con id="32" src="2" tgt="7" wght="1.7244092456405664" />
        <Con id="36" src="5" tgt="8" wght="-2.620496451927492" />
        <Con id="38" src="1" tgt="8" wght="4.5696221817802058" />
        <Con id="41" src="6" tgt="8" wght="4.7949667181819677" />
        <Con id="47" src="3" tgt="46" wght="1.1277738562946285" />
        <Con id="48" src="46" tgt="8" wght="4.9438863983985586" />
        <Con id="49" src="46" tgt="9" wght="5" />
        <Con id="62" src="4" tgt="9" wght="4.9855787440875625" />
      </Connections>
    </Network>
    <Network id="12377" birthGen="308" fitness="0.00421190895140171">
      <Nodes>
        <Node type="bias" id="0" />
        <Node type="in" id="1" />
        <Node type="in" id="2" />
        <Node type="in" id="3" />
        <Node type="in" id="4" />
        <Node type="in" id="5" />
        <Node type="in" id="6" />
        <Node type="out" id="7" />
        <Node type="out" id="8" />
        <Node type="out" id="9" />
        <Node type="hid" id="46" />
        <Node type="hid" id="73" />
      </Nodes>
      <Connections>
        <Con id="11" src="0" tgt="8" wght="-4.08619511231774" />
        <Con id="31" src="3" tgt="7" wght="3.2017098085752225" />
        <Con id="32" src="2" tgt="7" wght="1.7244092456405664" />
        <Con id="35" src="2" tgt="8" wght="-5" />
        <Con id="36" src="5" tgt="8" wght="-2.620496451927492" />
        <Con id="37" src="3" tgt="8" wght="4.87942894457167" />
        <Con id="38" src="1" tgt="8" wght="4.2655342516759216" />
        <Con id="47" src="3" tgt="46" wght="1.1082200147211552" />
        <Con id="48" src="46" tgt="8" wght="4.53297131229192" />
        <Con id="49" src="46" tgt="9" wght="3.0993570348298816" />
        <Con id="64" src="2" tgt="9" wght="5" />
        <Con id="74" src="46" tgt="73" wght="2.8666220977902412" />
        <Con id="75" src="73" tgt="9" wght="2.7627800544723868" />
      </Connections>
    </Network>
    <Network id="12378" birthGen="308" fitness="4.2476951599121096">
      <Nodes>
        <Node type="bias" id="0" />
        <Node type="in" id="1" />
        <Node type="in" id="2" />
        <Node type="in" id="3" />
        <Node type="in" id="4" />
        <Node type="in" id="5" />
        <Node type="in" id="6" />
        <Node type="out" id="7" />
        <Node type="out" id="8" />
        <Node type="out" id="9" />
        <Node type="hid" id="46" />
      </Nodes>
      <Connections>
        <Con id="11" src="0" tgt="8" wght="-1.555929154382699" />
        <Con id="31" src="3" tgt="7" wght="4.6512109728067479" />
        <Con id="32" src="2" tgt="7" wght="1.7244092456405664" />
        <Con id="36" src="5" tgt="8" wght="-2.620496451927492" />
        <Con id="38" src="1" tgt="8" wght="5" />
        <Con id="41" src="6" tgt="8" wght="4.7949667181819677" />
        <Con id="47" src="3" tgt="46" wght="1.1082200147211552" />
        <Con id="48" src="46" tgt="8" wght="4.9438863983985586" />
        <Con id="49" src="46" tgt="9" wght="5" />
        <Con id="62" src="4" tgt="9" wght="4.9855787440875625" />
      </Connections>
    </Network>
    <Network id="12379" birthGen="308" fitness="4.2540943145751955">
      <Nodes>
        <Node type="bias" id="0" />
        <Node type="in" id="1" />
        <Node type="in" id="2" />
        <Node type="in" id="3" />
        <Node type="in" id="4" />
        <Node type="in" id="5" />
        <Node type="in" id="6" />
        <Node type="out" id="7" />
        <Node type="out" id="8" />
        <Node type="out" id="9" />
        <Node type="hid" id="46" />
      </Nodes>
      <Connections>
        <Con id="11" src="0" tgt="8" wght="-1.4219539007171988" />
        <Con id="31" src="3" tgt="7" wght="4.6512109728067479" />
        <Con id="32" src="2" tgt="7" wght="1.7180117515495357" />
        <Con id="36" src="5" tgt="8" wght="-2.620496451927492" />
        <Con id="38" src="1" tgt="8" wght="4.5696221817802058" />
        <Con id="41" src="6" tgt="8" wght="4.7949667181819677" />
        <Con id="47" src="3" tgt="46" wght="1.1082200147211552" />
        <Con id="48" src="46" tgt="8" wght="4.9438863983985586" />
        <Con id="49" src="46" tgt="9" wght="5" />
        <Con id="62" src="4" tgt="9" wght="4.9855787440875625" />
      </Connections>
    </Network>
    <Network id="12380" birthGen="308" fitness="4.2476924896240238">
      <Nodes>
        <Node type="bias" id="0" />
        <Node type="in" id="1" />
        <Node type="in" id="2" />
        <Node type="in" id="3" />
        <Node type="in" id="4" />
        <Node type="in" id="5" />
        <Node type="in" id="6" />
        <Node type="out" id="7" />
        <Node type="out" id="8" />
        <Node type="out" id="9" />
        <Node type="hid" id="46" />
      </Nodes>
      <Connections>
        <Con id="11" src="0" tgt="8" wght="-0.69555455909509711" />
        <Con id="31" src="3" tgt="7" wght="5" />
        <Con id="32" src="2" tgt="7" wght="2.5818806427173753" />
        <Con id="36" src="5" tgt="8" wght="-2.6701074018607516" />
        <Con id="38" src="1" tgt="8" wght="3.3751541805486678" />
        <Con id="47" src="3" tgt="46" wght="1.3384336562106716" />
        <Con id="48" src="46" tgt="8" wght="4.7952425231794908" />
        <Con id="49" src="46" tgt="9" wght="4.57991218743966" />
        <Con id="79" src="1" tgt="9" wght="-0.97317455019935484" />
      </Connections>
    </Network>
    <Network id="12381" birthGen="308" fitness="4.4624309539794922">
      <Nodes>
        <Node type="bias" id="0" />
        <Node type="in" id="1" />
        <Node type="in" id="2" />
        <Node type="in" id="3" />
        <Node type="in" id="4" />
        <Node type="in" id="5" />
        <Node type="in" id="6" />
        <Node type="out" id="7" />
        <Node type="out" id="8" />
        <Node type="out" id="9" />
        <Node type="hid" id="46" />
      </Nodes>
      <Connections>
        <Con id="11" src="0" tgt="8" wght="-0.22031890741920665" />
        <Con id="31" src="3" tgt="7" wght="5" />
        <Con id="32" src="2" tgt="7" wght="2.5278206204413984" />
        <Con id="36" src="5" tgt="8" wght="-2.6701074018607516" />
        <Con id="38" src="1" tgt="8" wght="3.3751541805486678" />
        <Con id="47" src="3" tgt="46" wght="1.3384336562106716" />
        <Con id="48" src="46" tgt="8" wght="4.7952425231794908" />
        <Con id="49" src="46" tgt="9" wght="4.57991218743966" />
        <Con id="79" src="1" tgt="9" wght="-0.97317455019935484" />
      </Connections>
    </Network>
    <Network id="12382" birthGen="308" fitness="0.0046817798167467116">
      <Nodes>
        <Node type="bias" id="0" />
        <Node type="in" id="1" />
        <Node type="in" id="2" />
        <Node type="in" id="3" />
        <Node type="in" id="4" />
        <Node type="in" id="5" />
        <Node type="in" id="6" />
        <Node type="out" id="7" />
        <Node type="out" id="8" />
        <Node type="out" id="9" />
        <Node type="hid" id="46" />
      </Nodes>
      <Connections>
        <Con id="11" src="0" tgt="8" wght="-0.20245774656036192" />
        <Con id="31" src="3" tgt="7" wght="-2.3948581051081419" />
        <Con id="32" src="2" tgt="7" wght="1.702283047223893" />
        <Con id="36" src="5" tgt="8" wght="-2.620496451927492" />
        <Con id="38" src="1" tgt="8" wght="5" />
        <Con id="47" src="3" tgt="46" wght="-3.1450432445853949" />
        <Con id="48" src="46" tgt="8" wght="5" />
        <Con id="49" src="46" tgt="9" wght="-3.1798495864495635" />
      </Connections>
    </Network>
    <Network id="12383" birthGen="308" fitness="4.2495494842529293">
      <Nodes>
        <Node type="bias" id="0" />
        <Node type="in" id="1" />
        <Node type="in" id="2" />
        <Node type="in" id="3" />
        <Node type="in" id="4" />
        <Node type="in" id="5" />
        <Node type="in" id="6" />
        <Node type="out" id="7" />
        <Node type="out" id="8" />
        <Node type="out" id="9" />
        <Node type="hid" id="46" />
      </Nodes>
      <Connections>
        <Con id="11" src="0" tgt="8" wght="-0.20245774656036192" />
        <Con id="31" src="3" tgt="7" wght="5" />
        <Con id="32" src="2" tgt="7" wght="1.702283047223893" />
        <Con id="36" src="5" tgt="8" wght="-2.5944001355081037" />
        <Con id="38" src="1" tgt="8" wght="5" />
        <Con id="47" src="3" tgt="46" wght="2.6863842254059711" />
        <Con id="48" src="46" tgt="8" wght="5" />
        <Con id="49" src="46" tgt="9" wght="5" />
      </Connections>
    </Network>
    <Network id="12384" birthGen="308" fitness="0.0041115231812000278">
      <Nodes>
        <Node type="bias" id="0" />
        <Node type="in" id="1" />
        <Node type="in" id="2" />
        <Node type="in" id="3" />
        <Node type="in" id="4" />
        <Node type="in" id="5" />
        <Node type="in" id="6" />
        <Node type="out" id="7" />
        <Node type="out" id="8" />
        <Node type="out" id="9" />
        <Node type="hid" id="46" />
      </Nodes>
      <Connections>
        <Con id="11" src="0" tgt="8" wght="-0.20245774656036192" />
        <Con id="31" src="3" tgt="7" wght="5" />
        <Con id="32" src="2" tgt="7" wght="1.702283047223893" />
        <Con id="36" src="5" tgt="8" wght="-2.620496451927492" />
        <Con id="38" src="1" tgt="8" wght="4.6380915958434343" />
        <Con id="47" src="3" tgt="46" wght="2.6846458683626704" />
        <Con id="48" src="46" tgt="8" wght="-1.0461875190958381" />
        <Con id="49" src="46" tgt="9" wght="-4.9295442318543792" />
      </Connections>
    </Network>
    <Network id="12385" birthGen="308" fitness="0.013078710436820984">
      <Nodes>
        <Node type="bias" id="0" />
        <Node type="in" id="1" />
        <Node type="in" id="2" />
        <Node type="in" id="3" />
        <Node type="in" id="4" />
        <Node type="in" id="5" />
        <Node type="in" id="6" />
        <Node type="out" id="7" />
        <Node type="out" id="8" />
        <Node type="out" id="9" />
        <Node type="hid" id="46" />
      </Nodes>
      <Connections>
        <Con id="11" src="0" tgt="8" wght="-1.2280338323548734" />
        <Con id="31" src="3" tgt="7" wght="5" />
        <Con id="32" src="2" tgt="7" wght="1.6893425788753191" />
        <Con id="36" src="5" tgt="8" wght="-2.620496451927492" />
        <Con id="38" src="1" tgt="8" wght="5" />
        <Con id="41" src="6" tgt="8" wght="-1.7205230898124482" />
        <Con id="47" src="3" tgt="46" wght="3.966340229515843" />
        <Con id="48" src="46" tgt="8" wght="4.7373702203126422" />
        <Con id="49" src="46" tgt="9" wght="4.7264135374911822" />
        <Con id="66" src="46" tgt="7" wght="-0.76801742892712355" />
      </Connections>
    </Network>
    <Network id="12386" birthGen="308" fitness="4.6679763793945313">
      <Nodes>
        <Node type="bias" id="0" />
        <Node type="in" id="1" />
        <Node type="in" id="2" />
        <Node type="in" id="3" />
        <Node type="in" id="4" />
        <Node type="in" id="5" />
        <Node type="in" id="6" />
        <Node type="out" id="7" />
        <Node type="out" id="8" />
        <Node type="out" id="9" />
        <Node type="hid" id="46" />
      </Nodes>
      <Connections>
        <Con id="11" src="0" tgt="8" wght="-1.2280338323548734" />
        <Con id="31" src="3" tgt="7" wght="5" />
        <Con id="32" src="2" tgt="7" wght="2.339090822851797" />
        <Con id="36" src="5" tgt="8" wght="-2.620496451927492" />
        <Con id="38" src="1" tgt="8" wght="5" />
        <Con id="41" src="6" tgt="8" wght="-2.2812228553208982" />
        <Con id="47" src="3" tgt="46" wght="3.966340229515843" />
        <Con id="48" src="46" tgt="8" wght="5" />
        <Con id="49" src="46" tgt="9" wght="4.7264135374911822" />
      </Connections>
    </Network>
    <Network id="12387" birthGen="308" fitness="4.45692253112793">
      <Nodes>
        <Node type="bias" id="0" />
        <Node type="in" id="1" />
        <Node type="in" id="2" />
        <Node type="in" id="3" />
        <Node type="in" id="4" />
        <Node type="in" id="5" />
        <Node type="in" id="6" />
        <Node type="out" id="7" />
        <Node type="out" id="8" />
        <Node type="out" id="9" />
        <Node type="hid" id="46" />
      </Nodes>
      <Connections>
        <Con id="11" src="0" tgt="8" wght="-1.2280338323548734" />
        <Con id="31" src="3" tgt="7" wght="5" />
        <Con id="32" src="2" tgt="7" wght="1.6893425788753191" />
        <Con id="36" src="5" tgt="8" wght="-2.620496451927492" />
        <Con id="38" src="1" tgt="8" wght="5" />
        <Con id="41" src="6" tgt="8" wght="-1.7368250742917555" />
        <Con id="47" src="3" tgt="46" wght="3.966340229515843" />
        <Con id="48" src="46" tgt="8" wght="4.7373702203126422" />
        <Con id="49" src="46" tgt="9" wght="4.7264135374911822" />
      </Connections>
    </Network>
    <Network id="12388" birthGen="308" fitness="4.2436866760253906">
      <Nodes>
        <Node type="bias" id="0" />
        <Node type="in" id="1" />
        <Node type="in" id="2" />
        <Node type="in" id="3" />
        <Node type="in" id="4" />
        <Node type="in" id="5" />
        <Node type="in" id="6" />
        <Node type="out" id="7" />
        <Node type="out" id="8" />
        <Node type="out" id="9" />
        <Node type="hid" id="46" />
      </Nodes>
      <Connections>
        <Con id="11" src="0" tgt="8" wght="-1.2280338323548734" />
        <Con id="31" src="3" tgt="7" wght="5" />
        <Con id="32" src="2" tgt="7" wght="1.6893425788753191" />
        <Con id="36" src="5" tgt="8" wght="-2.620496451927492" />
        <Con id="38" src="1" tgt="8" wght="5" />
        <Con id="41" src="6" tgt="8" wght="-2.2921969063960432" />
        <Con id="47" src="3" tgt="46" wght="3.966340229515843" />
        <Con id="48" src="46" tgt="8" wght="4.7373702203126422" />
        <Con id="49" src="46" tgt="9" wght="4.7264135374911822" />
      </Connections>
    </Network>
    <Network id="12389" birthGen="308" fitness="4.2488563537597654">
      <Nodes>
        <Node type="bias" id="0" />
        <Node type="in" id="1" />
        <Node type="in" id="2" />
        <Node type="in" id="3" />
        <Node type="in" id="4" />
        <Node type="in" id="5" />
        <Node type="in" id="6" />
        <Node type="out" id="7" />
        <Node type="out" id="8" />
        <Node type="out" id="9" />
        <Node type="hid" id="46" />
        <Node type="hid" id="73" />
      </Nodes>
      <Connections>
        <Con id="11" src="0" tgt="8" wght="-4.08619511231774" />
        <Con id="31" src="3" tgt="7" wght="3.1566395772646696" />
        <Con id="32" src="2" tgt="7" wght="4.640281613367681" />
        <Con id="35" src="2" tgt="8" wght="-5" />
        <Con id="36" src="5" tgt="8" wght="2.0533758495002985" />
        <Con id="37" src="3" tgt="8" wght="4.87942894457167" />
        <Con id="38" src="1" tgt="8" wght="4.2655342516759216" />
        <Con id="47" src="3" tgt="46" wght="3.87142560924503" />
        <Con id="48" src="46" tgt="8" wght="4.53297131229192" />
        <Con id="49" src="46" tgt="9" wght="3.0880052172489605" />
        <Con id="64" src="2" tgt="9" wght="5" />
        <Con id="74" src="46" tgt="73" wght="2.8666220977902412" />
        <Con id="75" src="73" tgt="9" wght="2.8139757068590208" />
      </Connections>
    </Network>
    <Network id="12390" birthGen="308" fitness="4.4612384796142575">
      <Nodes>
        <Node type="bias" id="0" />
        <Node type="in" id="1" />
        <Node type="in" id="2" />
        <Node type="in" id="3" />
        <Node type="in" id="4" />
        <Node type="in" id="5" />
        <Node type="in" id="6" />
        <Node type="out" id="7" />
        <Node type="out" id="8" />
        <Node type="out" id="9" />
        <Node type="hid" id="46" />
        <Node type="hid" id="73" />
      </Nodes>
      <Connections>
        <Con id="11" src="0" tgt="8" wght="-2.2409447282552719" />
        <Con id="31" src="3" tgt="7" wght="3.2017098085752225" />
        <Con id="32" src="2" tgt="7" wght="4.640281613367681" />
        <Con id="35" src="2" tgt="8" wght="-5" />
        <Con id="36" src="5" tgt="8" wght="2.0533758495002985" />
        <Con id="37" src="3" tgt="8" wght="4.87942894457167" />
        <Con id="38" src="1" tgt="8" wght="4.2655342516759216" />
        <Con id="47" src="3" tgt="46" wght="-2.7549456944689155" />
        <Con id="48" src="46" tgt="8" wght="4.53297131229192" />
        <Con id="49" src="46" tgt="9" wght="3.0993570348298816" />
        <Con id="64" src="2" tgt="9" wght="5" />
        <Con id="74" src="46" tgt="73" wght="2.8666220977902412" />
        <Con id="75" src="73" tgt="9" wght="3.2245680363848805" />
      </Connections>
    </Network>
    <Network id="12391" birthGen="308" fitness="4.66389274597168">
      <Nodes>
        <Node type="bias" id="0" />
        <Node type="in" id="1" />
        <Node type="in" id="2" />
        <Node type="in" id="3" />
        <Node type="in" id="4" />
        <Node type="in" id="5" />
        <Node type="in" id="6" />
        <Node type="out" id="7" />
        <Node type="out" id="8" />
        <Node type="out" id="9" />
        <Node type="hid" id="46" />
        <Node type="hid" id="73" />
      </Nodes>
      <Connections>
        <Con id="11" src="0" tgt="8" wght="-4.08619511231774" />
        <Con id="31" src="3" tgt="7" wght="3.2017098085752225" />
        <Con id="32" src="2" tgt="7" wght="4.640281613367681" />
        <Con id="35" src="2" tgt="8" wght="-5" />
        <Con id="36" src="5" tgt="8" wght="2.0533758495002985" />
        <Con id="37" src="3" tgt="8" wght="4.87942894457167" />
        <Con id="38" src="1" tgt="8" wght="4.2655342516759216" />
        <Con id="47" src="3" tgt="46" wght="3.87142560924503" />
        <Con id="48" src="46" tgt="8" wght="4.53297131229192" />
        <Con id="49" src="46" tgt="9" wght="3.0993570348298816" />
        <Con id="64" src="2" tgt="9" wght="5" />
        <Con id="74" src="46" tgt="73" wght="2.8666220977902412" />
        <Con id="75" src="73" tgt="9" wght="2.7627800544723868" />
      </Connections>
    </Network>
    <Network id="12392" birthGen="308" fitness="4.663340377807617">
      <Nodes>
        <Node type="bias" id="0" />
        <Node type="in" id="1" />
        <Node type="in" id="2" />
        <Node type="in" id="3" />
        <Node type="in" id="4" />
        <Node type="in" id="5" />
        <Node type="in" id="6" />
        <Node type="out" id="7" />
        <Node type="out" id="8" />
        <Node type="out" id="9" />
        <Node type="hid" id="46" />
        <Node type="hid" id="73" />
      </Nodes>
      <Connections>
        <Con id="11" src="0" tgt="8" wght="-4.0568806553800467" />
        <Con id="31" src="3" tgt="7" wght="3.2017098085752225" />
        <Con id="32" src="2" tgt="7" wght="4.640281613367681" />
        <Con id="35" src="2" tgt="8" wght="-5" />
        <Con id="36" src="5" tgt="8" wght="2.0533758495002985" />
        <Con id="37" src="3" tgt="8" wght="4.87942894457167" />
        <Con id="38" src="1" tgt="8" wght="4.2655342516759216" />
        <Con id="47" src="3" tgt="46" wght="3.850973486831303" />
        <Con id="48" src="46" tgt="8" wght="4.53297131229192" />
        <Con id="49" src="46" tgt="9" wght="3.0993570348298816" />
        <Con id="64" src="2" tgt="9" wght="5" />
        <Con id="74" src="46" tgt="73" wght="2.8666220977902412" />
        <Con id="75" src="73" tgt="9" wght="2.7627800544723868" />
      </Connections>
    </Network>
    <Network id="12393" birthGen="308" fitness="4.2478282928466795">
      <Nodes>
        <Node type="bias" id="0" />
        <Node type="in" id="1" />
        <Node type="in" id="2" />
        <Node type="in" id="3" />
        <Node type="in" id="4" />
        <Node type="in" id="5" />
        <Node type="in" id="6" />
        <Node type="out" id="7" />
        <Node type="out" id="8" />
        <Node type="out" id="9" />
        <Node type="hid" id="46" />
        <Node type="hid" id="73" />
      </Nodes>
      <Connections>
        <Con id="31" src="3" tgt="7" wght="2.9622397402103493" />
        <Con id="32" src="2" tgt="7" wght="2.0107775707445064" />
        <Con id="35" src="2" tgt="8" wght="-4.9133964592580668" />
        <Con id="36" src="5" tgt="8" wght="1.5683925747439555" />
        <Con id="37" src="3" tgt="8" wght="-2.3998044787733743" />
        <Con id="47" src="3" tgt="46" wght="0.12159682944966063" />
        <Con id="48" src="46" tgt="8" wght="5" />
        <Con id="64" src="2" tgt="9" wght="4.2724384816617871" />
        <Con id="74" src="46" tgt="73" wght="2.89158192930939" />
        <Con id="75" src="73" tgt="9" wght="4.2989433811123545" />
      </Connections>
    </Network>
    <Network id="12394" birthGen="308" fitness="4.4547882080078125">
      <Nodes>
        <Node type="bias" id="0" />
        <Node type="in" id="1" />
        <Node type="in" id="2" />
        <Node type="in" id="3" />
        <Node type="in" id="4" />
        <Node type="in" id="5" />
        <Node type="in" id="6" />
        <Node type="out" id="7" />
        <Node type="out" id="8" />
        <Node type="out" id="9" />
        <Node type="hid" id="46" />
        <Node type="hid" id="73" />
      </Nodes>
      <Connections>
        <Con id="31" src="3" tgt="7" wght="2.9634172060101944" />
        <Con id="32" src="2" tgt="7" wght="2.0009326896458752" />
        <Con id="35" src="2" tgt="8" wght="-5" />
        <Con id="36" src="5" tgt="8" wght="1.5683925747439555" />
        <Con id="37" src="3" tgt="8" wght="-2.3998044787733743" />
        <Con id="47" src="3" tgt="46" wght="0.12159682944966063" />
        <Con id="48" src="46" tgt="8" wght="5" />
        <Con id="64" src="2" tgt="9" wght="4.2724384816617871" />
        <Con id="74" src="46" tgt="73" wght="2.89158192930939" />
        <Con id="75" src="73" tgt="9" wght="4.2989433811123545" />
      </Connections>
    </Network>
    <Network id="12395" birthGen="308" fitness="0.0043499212712049488">
      <Nodes>
        <Node type="bias" id="0" />
        <Node type="in" id="1" />
        <Node type="in" id="2" />
        <Node type="in" id="3" />
        <Node type="in" id="4" />
        <Node type="in" id="5" />
        <Node type="in" id="6" />
        <Node type="out" id="7" />
        <Node type="out" id="8" />
        <Node type="out" id="9" />
        <Node type="hid" id="46" />
        <Node type="hid" id="73" />
      </Nodes>
      <Connections>
        <Con id="31" src="3" tgt="7" wght="2.9634172060101944" />
        <Con id="32" src="2" tgt="7" wght="-3.7493639253079891" />
        <Con id="35" src="2" tgt="8" wght="-1.4566536294296384" />
        <Con id="36" src="5" tgt="8" wght="1.5683925747439555" />
        <Con id="37" src="3" tgt="8" wght="-2.3998044787733743" />
        <Con id="47" src="3" tgt="46" wght="0.12159682944966063" />
        <Con id="48" src="46" tgt="8" wght="5" />
        <Con id="64" src="2" tgt="9" wght="4.2724384816617871" />
        <Con id="74" src="46" tgt="73" wght="2.89158192930939" />
        <Con id="75" src="73" tgt="9" wght="4.2989433811123545" />
      </Connections>
    </Network>
    <Network id="12396" birthGen="308" fitness="4.2511039733886715">
      <Nodes>
        <Node type="bias" id="0" />
        <Node type="in" id="1" />
        <Node type="in" id="2" />
        <Node type="in" id="3" />
        <Node type="in" id="4" />
        <Node type="in" id="5" />
        <Node type="in" id="6" />
        <Node type="out" id="7" />
        <Node type="out" id="8" />
        <Node type="out" id="9" />
        <Node type="hid" id="46" />
        <Node type="hid" id="73" />
      </Nodes>
      <Connections>
        <Con id="31" src="3" tgt="7" wght="2.9634172060101944" />
        <Con id="32" src="2" tgt="7" wght="2.0009326896458752" />
        <Con id="35" src="2" tgt="8" wght="-4.9133964592580668" />
        <Con id="36" src="5" tgt="8" wght="1.5683925747439555" />
        <Con id="37" src="3" tgt="8" wght="-2.3998044787733743" />
        <Con id="47" src="3" tgt="46" wght="0.12159682944966063" />
        <Con id="48" src="46" tgt="8" wght="5" />
        <Con id="64" src="2" tgt="9" wght="4.2724384816617871" />
        <Con id="74" src="46" tgt="73" wght="3.7937076462748371" />
        <Con id="75" src="73" tgt="9" wght="4.2989433811123545" />
      </Connections>
    </Network>
    <Network id="12397" birthGen="308" fitness="4.2498241424560543">
      <Nodes>
        <Node type="bias" id="0" />
        <Node type="in" id="1" />
        <Node type="in" id="2" />
        <Node type="in" id="3" />
        <Node type="in" id="4" />
        <Node type="in" id="5" />
        <Node type="in" id="6" />
        <Node type="out" id="7" />
        <Node type="out" id="8" />
        <Node type="out" id="9" />
        <Node type="hid" id="46" />
        <Node type="hid" id="73" />
      </Nodes>
      <Connections>
        <Con id="31" src="3" tgt="7" wght="2.8841592206699471" />
        <Con id="32" src="2" tgt="7" wght="2.0009326896458752" />
        <Con id="35" src="2" tgt="8" wght="-4.9133964592580668" />
        <Con id="36" src="5" tgt="8" wght="1.5683925747439555" />
        <Con id="37" src="3" tgt="8" wght="-2.3998044787733743" />
        <Con id="47" src="3" tgt="46" wght="0.12159682944966063" />
        <Con id="48" src="46" tgt="8" wght="5" />
        <Con id="64" src="2" tgt="9" wght="4.2724384816617871" />
        <Con id="74" src="46" tgt="73" wght="2.89158192930939" />
        <Con id="75" src="73" tgt="9" wght="4.2989433811123545" />
      </Connections>
    </Network>
    <Network id="12398" birthGen="308" fitness="4.6678005218505856">
      <Nodes>
        <Node type="bias" id="0" />
        <Node type="in" id="1" />
        <Node type="in" id="2" />
        <Node type="in" id="3" />
        <Node type="in" id="4" />
        <Node type="in" id="5" />
        <Node type="in" id="6" />
        <Node type="out" id="7" />
        <Node type="out" id="8" />
        <Node type="out" id="9" />
        <Node type="hid" id="46" />
        <Node type="hid" id="73" />
      </Nodes>
      <Connections>
        <Con id="31" src="3" tgt="7" wght="2.9713737358004866" />
        <Con id="32" src="2" tgt="7" wght="2.5548079930061975" />
        <Con id="35" src="2" tgt="8" wght="-4.9540923899845541" />
        <Con id="36" src="5" tgt="8" wght="1.6120972473664932" />
        <Con id="37" src="3" tgt="8" wght="-2.3998044787733743" />
        <Con id="47" src="3" tgt="46" wght="0.12159682944966063" />
        <Con id="48" src="46" tgt="8" wght="5" />
        <Con id="64" src="2" tgt="9" wght="4.2724384816617871" />
        <Con id="74" src="46" tgt="73" wght="2.89158192930939" />
        <Con id="75" src="73" tgt="9" wght="5" />
      </Connections>
    </Network>
    <Network id="12399" birthGen="308" fitness="1.6422069549560547">
      <Nodes>
        <Node type="bias" id="0" />
        <Node type="in" id="1" />
        <Node type="in" id="2" />
        <Node type="in" id="3" />
        <Node type="in" id="4" />
        <Node type="in" id="5" />
        <Node type="in" id="6" />
        <Node type="out" id="7" />
        <Node type="out" id="8" />
        <Node type="out" id="9" />
        <Node type="hid" id="46" />
        <Node type="hid" id="73" />
      </Nodes>
      <Connections>
        <Con id="31" src="3" tgt="7" wght="2.9713737358004866" />
        <Con id="32" src="2" tgt="7" wght="2.5548079930061975" />
        <Con id="35" src="2" tgt="8" wght="-4.9540923899845541" />
        <Con id="36" src="5" tgt="8" wght="2.3924216808819407" />
        <Con id="37" src="3" tgt="8" wght="-2.3998044787733743" />
        <Con id="47" src="3" tgt="46" wght="0.12159682944966063" />
        <Con id="48" src="46" tgt="8" wght="5" />
        <Con id="64" src="2" tgt="9" wght="4.2724384816617871" />
        <Con id="74" src="46" tgt="73" wght="2.89158192930939" />
        <Con id="75" src="73" tgt="9" wght="4.3050275563818179" />
      </Connections>
    </Network>
    <Network id="12400" birthGen="308" fitness="0.64423313140869143">
      <Nodes>
        <Node type="bias" id="0" />
        <Node type="in" id="1" />
        <Node type="in" id="2" />
        <Node type="in" id="3" />
        <Node type="in" id="4" />
        <Node type="in" id="5" />
        <Node type="in" id="6" />
        <Node type="out" id="7" />
        <Node type="out" id="8" />
        <Node type="out" id="9" />
        <Node type="hid" id="46" />
        <Node type="hid" id="73" />
      </Nodes>
      <Connections>
        <Con id="31" src="3" tgt="7" wght="2.9713737358004866" />
        <Con id="32" src="2" tgt="7" wght="2.2618233563678554" />
        <Con id="35" src="2" tgt="8" wght="-3.93184937961998" />
        <Con id="36" src="5" tgt="8" wght="1.6120972473664932" />
        <Con id="37" src="3" tgt="8" wght="-2.3998044787733743" />
        <Con id="47" src="3" tgt="46" wght="0.12159682944966063" />
        <Con id="48" src="46" tgt="8" wght="5" />
        <Con id="64" src="2" tgt="9" wght="4.2724384816617871" />
        <Con id="74" src="46" tgt="73" wght="2.89158192930939" />
        <Con id="75" src="73" tgt="9" wght="4.3050275563818179" />
      </Connections>
    </Network>
    <Network id="12401" birthGen="308" fitness="0.65112981796264646">
      <Nodes>
        <Node type="bias" id="0" />
        <Node type="in" id="1" />
        <Node type="in" id="2" />
        <Node type="in" id="3" />
        <Node type="in" id="4" />
        <Node type="in" id="5" />
        <Node type="in" id="6" />
        <Node type="out" id="7" />
        <Node type="out" id="8" />
        <Node type="out" id="9" />
        <Node type="hid" id="46" />
        <Node type="hid" id="73" />
      </Nodes>
      <Connections>
        <Con id="31" src="3" tgt="7" wght="2.9713737358004866" />
        <Con id="32" src="2" tgt="7" wght="-1.87414210755378" />
        <Con id="35" src="2" tgt="8" wght="-4.9540923899845541" />
        <Con id="36" src="5" tgt="8" wght="1.6120972473664932" />
        <Con id="37" src="3" tgt="8" wght="-2.3998044787733743" />
        <Con id="47" src="3" tgt="46" wght="0.12159682944966063" />
        <Con id="48" src="46" tgt="8" wght="4.1764504695311189" />
        <Con id="64" src="2" tgt="9" wght="2.7956496877595782" />
        <Con id="74" src="46" tgt="73" wght="2.89158192930939" />
        <Con id="75" src="73" tgt="9" wght="4.3050275563818179" />
      </Connections>
    </Network>
    <Network id="12402" birthGen="308" fitness="4.888671875">
      <Nodes>
        <Node type="bias" id="0" />
        <Node type="in" id="1" />
        <Node type="in" id="2" />
        <Node type="in" id="3" />
        <Node type="in" id="4" />
        <Node type="in" id="5" />
        <Node type="in" id="6" />
        <Node type="out" id="7" />
        <Node type="out" id="8" />
        <Node type="out" id="9" />
        <Node type="hid" id="46" />
        <Node type="hid" id="73" />
      </Nodes>
      <Connections>
        <Con id="31" src="3" tgt="7" wght="2.9713737358004866" />
        <Con id="32" src="2" tgt="7" wght="2.5548079930061975" />
        <Con id="35" src="2" tgt="8" wght="-4.9540923899845541" />
        <Con id="36" src="5" tgt="8" wght="1.6120972473664932" />
        <Con id="37" src="3" tgt="8" wght="-2.3998044787733743" />
        <Con id="47" src="3" tgt="46" wght="0.12114271616189382" />
        <Con id="48" src="46" tgt="8" wght="5" />
        <Con id="64" src="2" tgt="9" wght="4.2724384816617871" />
        <Con id="74" src="46" tgt="73" wght="2.89158192930939" />
        <Con id="75" src="73" tgt="9" wght="4.3050275563818179" />
      </Connections>
    </Network>
    <Network id="12403" birthGen="308" fitness="4.4619148254394529">
      <Nodes>
        <Node type="bias" id="0" />
        <Node type="in" id="1" />
        <Node type="in" id="2" />
        <Node type="in" id="3" />
        <Node type="in" id="4" />
        <Node type="in" id="5" />
        <Node type="in" id="6" />
        <Node type="out" id="7" />
        <Node type="out" id="8" />
        <Node type="out" id="9" />
        <Node type="hid" id="46" />
      </Nodes>
      <Connections>
        <Con id="11" src="0" tgt="8" wght="1.7638561216489104" />
        <Con id="31" src="3" tgt="7" wght="3.8715588503571738" />
        <Con id="32" src="2" tgt="7" wght="0.83823781971252886" />
        <Con id="35" src="2" tgt="8" wght="-3.7711672230507576" />
        <Con id="36" src="5" tgt="8" wght="0.78557838196558438" />
        <Con id="47" src="3" tgt="46" wght="-4.0517149936137669" />
        <Con id="49" src="46" tgt="9" wght="4.14904812883872" />
      </Connections>
    </Network>
    <Network id="12404" birthGen="308" fitness="4.24874267578125">
      <Nodes>
        <Node type="bias" id="0" />
        <Node type="in" id="1" />
        <Node type="in" id="2" />
        <Node type="in" id="3" />
        <Node type="in" id="4" />
        <Node type="in" id="5" />
        <Node type="in" id="6" />
        <Node type="out" id="7" />
        <Node type="out" id="8" />
        <Node type="out" id="9" />
        <Node type="hid" id="46" />
      </Nodes>
      <Connections>
        <Con id="11" src="0" tgt="8" wght="1.8201516504500144" />
        <Con id="31" src="3" tgt="7" wght="3.8796699202146359" />
        <Con id="32" src="2" tgt="7" wght="0.84053679569745288" />
        <Con id="35" src="2" tgt="8" wght="-3.7711672230507576" />
        <Con id="36" src="5" tgt="8" wght="0.78615953225433344" />
        <Con id="47" src="3" tgt="46" wght="-2.8599109419095683" />
        <Con id="49" src="46" tgt="9" wght="3.9008707824323468" />
      </Connections>
    </Network>
    <Network id="12405" birthGen="308" fitness="4.4510265350341793">
      <Nodes>
        <Node type="bias" id="0" />
        <Node type="in" id="1" />
        <Node type="in" id="2" />
        <Node type="in" id="3" />
        <Node type="in" id="4" />
        <Node type="in" id="5" />
        <Node type="in" id="6" />
        <Node type="out" id="7" />
        <Node type="out" id="8" />
        <Node type="out" id="9" />
        <Node type="hid" id="46" />
      </Nodes>
      <Connections>
        <Con id="11" src="0" tgt="8" wght="1.8026904309613421" />
        <Con id="31" src="3" tgt="7" wght="3.8715588503571738" />
        <Con id="32" src="2" tgt="7" wght="0.83823781971252886" />
        <Con id="35" src="2" tgt="8" wght="-3.7711672230507576" />
        <Con id="36" src="5" tgt="8" wght="0.78615953225433344" />
        <Con id="47" src="3" tgt="46" wght="-2.8599109419095683" />
        <Con id="49" src="46" tgt="9" wght="4.14904812883872" />
      </Connections>
    </Network>
  </Networks>
</Root>