<?xml version="1.0" encoding="utf-8"?>
<Root>
  <ActivationFunctions>
    <Fn id="0" name="SteepenedSigmoid" prob="1" />
  </ActivationFunctions>
  <Networks>
    <Network id="9107" birthGen="225" fitness="30.263956069946289">
      <Nodes>
        <Node type="bias" id="0" />
        <Node type="in" id="1" />
        <Node type="in" id="2" />
        <Node type="in" id="3" />
        <Node type="in" id="4" />
        <Node type="in" id="5" />
        <Node type="in" id="6" />
        <Node type="out" id="7" />
        <Node type="out" id="8" />
        <Node type="out" id="9" />
        <Node type="hid" id="61" />
        <Node type="hid" id="72" />
      </Nodes>
      <Connections>
        <Con id="14" src="1" tgt="8" wght="4.8178570411635606" />
        <Con id="31" src="5" tgt="7" wght="-3.0540204689695707" />
        <Con id="40" src="3" tgt="7" wght="0.3637512956743591" />
        <Con id="48" src="1" tgt="7" wght="4.8464042554584363" />
        <Con id="62" src="4" tgt="61" wght="3.2757212594151497" />
        <Con id="63" src="61" tgt="8" wght="-0.7490919369132778" />
        <Con id="65" src="61" tgt="9" wght="4.2859036264322752" />
        <Con id="73" src="4" tgt="72" wght="2.6705747295072797" />
        <Con id="74" src="72" tgt="9" wght="3.6405763019781037" />
      </Connections>
    </Network>
  </Networks>
</Root>