<?xml version="1.0" encoding="utf-8"?>
<Root>
  <ActivationFunctions>
    <Fn id="0" name="SteepenedSigmoid" prob="1" />
  </ActivationFunctions>
  <Networks>
    <Network id="2560" birthGen="61" fitness="25.167058944702148">
      <Nodes>
        <Node type="bias" id="0" />
        <Node type="in" id="1" />
        <Node type="in" id="2" />
        <Node type="in" id="3" />
        <Node type="in" id="4" />
        <Node type="in" id="5" />
        <Node type="in" id="6" />
        <Node type="out" id="7" />
        <Node type="out" id="8" />
        <Node type="out" id="9" />
        <Node type="hid" id="36" />
      </Nodes>
      <Connections>
        <Con id="31" src="4" tgt="8" wght="-3.4864744422577063" />
        <Con id="32" src="1" tgt="7" wght="-0.13496733380654702" />
        <Con id="37" src="1" tgt="36" wght="4.4698138089073414" />
        <Con id="38" src="36" tgt="8" wght="4.9878976381971469" />
        <Con id="46" src="5" tgt="9" wght="1.7466785063213526" />
        <Con id="47" src="6" tgt="9" wght="1.721833144955579" />
      </Connections>
    </Network>
    <Network id="2572" birthGen="62" fitness="19.104656219482422">
      <Nodes>
        <Node type="bias" id="0" />
        <Node type="in" id="1" />
        <Node type="in" id="2" />
        <Node type="in" id="3" />
        <Node type="in" id="4" />
        <Node type="in" id="5" />
        <Node type="in" id="6" />
        <Node type="out" id="7" />
        <Node type="out" id="8" />
        <Node type="out" id="9" />
        <Node type="hid" id="36" />
      </Nodes>
      <Connections>
        <Con id="31" src="4" tgt="8" wght="-3.4864744422577063" />
        <Con id="32" src="1" tgt="7" wght="-0.13496733380654702" />
        <Con id="37" src="1" tgt="36" wght="5" />
        <Con id="38" src="36" tgt="8" wght="3.8840115136692255" />
        <Con id="46" src="5" tgt="9" wght="1.7466785063213526" />
        <Con id="47" src="6" tgt="9" wght="1.721833144955579" />
      </Connections>
    </Network>
    <Network id="2432" birthGen="58" fitness="29.238433837890625">
      <Nodes>
        <Node type="bias" id="0" />
        <Node type="in" id="1" />
        <Node type="in" id="2" />
        <Node type="in" id="3" />
        <Node type="in" id="4" />
        <Node type="in" id="5" />
        <Node type="in" id="6" />
        <Node type="out" id="7" />
        <Node type="out" id="8" />
        <Node type="out" id="9" />
        <Node type="hid" id="36" />
      </Nodes>
      <Connections>
        <Con id="31" src="4" tgt="8" wght="-3.9659812458412422" />
        <Con id="32" src="1" tgt="7" wght="-0.088362942178704509" />
        <Con id="37" src="1" tgt="36" wght="4.9042408091478746" />
        <Con id="38" src="36" tgt="8" wght="5" />
        <Con id="46" src="5" tgt="9" wght="2.4425380000420782" />
      </Connections>
    </Network>
    <Network id="2575" birthGen="62" fitness="27.23753547668457">
      <Nodes>
        <Node type="bias" id="0" />
        <Node type="in" id="1" />
        <Node type="in" id="2" />
        <Node type="in" id="3" />
        <Node type="in" id="4" />
        <Node type="in" id="5" />
        <Node type="in" id="6" />
        <Node type="out" id="7" />
        <Node type="out" id="8" />
        <Node type="out" id="9" />
        <Node type="hid" id="36" />
      </Nodes>
      <Connections>
        <Con id="31" src="4" tgt="8" wght="-3.9659812458412422" />
        <Con id="32" src="1" tgt="7" wght="-0.088362942178704509" />
        <Con id="37" src="1" tgt="36" wght="5" />
        <Con id="38" src="36" tgt="8" wght="5" />
        <Con id="46" src="5" tgt="9" wght="2.4425380000420782" />
      </Connections>
    </Network>
    <Network id="2584" birthGen="62" fitness="27.230823516845703">
      <Nodes>
        <Node type="bias" id="0" />
        <Node type="in" id="1" />
        <Node type="in" id="2" />
        <Node type="in" id="3" />
        <Node type="in" id="4" />
        <Node type="in" id="5" />
        <Node type="in" id="6" />
        <Node type="out" id="7" />
        <Node type="out" id="8" />
        <Node type="out" id="9" />
        <Node type="hid" id="36" />
      </Nodes>
      <Connections>
        <Con id="31" src="4" tgt="8" wght="-3.9659812458412422" />
        <Con id="32" src="1" tgt="7" wght="-0.088362942178704509" />
        <Con id="37" src="1" tgt="36" wght="4.9042408091478746" />
        <Con id="38" src="36" tgt="8" wght="5" />
        <Con id="46" src="5" tgt="9" wght="2.4676752977339214" />
      </Connections>
    </Network>
    <Network id="2538" birthGen="61" fitness="27.166910171508789">
      <Nodes>
        <Node type="bias" id="0" />
        <Node type="in" id="1" />
        <Node type="in" id="2" />
        <Node type="in" id="3" />
        <Node type="in" id="4" />
        <Node type="in" id="5" />
        <Node type="in" id="6" />
        <Node type="out" id="7" />
        <Node type="out" id="8" />
        <Node type="out" id="9" />
        <Node type="hid" id="36" />
      </Nodes>
      <Connections>
        <Con id="31" src="4" tgt="8" wght="-4.3704352366317547" />
        <Con id="32" src="1" tgt="7" wght="-0.11766610108584484" />
        <Con id="37" src="1" tgt="36" wght="4.4698138089073414" />
        <Con id="38" src="36" tgt="8" wght="5" />
        <Con id="46" src="5" tgt="9" wght="2.1808968014430143" />
        <Con id="47" src="6" tgt="9" wght="1.4871038918874677" />
        <Con id="48" src="0" tgt="9" wght="-3.1808780627598843" />
      </Connections>
    </Network>
    <Network id="2602" birthGen="62" fitness="25.159297943115234">
      <Nodes>
        <Node type="bias" id="0" />
        <Node type="in" id="1" />
        <Node type="in" id="2" />
        <Node type="in" id="3" />
        <Node type="in" id="4" />
        <Node type="in" id="5" />
        <Node type="in" id="6" />
        <Node type="out" id="7" />
        <Node type="out" id="8" />
        <Node type="out" id="9" />
        <Node type="hid" id="36" />
      </Nodes>
      <Connections>
        <Con id="31" src="4" tgt="8" wght="-3.4864744422577063" />
        <Con id="32" src="1" tgt="7" wght="-0.13496733380654702" />
        <Con id="37" src="1" tgt="36" wght="2.0764376211621856" />
        <Con id="38" src="36" tgt="8" wght="5" />
        <Con id="46" src="5" tgt="9" wght="4.1410628009003432" />
        <Con id="47" src="6" tgt="9" wght="0.61642267275601625" />
      </Connections>
    </Network>
    <Network id="2594" birthGen="62" fitness="26.172142028808594">
      <Nodes>
        <Node type="bias" id="0" />
        <Node type="in" id="1" />
        <Node type="in" id="2" />
        <Node type="in" id="3" />
        <Node type="in" id="4" />
        <Node type="in" id="5" />
        <Node type="in" id="6" />
        <Node type="out" id="7" />
        <Node type="out" id="8" />
        <Node type="out" id="9" />
        <Node type="hid" id="36" />
      </Nodes>
      <Connections>
        <Con id="31" src="4" tgt="8" wght="-4.2596749490324752" />
        <Con id="32" src="1" tgt="7" wght="-0.15162191190318361" />
        <Con id="37" src="1" tgt="36" wght="4.4698138089073414" />
        <Con id="38" src="36" tgt="8" wght="4.9994714551515411" />
        <Con id="46" src="5" tgt="9" wght="3.7372098894341454" />
        <Con id="47" src="6" tgt="9" wght="1.4871038918874677" />
        <Con id="48" src="0" tgt="9" wght="-3.2019105157397538" />
        <Con id="52" src="3" tgt="9" wght="-0.19008522853255272" />
      </Connections>
    </Network>
    <Network id="2595" birthGen="62" fitness="19.146665573120117">
      <Nodes>
        <Node type="bias" id="0" />
        <Node type="in" id="1" />
        <Node type="in" id="2" />
        <Node type="in" id="3" />
        <Node type="in" id="4" />
        <Node type="in" id="5" />
        <Node type="in" id="6" />
        <Node type="out" id="7" />
        <Node type="out" id="8" />
        <Node type="out" id="9" />
        <Node type="hid" id="36" />
      </Nodes>
      <Connections>
        <Con id="31" src="4" tgt="8" wght="-4.2596749490324752" />
        <Con id="32" src="1" tgt="7" wght="-0.15445921661803957" />
        <Con id="37" src="1" tgt="36" wght="4.5057848527620816" />
        <Con id="38" src="36" tgt="8" wght="4.9994714551515411" />
        <Con id="46" src="5" tgt="9" wght="3.7530483358453188" />
        <Con id="47" src="6" tgt="9" wght="1.4871038918874677" />
        <Con id="48" src="0" tgt="9" wght="-3.1927111239455881" />
        <Con id="52" src="3" tgt="9" wght="-0.19008522853255272" />
      </Connections>
    </Network>
    <Network id="2537" birthGen="61" fitness="28.178485870361328">
      <Nodes>
        <Node type="bias" id="0" />
        <Node type="in" id="1" />
        <Node type="in" id="2" />
        <Node type="in" id="3" />
        <Node type="in" id="4" />
        <Node type="in" id="5" />
        <Node type="in" id="6" />
        <Node type="out" id="7" />
        <Node type="out" id="8" />
        <Node type="out" id="9" />
        <Node type="hid" id="36" />
      </Nodes>
      <Connections>
        <Con id="31" src="4" tgt="8" wght="-4.2063509595668629" />
        <Con id="32" src="1" tgt="7" wght="-0.13496733380654702" />
        <Con id="37" src="1" tgt="36" wght="4.4698138089073414" />
        <Con id="38" src="36" tgt="8" wght="4.973755274639462" />
        <Con id="46" src="5" tgt="9" wght="3.7530483358453188" />
        <Con id="47" src="6" tgt="9" wght="1.4955516787564467" />
        <Con id="48" src="0" tgt="9" wght="-1.6530775661122525" />
      </Connections>
    </Network>
    <Network id="2606" birthGen="63" fitness="23.131870269775391">
      <Nodes>
        <Node type="bias" id="0" />
        <Node type="in" id="1" />
        <Node type="in" id="2" />
        <Node type="in" id="3" />
        <Node type="in" id="4" />
        <Node type="in" id="5" />
        <Node type="in" id="6" />
        <Node type="out" id="7" />
        <Node type="out" id="8" />
        <Node type="out" id="9" />
        <Node type="hid" id="36" />
      </Nodes>
      <Connections>
        <Con id="31" src="4" tgt="8" wght="-3.4864744422577063" />
        <Con id="32" src="1" tgt="7" wght="-0.13496733380654702" />
        <Con id="37" src="1" tgt="36" wght="1.4978673996779968" />
        <Con id="38" src="36" tgt="8" wght="4.9878976381971469" />
        <Con id="46" src="5" tgt="9" wght="-0.8927743691545249" />
        <Con id="47" src="6" tgt="9" wght="1.721833144955579" />
      </Connections>
    </Network>
    <Network id="2607" birthGen="63" fitness="16.137063980102539">
      <Nodes>
        <Node type="bias" id="0" />
        <Node type="in" id="1" />
        <Node type="in" id="2" />
        <Node type="in" id="3" />
        <Node type="in" id="4" />
        <Node type="in" id="5" />
        <Node type="in" id="6" />
        <Node type="out" id="7" />
        <Node type="out" id="8" />
        <Node type="out" id="9" />
        <Node type="hid" id="36" />
      </Nodes>
      <Connections>
        <Con id="31" src="4" tgt="8" wght="-3.4864744422577063" />
        <Con id="32" src="1" tgt="7" wght="-0.13496733380654702" />
        <Con id="37" src="1" tgt="36" wght="4.4698138089073414" />
        <Con id="38" src="36" tgt="8" wght="4.9878976381971469" />
        <Con id="46" src="5" tgt="9" wght="1.7466785063213526" />
        <Con id="47" src="6" tgt="9" wght="1.721833144955579" />
      </Connections>
    </Network>
    <Network id="2608" birthGen="63" fitness="0.019822711125016212">
      <Nodes>
        <Node type="bias" id="0" />
        <Node type="in" id="1" />
        <Node type="in" id="2" />
        <Node type="in" id="3" />
        <Node type="in" id="4" />
        <Node type="in" id="5" />
        <Node type="in" id="6" />
        <Node type="out" id="7" />
        <Node type="out" id="8" />
        <Node type="out" id="9" />
        <Node type="hid" id="36" />
      </Nodes>
      <Connections>
        <Con id="31" src="4" tgt="8" wght="-3.9659812458412422" />
        <Con id="32" src="1" tgt="7" wght="-0.031848582176858965" />
        <Con id="37" src="1" tgt="36" wght="4.9042408091478746" />
        <Con id="38" src="36" tgt="8" wght="4.9910454927269639" />
        <Con id="46" src="5" tgt="9" wght="2.4311624998647003" />
      </Connections>
    </Network>
    <Network id="2609" birthGen="63" fitness="22.159032821655273">
      <Nodes>
        <Node type="bias" id="0" />
        <Node type="in" id="1" />
        <Node type="in" id="2" />
        <Node type="in" id="3" />
        <Node type="in" id="4" />
        <Node type="in" id="5" />
        <Node type="in" id="6" />
        <Node type="out" id="7" />
        <Node type="out" id="8" />
        <Node type="out" id="9" />
        <Node type="hid" id="36" />
      </Nodes>
      <Connections>
        <Con id="31" src="4" tgt="8" wght="-3.9659812458412422" />
        <Con id="32" src="1" tgt="7" wght="-0.088362942178704509" />
        <Con id="37" src="1" tgt="36" wght="4.9768668877381312" />
        <Con id="38" src="36" tgt="8" wght="5" />
        <Con id="46" src="5" tgt="9" wght="2.4425380000420782" />
      </Connections>
    </Network>
    <Network id="2610" birthGen="63" fitness="0.038575265556573868">
      <Nodes>
        <Node type="bias" id="0" />
        <Node type="in" id="1" />
        <Node type="in" id="2" />
        <Node type="in" id="3" />
        <Node type="in" id="4" />
        <Node type="in" id="5" />
        <Node type="in" id="6" />
        <Node type="out" id="7" />
        <Node type="out" id="8" />
        <Node type="out" id="9" />
        <Node type="hid" id="36" />
      </Nodes>
      <Connections>
        <Con id="31" src="4" tgt="8" wght="-3.9659812458412422" />
        <Con id="32" src="1" tgt="7" wght="-0.088362942178704509" />
        <Con id="37" src="1" tgt="36" wght="4.9042408091478746" />
        <Con id="38" src="36" tgt="8" wght="5" />
        <Con id="46" src="5" tgt="9" wght="2.4676752977339214" />
      </Connections>
    </Network>
    <Network id="2611" birthGen="63" fitness="19.105781555175781">
      <Nodes>
        <Node type="bias" id="0" />
        <Node type="in" id="1" />
        <Node type="in" id="2" />
        <Node type="in" id="3" />
        <Node type="in" id="4" />
        <Node type="in" id="5" />
        <Node type="in" id="6" />
        <Node type="out" id="7" />
        <Node type="out" id="8" />
        <Node type="out" id="9" />
        <Node type="hid" id="36" />
      </Nodes>
      <Connections>
        <Con id="31" src="4" tgt="8" wght="-3.9659812458412422" />
        <Con id="32" src="1" tgt="7" wght="-0.088362942178704509" />
        <Con id="37" src="1" tgt="36" wght="4.9042408091478746" />
        <Con id="38" src="36" tgt="8" wght="5" />
        <Con id="46" src="5" tgt="9" wght="2.4676752977339214" />
      </Connections>
    </Network>
    <Network id="2612" birthGen="63" fitness="9.1000785827636719">
      <Nodes>
        <Node type="bias" id="0" />
        <Node type="in" id="1" />
        <Node type="in" id="2" />
        <Node type="in" id="3" />
        <Node type="in" id="4" />
        <Node type="in" id="5" />
        <Node type="in" id="6" />
        <Node type="out" id="7" />
        <Node type="out" id="8" />
        <Node type="out" id="9" />
        <Node type="hid" id="36" />
      </Nodes>
      <Connections>
        <Con id="31" src="4" tgt="8" wght="-4.2810017571017678" />
        <Con id="32" src="1" tgt="7" wght="-0.11766610108584484" />
        <Con id="37" src="1" tgt="36" wght="4.4698138089073414" />
        <Con id="38" src="36" tgt="8" wght="5" />
        <Con id="46" src="5" tgt="9" wght="2.1808968014430143" />
        <Con id="47" src="6" tgt="9" wght="2.7285529942758409" />
        <Con id="48" src="0" tgt="9" wght="-4.1172305368382078" />
      </Connections>
    </Network>
    <Network id="2613" birthGen="63" fitness="0.049309369176626205">
      <Nodes>
        <Node type="bias" id="0" />
        <Node type="in" id="1" />
        <Node type="in" id="2" />
        <Node type="in" id="3" />
        <Node type="in" id="4" />
        <Node type="in" id="5" />
        <Node type="in" id="6" />
        <Node type="out" id="7" />
        <Node type="out" id="8" />
        <Node type="out" id="9" />
        <Node type="hid" id="36" />
      </Nodes>
      <Connections>
        <Con id="31" src="4" tgt="8" wght="-4.3704352366317547" />
        <Con id="32" src="1" tgt="7" wght="-0.11766610108584484" />
        <Con id="37" src="1" tgt="36" wght="4.4698138089073414" />
        <Con id="38" src="36" tgt="8" wght="5" />
        <Con id="46" src="5" tgt="9" wght="2.1808968014430143" />
        <Con id="47" src="6" tgt="9" wght="1.4871038918874677" />
        <Con id="48" src="0" tgt="9" wght="-3.1808780627598843" />
      </Connections>
    </Network>
    <Network id="2614" birthGen="63" fitness="24.187639236450195">
      <Nodes>
        <Node type="bias" id="0" />
        <Node type="in" id="1" />
        <Node type="in" id="2" />
        <Node type="in" id="3" />
        <Node type="in" id="4" />
        <Node type="in" id="5" />
        <Node type="in" id="6" />
        <Node type="out" id="7" />
        <Node type="out" id="8" />
        <Node type="out" id="9" />
        <Node type="hid" id="36" />
      </Nodes>
      <Connections>
        <Con id="31" src="4" tgt="8" wght="-4.0287977747341195" />
        <Con id="32" src="1" tgt="7" wght="-0.11766610108584484" />
        <Con id="37" src="1" tgt="36" wght="4.4698138089073414" />
        <Con id="38" src="36" tgt="8" wght="5" />
        <Con id="46" src="5" tgt="9" wght="2.1808968014430143" />
        <Con id="47" src="6" tgt="9" wght="1.4871038918874677" />
        <Con id="48" src="0" tgt="9" wght="-3.1808780627598843" />
      </Connections>
    </Network>
    <Network id="2615" birthGen="63" fitness="5.0659012794494629">
      <Nodes>
        <Node type="bias" id="0" />
        <Node type="in" id="1" />
        <Node type="in" id="2" />
        <Node type="in" id="3" />
        <Node type="in" id="4" />
        <Node type="in" id="5" />
        <Node type="in" id="6" />
        <Node type="out" id="7" />
        <Node type="out" id="8" />
        <Node type="out" id="9" />
        <Node type="hid" id="36" />
      </Nodes>
      <Connections>
        <Con id="31" src="4" tgt="8" wght="-4.3704352366317547" />
        <Con id="32" src="1" tgt="7" wght="-0.11766610108584484" />
        <Con id="37" src="1" tgt="36" wght="4.4698138089073414" />
        <Con id="38" src="36" tgt="8" wght="5" />
        <Con id="46" src="5" tgt="9" wght="2.1808968014430143" />
        <Con id="47" src="6" tgt="9" wght="1.4871038918874677" />
        <Con id="48" src="0" tgt="9" wght="-3.1808780627598843" />
      </Connections>
    </Network>
    <Network id="2616" birthGen="63" fitness="0.050711572170257568">
      <Nodes>
        <Node type="bias" id="0" />
        <Node type="in" id="1" />
        <Node type="in" id="2" />
        <Node type="in" id="3" />
        <Node type="in" id="4" />
        <Node type="in" id="5" />
        <Node type="in" id="6" />
        <Node type="out" id="7" />
        <Node type="out" id="8" />
        <Node type="out" id="9" />
        <Node type="hid" id="36" />
      </Nodes>
      <Connections>
        <Con id="31" src="4" tgt="8" wght="-3.4864744422577063" />
        <Con id="32" src="1" tgt="7" wght="-0.13496733380654702" />
        <Con id="37" src="1" tgt="36" wght="-0.099992253045029678" />
        <Con id="38" src="36" tgt="8" wght="5" />
        <Con id="46" src="5" tgt="9" wght="4.1410628009003432" />
        <Con id="47" src="6" tgt="9" wght="0.96557275358341932" />
      </Connections>
    </Network>
    <Network id="2617" birthGen="63" fitness="16.119901657104492">
      <Nodes>
        <Node type="bias" id="0" />
        <Node type="in" id="1" />
        <Node type="in" id="2" />
        <Node type="in" id="3" />
        <Node type="in" id="4" />
        <Node type="in" id="5" />
        <Node type="in" id="6" />
        <Node type="out" id="7" />
        <Node type="out" id="8" />
        <Node type="out" id="9" />
        <Node type="hid" id="36" />
      </Nodes>
      <Connections>
        <Con id="31" src="4" tgt="8" wght="-3.5003026312984269" />
        <Con id="32" src="1" tgt="7" wght="-0.13496733380654702" />
        <Con id="37" src="1" tgt="36" wght="2.0764376211621856" />
        <Con id="38" src="36" tgt="8" wght="5" />
        <Con id="46" src="5" tgt="9" wght="4.1410628009003432" />
        <Con id="47" src="6" tgt="9" wght="0.61642267275601625" />
      </Connections>
    </Network>
    <Network id="2618" birthGen="63" fitness="0.044449754059314728">
      <Nodes>
        <Node type="bias" id="0" />
        <Node type="in" id="1" />
        <Node type="in" id="2" />
        <Node type="in" id="3" />
        <Node type="in" id="4" />
        <Node type="in" id="5" />
        <Node type="in" id="6" />
        <Node type="out" id="7" />
        <Node type="out" id="8" />
        <Node type="out" id="9" />
        <Node type="hid" id="36" />
      </Nodes>
      <Connections>
        <Con id="31" src="4" tgt="8" wght="-3.447275706415994" />
        <Con id="32" src="1" tgt="7" wght="-0.13496733380654702" />
        <Con id="37" src="1" tgt="36" wght="2.0764376211621856" />
        <Con id="38" src="36" tgt="8" wght="5" />
        <Con id="46" src="5" tgt="9" wght="4.1410628009003432" />
        <Con id="47" src="6" tgt="9" wght="0.61642267275601625" />
      </Connections>
    </Network>
    <Network id="2619" birthGen="63" fitness="21.120718002319336">
      <Nodes>
        <Node type="bias" id="0" />
        <Node type="in" id="1" />
        <Node type="in" id="2" />
        <Node type="in" id="3" />
        <Node type="in" id="4" />
        <Node type="in" id="5" />
        <Node type="in" id="6" />
        <Node type="out" id="7" />
        <Node type="out" id="8" />
        <Node type="out" id="9" />
        <Node type="hid" id="36" />
      </Nodes>
      <Connections>
        <Con id="31" src="4" tgt="8" wght="-3.4864744422577063" />
        <Con id="32" src="1" tgt="7" wght="-0.11297885203680845" />
        <Con id="37" src="1" tgt="36" wght="2.0764376211621856" />
        <Con id="38" src="36" tgt="8" wght="5" />
        <Con id="46" src="5" tgt="9" wght="4.1410628009003432" />
        <Con id="47" src="6" tgt="9" wght="0.61642267275601625" />
      </Connections>
    </Network>
    <Network id="2620" birthGen="63" fitness="0.088841371238231659">
      <Nodes>
        <Node type="bias" id="0" />
        <Node type="in" id="1" />
        <Node type="in" id="2" />
        <Node type="in" id="3" />
        <Node type="in" id="4" />
        <Node type="in" id="5" />
        <Node type="in" id="6" />
        <Node type="out" id="7" />
        <Node type="out" id="8" />
        <Node type="out" id="9" />
        <Node type="hid" id="36" />
      </Nodes>
      <Connections>
        <Con id="31" src="4" tgt="8" wght="-3.4864744422577063" />
        <Con id="32" src="1" tgt="7" wght="-0.13496733380654702" />
        <Con id="37" src="1" tgt="36" wght="1.0001502903775725" />
        <Con id="38" src="36" tgt="8" wght="5" />
        <Con id="46" src="5" tgt="9" wght="4.2336633576112526" />
        <Con id="47" src="6" tgt="9" wght="0.61642267275601625" />
      </Connections>
    </Network>
    <Network id="2621" birthGen="63" fitness="0.06847650557756424">
      <Nodes>
        <Node type="bias" id="0" />
        <Node type="in" id="1" />
        <Node type="in" id="2" />
        <Node type="in" id="3" />
        <Node type="in" id="4" />
        <Node type="in" id="5" />
        <Node type="in" id="6" />
        <Node type="out" id="7" />
        <Node type="out" id="8" />
        <Node type="out" id="9" />
        <Node type="hid" id="36" />
      </Nodes>
      <Connections>
        <Con id="31" src="4" tgt="8" wght="-3.4864744422577063" />
        <Con id="32" src="1" tgt="7" wght="-0.45879974812210872" />
        <Con id="37" src="1" tgt="36" wght="4.8162915992278093" />
        <Con id="38" src="36" tgt="8" wght="4.9878976381971469" />
        <Con id="46" src="5" tgt="9" wght="4.220281279936934" />
        <Con id="47" src="6" tgt="9" wght="1.1713731283277595" />
      </Connections>
    </Network>
    <Network id="2622" birthGen="63" fitness="17.103431701660156">
      <Nodes>
        <Node type="bias" id="0" />
        <Node type="in" id="1" />
        <Node type="in" id="2" />
        <Node type="in" id="3" />
        <Node type="in" id="4" />
        <Node type="in" id="5" />
        <Node type="in" id="6" />
        <Node type="out" id="7" />
        <Node type="out" id="8" />
        <Node type="out" id="9" />
        <Node type="hid" id="36" />
      </Nodes>
      <Connections>
        <Con id="31" src="4" tgt="8" wght="-4.2446340063870363" />
        <Con id="32" src="1" tgt="7" wght="-0.15162191190318361" />
        <Con id="37" src="1" tgt="36" wght="4.4698138089073414" />
        <Con id="38" src="36" tgt="8" wght="4.9994714551515411" />
        <Con id="46" src="5" tgt="9" wght="3.7372098894341454" />
        <Con id="47" src="6" tgt="9" wght="1.4871038918874677" />
        <Con id="48" src="0" tgt="9" wght="-3.2019105157397538" />
        <Con id="52" src="3" tgt="9" wght="-0.19008522853255272" />
      </Connections>
    </Network>
    <Network id="2623" birthGen="63" fitness="0.044897813349962234">
      <Nodes>
        <Node type="bias" id="0" />
        <Node type="in" id="1" />
        <Node type="in" id="2" />
        <Node type="in" id="3" />
        <Node type="in" id="4" />
        <Node type="in" id="5" />
        <Node type="in" id="6" />
        <Node type="out" id="7" />
        <Node type="out" id="8" />
        <Node type="out" id="9" />
        <Node type="hid" id="36" />
      </Nodes>
      <Connections>
        <Con id="31" src="4" tgt="8" wght="-4.645799442447788" />
        <Con id="32" src="1" tgt="7" wght="-0.13496733380654702" />
        <Con id="37" src="1" tgt="36" wght="4.9648407939821482" />
        <Con id="38" src="36" tgt="8" wght="4.973755274639462" />
        <Con id="46" src="5" tgt="9" wght="3.7530483358453188" />
        <Con id="47" src="6" tgt="9" wght="1.4871038918874677" />
        <Con id="48" src="0" tgt="9" wght="3.8746953243389726" />
      </Connections>
    </Network>
    <Network id="2624" birthGen="63" fitness="0.054915469139814377">
      <Nodes>
        <Node type="bias" id="0" />
        <Node type="in" id="1" />
        <Node type="in" id="2" />
        <Node type="in" id="3" />
        <Node type="in" id="4" />
        <Node type="in" id="5" />
        <Node type="in" id="6" />
        <Node type="out" id="7" />
        <Node type="out" id="8" />
        <Node type="out" id="9" />
        <Node type="hid" id="36" />
      </Nodes>
      <Connections>
        <Con id="31" src="4" tgt="8" wght="-4.2063509595668629" />
        <Con id="32" src="1" tgt="7" wght="-4.4384539918974042" />
        <Con id="37" src="1" tgt="36" wght="4.9648407939821482" />
        <Con id="38" src="36" tgt="8" wght="-1.6723898611962795" />
        <Con id="46" src="5" tgt="9" wght="4.2484622541815042" />
        <Con id="47" src="6" tgt="9" wght="1.4871038918874677" />
        <Con id="48" src="0" tgt="9" wght="3.8746953243389726" />
      </Connections>
    </Network>
    <Network id="2625" birthGen="63" fitness="0.050953291356563568">
      <Nodes>
        <Node type="bias" id="0" />
        <Node type="in" id="1" />
        <Node type="in" id="2" />
        <Node type="in" id="3" />
        <Node type="in" id="4" />
        <Node type="in" id="5" />
        <Node type="in" id="6" />
        <Node type="out" id="7" />
        <Node type="out" id="8" />
        <Node type="out" id="9" />
        <Node type="hid" id="36" />
      </Nodes>
      <Connections>
        <Con id="31" src="4" tgt="8" wght="-4.2344346663967869" />
        <Con id="32" src="1" tgt="7" wght="-0.13496733380654702" />
        <Con id="37" src="1" tgt="36" wght="4.9648407939821482" />
        <Con id="38" src="36" tgt="8" wght="4.973755274639462" />
        <Con id="46" src="5" tgt="9" wght="3.7530483358453188" />
        <Con id="47" src="6" tgt="9" wght="1.4871038918874677" />
        <Con id="48" src="0" tgt="9" wght="3.8746953243389726" />
      </Connections>
    </Network>
    <Network id="2626" birthGen="63" fitness="25.185977935791016">
      <Nodes>
        <Node type="bias" id="0" />
        <Node type="in" id="1" />
        <Node type="in" id="2" />
        <Node type="in" id="3" />
        <Node type="in" id="4" />
        <Node type="in" id="5" />
        <Node type="in" id="6" />
        <Node type="out" id="7" />
        <Node type="out" id="8" />
        <Node type="out" id="9" />
        <Node type="hid" id="36" />
      </Nodes>
      <Connections>
        <Con id="31" src="4" tgt="8" wght="-4.2063509595668629" />
        <Con id="32" src="1" tgt="7" wght="-0.11567802584926209" />
        <Con id="37" src="1" tgt="36" wght="4.9720452255259335" />
        <Con id="38" src="36" tgt="8" wght="4.9822005176088435" />
        <Con id="46" src="5" tgt="9" wght="3.7530483358453188" />
        <Con id="47" src="6" tgt="9" wght="1.4871038918874677" />
        <Con id="48" src="0" tgt="9" wght="3.8746953243389726" />
      </Connections>
    </Network>
    <Network id="2627" birthGen="63" fitness="0.048714343458414078">
      <Nodes>
        <Node type="bias" id="0" />
        <Node type="in" id="1" />
        <Node type="in" id="2" />
        <Node type="in" id="3" />
        <Node type="in" id="4" />
        <Node type="in" id="5" />
        <Node type="in" id="6" />
        <Node type="out" id="7" />
        <Node type="out" id="8" />
        <Node type="out" id="9" />
        <Node type="hid" id="36" />
      </Nodes>
      <Connections>
        <Con id="31" src="4" tgt="8" wght="-4.2063509595668629" />
        <Con id="32" src="1" tgt="7" wght="-0.13496733380654702" />
        <Con id="37" src="1" tgt="36" wght="5" />
        <Con id="38" src="36" tgt="8" wght="4.973755274639462" />
        <Con id="46" src="5" tgt="9" wght="4.5628037121243361" />
        <Con id="47" src="6" tgt="9" wght="1.4871038918874677" />
        <Con id="48" src="0" tgt="9" wght="3.8746953243389726" />
      </Connections>
    </Network>
    <Network id="2628" birthGen="63" fitness="15.125951766967773">
      <Nodes>
        <Node type="bias" id="0" />
        <Node type="in" id="1" />
        <Node type="in" id="2" />
        <Node type="in" id="3" />
        <Node type="in" id="4" />
        <Node type="in" id="5" />
        <Node type="in" id="6" />
        <Node type="out" id="7" />
        <Node type="out" id="8" />
        <Node type="out" id="9" />
        <Node type="hid" id="36" />
      </Nodes>
      <Connections>
        <Con id="31" src="4" tgt="8" wght="-4.2237811581132716" />
        <Con id="32" src="1" tgt="7" wght="-0.13496733380654702" />
        <Con id="37" src="1" tgt="36" wght="4.9648407939821482" />
        <Con id="38" src="36" tgt="8" wght="4.973755274639462" />
        <Con id="46" src="5" tgt="9" wght="3.7530483358453188" />
        <Con id="47" src="6" tgt="9" wght="1.4871038918874677" />
        <Con id="48" src="0" tgt="9" wght="3.8847053895799508" />
      </Connections>
    </Network>
    <Network id="2629" birthGen="63" fitness="25.169384002685547">
      <Nodes>
        <Node type="bias" id="0" />
        <Node type="in" id="1" />
        <Node type="in" id="2" />
        <Node type="in" id="3" />
        <Node type="in" id="4" />
        <Node type="in" id="5" />
        <Node type="in" id="6" />
        <Node type="out" id="7" />
        <Node type="out" id="8" />
        <Node type="out" id="9" />
        <Node type="hid" id="36" />
      </Nodes>
      <Connections>
        <Con id="31" src="4" tgt="8" wght="-4.2063509595668629" />
        <Con id="32" src="1" tgt="7" wght="-0.13496733380654702" />
        <Con id="37" src="1" tgt="36" wght="4.4698138089073414" />
        <Con id="38" src="36" tgt="8" wght="4.9878976381971469" />
        <Con id="46" src="5" tgt="9" wght="1.7466785063213526" />
        <Con id="47" src="6" tgt="9" wght="1.721833144955579" />
        <Con id="48" src="0" tgt="9" wght="3.8746953243389726" />
      </Connections>
    </Network>
    <Network id="2630" birthGen="63" fitness="16.102191925048828">
      <Nodes>
        <Node type="bias" id="0" />
        <Node type="in" id="1" />
        <Node type="in" id="2" />
        <Node type="in" id="3" />
        <Node type="in" id="4" />
        <Node type="in" id="5" />
        <Node type="in" id="6" />
        <Node type="out" id="7" />
        <Node type="out" id="8" />
        <Node type="out" id="9" />
        <Node type="hid" id="36" />
      </Nodes>
      <Connections>
        <Con id="31" src="4" tgt="8" wght="-4.2063509595668629" />
        <Con id="32" src="1" tgt="7" wght="-0.13496733380654702" />
        <Con id="37" src="1" tgt="36" wght="4.9648407939821482" />
        <Con id="38" src="36" tgt="8" wght="4.973755274639462" />
        <Con id="46" src="5" tgt="9" wght="3.7530483358453188" />
        <Con id="47" src="6" tgt="9" wght="2.2861905805595018" />
        <Con id="48" src="0" tgt="9" wght="3.8746953243389726" />
      </Connections>
    </Network>
    <Network id="2631" birthGen="63" fitness="0.052192475646734238">
      <Nodes>
        <Node type="bias" id="0" />
        <Node type="in" id="1" />
        <Node type="in" id="2" />
        <Node type="in" id="3" />
        <Node type="in" id="4" />
        <Node type="in" id="5" />
        <Node type="in" id="6" />
        <Node type="out" id="7" />
        <Node type="out" id="8" />
        <Node type="out" id="9" />
        <Node type="hid" id="36" />
      </Nodes>
      <Connections>
        <Con id="31" src="4" tgt="8" wght="-5" />
        <Con id="32" src="1" tgt="7" wght="0.27258421028539365" />
        <Con id="37" src="1" tgt="36" wght="4.9648407939821482" />
        <Con id="38" src="36" tgt="8" wght="4.973755274639462" />
        <Con id="46" src="5" tgt="9" wght="3.7530483358453188" />
        <Con id="47" src="6" tgt="9" wght="1.4871038918874677" />
        <Con id="48" src="0" tgt="9" wght="3.4673518623178823" />
      </Connections>
    </Network>
    <Network id="2632" birthGen="63" fitness="0.049230355769395828">
      <Nodes>
        <Node type="bias" id="0" />
        <Node type="in" id="1" />
        <Node type="in" id="2" />
        <Node type="in" id="3" />
        <Node type="in" id="4" />
        <Node type="in" id="5" />
        <Node type="in" id="6" />
        <Node type="out" id="7" />
        <Node type="out" id="8" />
        <Node type="out" id="9" />
        <Node type="hid" id="36" />
      </Nodes>
      <Connections>
        <Con id="31" src="4" tgt="8" wght="-3.8352835571332573" />
        <Con id="32" src="1" tgt="7" wght="-0.13496733380654702" />
        <Con id="37" src="1" tgt="36" wght="4.9648407939821482" />
        <Con id="38" src="36" tgt="8" wght="4.973755274639462" />
        <Con id="46" src="5" tgt="9" wght="3.3018516392486532" />
        <Con id="47" src="6" tgt="9" wght="1.4871038918874677" />
        <Con id="48" src="0" tgt="9" wght="3.8746953243389726" />
      </Connections>
    </Network>
    <Network id="2633" birthGen="63" fitness="14.102170944213867">
      <Nodes>
        <Node type="bias" id="0" />
        <Node type="in" id="1" />
        <Node type="in" id="2" />
        <Node type="in" id="3" />
        <Node type="in" id="4" />
        <Node type="in" id="5" />
        <Node type="in" id="6" />
        <Node type="out" id="7" />
        <Node type="out" id="8" />
        <Node type="out" id="9" />
        <Node type="hid" id="36" />
      </Nodes>
      <Connections>
        <Con id="31" src="4" tgt="8" wght="-4.2063509595668629" />
        <Con id="32" src="1" tgt="7" wght="-0.16024130411397217" />
        <Con id="37" src="1" tgt="36" wght="4.9352836742831245" />
        <Con id="38" src="36" tgt="8" wght="4.95014978723589" />
        <Con id="46" src="5" tgt="9" wght="3.7530483358453188" />
        <Con id="47" src="6" tgt="9" wght="1.4871038918874677" />
        <Con id="48" src="0" tgt="9" wght="3.8746953243389726" />
      </Connections>
    </Network>
    <Network id="2634" birthGen="63" fitness="15.093240737915039">
      <Nodes>
        <Node type="bias" id="0" />
        <Node type="in" id="1" />
        <Node type="in" id="2" />
        <Node type="in" id="3" />
        <Node type="in" id="4" />
        <Node type="in" id="5" />
        <Node type="in" id="6" />
        <Node type="out" id="7" />
        <Node type="out" id="8" />
        <Node type="out" id="9" />
        <Node type="hid" id="36" />
        <Node type="hid" id="53" />
      </Nodes>
      <Connections>
        <Con id="31" src="4" tgt="8" wght="-4.2596749490324752" />
        <Con id="32" src="1" tgt="7" wght="-0.13496733380654702" />
        <Con id="37" src="1" tgt="36" wght="4.4698138089073414" />
        <Con id="38" src="36" tgt="8" wght="4.9994714551515411" />
        <Con id="47" src="6" tgt="9" wght="1.4764066246022134" />
        <Con id="48" src="0" tgt="9" wght="-3.1927111239455881" />
        <Con id="52" src="3" tgt="9" wght="-0.19008522853255272" />
        <Con id="54" src="5" tgt="53" wght="3.7530483358453188" />
        <Con id="55" src="53" tgt="9" wght="5" />
      </Connections>
    </Network>
    <Network id="2635" birthGen="63" fitness="0.051674798130989075">
      <Nodes>
        <Node type="bias" id="0" />
        <Node type="in" id="1" />
        <Node type="in" id="2" />
        <Node type="in" id="3" />
        <Node type="in" id="4" />
        <Node type="in" id="5" />
        <Node type="in" id="6" />
        <Node type="out" id="7" />
        <Node type="out" id="8" />
        <Node type="out" id="9" />
        <Node type="hid" id="36" />
        <Node type="hid" id="53" />
      </Nodes>
      <Connections>
        <Con id="31" src="4" tgt="8" wght="-4.2596749490324752" />
        <Con id="32" src="1" tgt="7" wght="0.65888584405369144" />
        <Con id="37" src="1" tgt="36" wght="4.4698138089073414" />
        <Con id="38" src="36" tgt="8" wght="4.9994714551515411" />
        <Con id="47" src="6" tgt="9" wght="1.4871038918874677" />
        <Con id="48" src="0" tgt="9" wght="-3.1927111239455881" />
        <Con id="52" src="3" tgt="9" wght="-0.19008522853255272" />
        <Con id="54" src="5" tgt="53" wght="3.7530483358453188" />
        <Con id="55" src="53" tgt="9" wght="5" />
      </Connections>
    </Network>
    <Network id="2636" birthGen="63" fitness="14.11612606048584">
      <Nodes>
        <Node type="bias" id="0" />
        <Node type="in" id="1" />
        <Node type="in" id="2" />
        <Node type="in" id="3" />
        <Node type="in" id="4" />
        <Node type="in" id="5" />
        <Node type="in" id="6" />
        <Node type="out" id="7" />
        <Node type="out" id="8" />
        <Node type="out" id="9" />
        <Node type="hid" id="36" />
        <Node type="hid" id="53" />
      </Nodes>
      <Connections>
        <Con id="31" src="4" tgt="8" wght="-3.7883147547159051" />
        <Con id="32" src="1" tgt="7" wght="-0.13496733380654702" />
        <Con id="37" src="1" tgt="36" wght="4.4698138089073414" />
        <Con id="38" src="36" tgt="8" wght="4.9994714551515411" />
        <Con id="47" src="6" tgt="9" wght="1.4871038918874677" />
        <Con id="48" src="0" tgt="9" wght="-3.1927111239455881" />
        <Con id="52" src="3" tgt="9" wght="-0.19008522853255272" />
        <Con id="54" src="5" tgt="53" wght="3.7530483358453188" />
        <Con id="55" src="53" tgt="9" wght="5" />
      </Connections>
    </Network>
    <Network id="2637" birthGen="63" fitness="15.114936828613281">
      <Nodes>
        <Node type="bias" id="0" />
        <Node type="in" id="1" />
        <Node type="in" id="2" />
        <Node type="in" id="3" />
        <Node type="in" id="4" />
        <Node type="in" id="5" />
        <Node type="in" id="6" />
        <Node type="out" id="7" />
        <Node type="out" id="8" />
        <Node type="out" id="9" />
        <Node type="hid" id="36" />
        <Node type="hid" id="53" />
      </Nodes>
      <Connections>
        <Con id="31" src="4" tgt="8" wght="-4.2596749490324752" />
        <Con id="32" src="1" tgt="7" wght="-0.13496733380654702" />
        <Con id="37" src="1" tgt="36" wght="4.4698138089073414" />
        <Con id="38" src="36" tgt="8" wght="5" />
        <Con id="47" src="6" tgt="9" wght="1.4871038918874677" />
        <Con id="48" src="0" tgt="9" wght="-3.1927111239455881" />
        <Con id="52" src="3" tgt="9" wght="-0.19008522853255272" />
        <Con id="54" src="5" tgt="53" wght="3.7530483358453188" />
        <Con id="55" src="53" tgt="9" wght="5" />
      </Connections>
    </Network>
    <Network id="2638" birthGen="63" fitness="0.043862786144018173">
      <Nodes>
        <Node type="bias" id="0" />
        <Node type="in" id="1" />
        <Node type="in" id="2" />
        <Node type="in" id="3" />
        <Node type="in" id="4" />
        <Node type="in" id="5" />
        <Node type="in" id="6" />
        <Node type="out" id="7" />
        <Node type="out" id="8" />
        <Node type="out" id="9" />
        <Node type="hid" id="36" />
        <Node type="hid" id="53" />
      </Nodes>
      <Connections>
        <Con id="31" src="4" tgt="8" wght="-4.2596749490324752" />
        <Con id="32" src="1" tgt="7" wght="-0.13496733380654702" />
        <Con id="37" src="1" tgt="36" wght="4.4698138089073414" />
        <Con id="38" src="36" tgt="8" wght="4.9994714551515411" />
        <Con id="47" src="6" tgt="9" wght="-2.6357546867802739" />
        <Con id="48" src="0" tgt="9" wght="-4.053094545379281" />
        <Con id="52" src="3" tgt="9" wght="-0.19008522853255272" />
        <Con id="54" src="5" tgt="53" wght="3.3800534624606371" />
        <Con id="55" src="53" tgt="9" wght="5" />
      </Connections>
    </Network>
    <Network id="2639" birthGen="63" fitness="0.052921514958143234">
      <Nodes>
        <Node type="bias" id="0" />
        <Node type="in" id="1" />
        <Node type="in" id="2" />
        <Node type="in" id="3" />
        <Node type="in" id="4" />
        <Node type="in" id="5" />
        <Node type="in" id="6" />
        <Node type="out" id="7" />
        <Node type="out" id="8" />
        <Node type="out" id="9" />
        <Node type="hid" id="36" />
        <Node type="hid" id="53" />
      </Nodes>
      <Connections>
        <Con id="31" src="4" tgt="8" wght="-4.2596749490324752" />
        <Con id="32" src="1" tgt="7" wght="-0.13496733380654702" />
        <Con id="37" src="1" tgt="36" wght="4.4698138089073414" />
        <Con id="38" src="36" tgt="8" wght="4.9994714551515411" />
        <Con id="47" src="6" tgt="9" wght="0.97837624955628733" />
        <Con id="48" src="0" tgt="9" wght="-3.1927111239455881" />
        <Con id="52" src="3" tgt="9" wght="-0.19008522853255272" />
        <Con id="54" src="5" tgt="53" wght="3.7530483358453188" />
        <Con id="55" src="53" tgt="9" wght="5" />
      </Connections>
    </Network>
    <Network id="2640" birthGen="63" fitness="0.045856855809688568">
      <Nodes>
        <Node type="bias" id="0" />
        <Node type="in" id="1" />
        <Node type="in" id="2" />
        <Node type="in" id="3" />
        <Node type="in" id="4" />
        <Node type="in" id="5" />
        <Node type="in" id="6" />
        <Node type="out" id="7" />
        <Node type="out" id="8" />
        <Node type="out" id="9" />
        <Node type="hid" id="36" />
      </Nodes>
      <Connections>
        <Con id="31" src="4" tgt="8" wght="-4.2063509595668629" />
        <Con id="32" src="1" tgt="7" wght="-0.16740051097201675" />
        <Con id="37" src="1" tgt="36" wght="4.4698138089073414" />
        <Con id="38" src="36" tgt="8" wght="4.9688948169365" />
        <Con id="46" src="5" tgt="9" wght="3.7521447482463004" />
        <Con id="47" src="6" tgt="9" wght="1.4955516787564467" />
        <Con id="48" src="0" tgt="9" wght="-1.6530775661122525" />
      </Connections>
    </Network>
    <Network id="2641" birthGen="63" fitness="0.049957960844039917">
      <Nodes>
        <Node type="bias" id="0" />
        <Node type="in" id="1" />
        <Node type="in" id="2" />
        <Node type="in" id="3" />
        <Node type="in" id="4" />
        <Node type="in" id="5" />
        <Node type="in" id="6" />
        <Node type="out" id="7" />
        <Node type="out" id="8" />
        <Node type="out" id="9" />
        <Node type="hid" id="36" />
      </Nodes>
      <Connections>
        <Con id="31" src="4" tgt="8" wght="-4.2063509595668629" />
        <Con id="32" src="1" tgt="7" wght="-0.11274382665418337" />
        <Con id="37" src="1" tgt="36" wght="4.4698138089073414" />
        <Con id="38" src="36" tgt="8" wght="4.973755274639462" />
        <Con id="46" src="5" tgt="9" wght="3.7433429689823892" />
        <Con id="47" src="6" tgt="9" wght="1.4955516787564467" />
        <Con id="48" src="0" tgt="9" wght="-1.6530775661122525" />
      </Connections>
    </Network>
    <Network id="2642" birthGen="63" fitness="0">
      <Nodes>
        <Node type="bias" id="0" />
        <Node type="in" id="1" />
        <Node type="in" id="2" />
        <Node type="in" id="3" />
        <Node type="in" id="4" />
        <Node type="in" id="5" />
        <Node type="in" id="6" />
        <Node type="out" id="7" />
        <Node type="out" id="8" />
        <Node type="out" id="9" />
        <Node type="hid" id="36" />
      </Nodes>
      <Connections>
        <Con id="31" src="4" tgt="8" wght="-4.2063509595668629" />
        <Con id="32" src="1" tgt="7" wght="2.620209357701242" />
        <Con id="37" src="1" tgt="36" wght="2.8954371763393283" />
        <Con id="38" src="36" tgt="8" wght="4.973755274639462" />
        <Con id="46" src="5" tgt="9" wght="0.62847326509654522" />
        <Con id="47" src="6" tgt="9" wght="1.4955516787564467" />
        <Con id="48" src="0" tgt="9" wght="-1.6530775661122525" />
      </Connections>
    </Network>
    <Network id="2643" birthGen="63" fitness="0.05295092985033989">
      <Nodes>
        <Node type="bias" id="0" />
        <Node type="in" id="1" />
        <Node type="in" id="2" />
        <Node type="in" id="3" />
        <Node type="in" id="4" />
        <Node type="in" id="5" />
        <Node type="in" id="6" />
        <Node type="out" id="7" />
        <Node type="out" id="8" />
        <Node type="out" id="9" />
        <Node type="hid" id="36" />
      </Nodes>
      <Connections>
        <Con id="31" src="4" tgt="8" wght="-4.2063509595668629" />
        <Con id="32" src="1" tgt="7" wght="-0.13496733380654702" />
        <Con id="37" src="1" tgt="36" wght="4.4698138089073414" />
        <Con id="38" src="36" tgt="8" wght="4.9605019842413149" />
        <Con id="46" src="5" tgt="9" wght="4.4630287981284233" />
        <Con id="47" src="6" tgt="9" wght="1.4955516787564467" />
        <Con id="48" src="0" tgt="9" wght="-1.6530775661122525" />
      </Connections>
    </Network>
    <Network id="2644" birthGen="63" fitness="0.043773390352725983">
      <Nodes>
        <Node type="bias" id="0" />
        <Node type="in" id="1" />
        <Node type="in" id="2" />
        <Node type="in" id="3" />
        <Node type="in" id="4" />
        <Node type="in" id="5" />
        <Node type="in" id="6" />
        <Node type="out" id="7" />
        <Node type="out" id="8" />
        <Node type="out" id="9" />
        <Node type="hid" id="36" />
      </Nodes>
      <Connections>
        <Con id="31" src="4" tgt="8" wght="-4.2063509595668629" />
        <Con id="32" src="1" tgt="7" wght="-0.13496733380654702" />
        <Con id="37" src="1" tgt="36" wght="4.4698138089073414" />
        <Con id="38" src="36" tgt="8" wght="4.973755274639462" />
        <Con id="46" src="5" tgt="9" wght="3.0172046082826873" />
        <Con id="47" src="6" tgt="9" wght="1.4955516787564467" />
        <Con id="48" src="0" tgt="9" wght="-1.6530775661122525" />
      </Connections>
    </Network>
    <Network id="2645" birthGen="63" fitness="0.044336803257465363">
      <Nodes>
        <Node type="bias" id="0" />
        <Node type="in" id="1" />
        <Node type="in" id="2" />
        <Node type="in" id="3" />
        <Node type="in" id="4" />
        <Node type="in" id="5" />
        <Node type="in" id="6" />
        <Node type="out" id="7" />
        <Node type="out" id="8" />
        <Node type="out" id="9" />
        <Node type="hid" id="36" />
      </Nodes>
      <Connections>
        <Con id="31" src="4" tgt="8" wght="-4.4321761935690276" />
        <Con id="32" src="1" tgt="7" wght="-0.13496733380654702" />
        <Con id="37" src="1" tgt="36" wght="4.4698138089073414" />
        <Con id="38" src="36" tgt="8" wght="4.973755274639462" />
        <Con id="46" src="5" tgt="9" wght="3.7530483358453188" />
        <Con id="47" src="6" tgt="9" wght="3.1188194739699049" />
        <Con id="48" src="0" tgt="9" wght="-0.60812957563635428" />
      </Connections>
    </Network>
  </Networks>
</Root>