<?xml version="1.0" encoding="utf-8"?>
<Root>
  <ActivationFunctions>
    <Fn id="0" name="SteepenedSigmoid" prob="1" />
  </ActivationFunctions>
  <Networks>
    <Network id="8704" birthGen="217" fitness="0.81927928924560545">
      <Nodes>
        <Node type="bias" id="0" />
        <Node type="in" id="1" />
        <Node type="in" id="2" />
        <Node type="in" id="3" />
        <Node type="in" id="4" />
        <Node type="in" id="5" />
        <Node type="in" id="6" />
        <Node type="out" id="7" />
        <Node type="out" id="8" />
        <Node type="out" id="9" />
        <Node type="hid" id="60" />
        <Node type="hid" id="65" />
      </Nodes>
      <Connections>
        <Con id="37" src="5" tgt="7" wght="-0.83279015450661731" />
        <Con id="43" src="3" tgt="8" wght="-3.9043322244165282" />
        <Con id="46" src="1" tgt="7" wght="3.6147795314921769" />
        <Con id="55" src="3" tgt="7" wght="-2.0915309484232347" />
        <Con id="61" src="2" tgt="60" wght="2.0530709260913111" />
        <Con id="66" src="0" tgt="65" wght="2.5357240674450949" />
        <Con id="67" src="65" tgt="8" wght="2.9169781599425093" />
        <Con id="72" src="6" tgt="60" wght="5" />
      </Connections>
    </Network>
    <Network id="8748" birthGen="218" fitness="0.44651813507080079">
      <Nodes>
        <Node type="bias" id="0" />
        <Node type="in" id="1" />
        <Node type="in" id="2" />
        <Node type="in" id="3" />
        <Node type="in" id="4" />
        <Node type="in" id="5" />
        <Node type="in" id="6" />
        <Node type="out" id="7" />
        <Node type="out" id="8" />
        <Node type="out" id="9" />
        <Node type="hid" id="60" />
        <Node type="hid" id="65" />
      </Nodes>
      <Connections>
        <Con id="11" src="0" tgt="8" wght="-0.41301799203509948" />
        <Con id="37" src="5" tgt="7" wght="-0.87599009883055212" />
        <Con id="42" src="4" tgt="8" wght="3.678124005166401" />
        <Con id="43" src="3" tgt="8" wght="-5" />
        <Con id="46" src="1" tgt="7" wght="2.3886524983382809" />
        <Con id="61" src="2" tgt="60" wght="3.3674230566248298" />
        <Con id="66" src="0" tgt="65" wght="-2.0595679356526504" />
        <Con id="67" src="65" tgt="8" wght="3.0481436845667775" />
      </Connections>
    </Network>
    <Network id="8756" birthGen="218" fitness="0.44048190116882324">
      <Nodes>
        <Node type="bias" id="0" />
        <Node type="in" id="1" />
        <Node type="in" id="2" />
        <Node type="in" id="3" />
        <Node type="in" id="4" />
        <Node type="in" id="5" />
        <Node type="in" id="6" />
        <Node type="out" id="7" />
        <Node type="out" id="8" />
        <Node type="out" id="9" />
        <Node type="hid" id="60" />
        <Node type="hid" id="65" />
      </Nodes>
      <Connections>
        <Con id="11" src="0" tgt="8" wght="-0.41301799203509948" />
        <Con id="37" src="5" tgt="7" wght="-0.87599009883055212" />
        <Con id="42" src="4" tgt="8" wght="3.6538945819443782" />
        <Con id="43" src="3" tgt="8" wght="-5" />
        <Con id="46" src="1" tgt="7" wght="3.78916957746861" />
        <Con id="61" src="2" tgt="60" wght="3.3674230566248298" />
        <Con id="66" src="0" tgt="65" wght="-2.0595679356526504" />
        <Con id="67" src="65" tgt="8" wght="3.0481436845667775" />
        <Con id="68" src="2" tgt="9" wght="-1.6413703514263034" />
      </Connections>
    </Network>
    <Network id="8753" birthGen="218" fitness="0.846122932434082">
      <Nodes>
        <Node type="bias" id="0" />
        <Node type="in" id="1" />
        <Node type="in" id="2" />
        <Node type="in" id="3" />
        <Node type="in" id="4" />
        <Node type="in" id="5" />
        <Node type="in" id="6" />
        <Node type="out" id="7" />
        <Node type="out" id="8" />
        <Node type="out" id="9" />
        <Node type="hid" id="60" />
        <Node type="hid" id="65" />
      </Nodes>
      <Connections>
        <Con id="11" src="0" tgt="8" wght="-0.41301799203509948" />
        <Con id="37" src="5" tgt="7" wght="-0.66893626667801032" />
        <Con id="42" src="4" tgt="8" wght="3.6538945819443782" />
        <Con id="43" src="3" tgt="8" wght="-4.7291154743054005" />
        <Con id="46" src="1" tgt="7" wght="4.3419759534299374" />
        <Con id="61" src="2" tgt="60" wght="3.3674230566248298" />
        <Con id="66" src="0" tgt="65" wght="-2.0595679356526504" />
        <Con id="67" src="65" tgt="8" wght="3.5809847456609778" />
        <Con id="68" src="2" tgt="9" wght="-1.6413703514263034" />
      </Connections>
    </Network>
    <Network id="8768" birthGen="218" fitness="0.44836950302124023">
      <Nodes>
        <Node type="bias" id="0" />
        <Node type="in" id="1" />
        <Node type="in" id="2" />
        <Node type="in" id="3" />
        <Node type="in" id="4" />
        <Node type="in" id="5" />
        <Node type="in" id="6" />
        <Node type="out" id="7" />
        <Node type="out" id="8" />
        <Node type="out" id="9" />
        <Node type="hid" id="60" />
        <Node type="hid" id="65" />
      </Nodes>
      <Connections>
        <Con id="37" src="5" tgt="7" wght="-1.3817136575922004" />
        <Con id="43" src="3" tgt="8" wght="-4.36122166599739" />
        <Con id="46" src="1" tgt="7" wght="4.4477723732388554" />
        <Con id="62" src="60" tgt="8" wght="2.8635040547731951" />
        <Con id="66" src="0" tgt="65" wght="1.2188988855746816" />
        <Con id="67" src="65" tgt="8" wght="2.6283889463315804" />
        <Con id="72" src="6" tgt="60" wght="4.2302762957084781" />
      </Connections>
    </Network>
    <Network id="8772" birthGen="218" fitness="0.49799122810363772">
      <Nodes>
        <Node type="bias" id="0" />
        <Node type="in" id="1" />
        <Node type="in" id="2" />
        <Node type="in" id="3" />
        <Node type="in" id="4" />
        <Node type="in" id="5" />
        <Node type="in" id="6" />
        <Node type="out" id="7" />
        <Node type="out" id="8" />
        <Node type="out" id="9" />
        <Node type="hid" id="60" />
        <Node type="hid" id="65" />
      </Nodes>
      <Connections>
        <Con id="37" src="5" tgt="7" wght="-1.3957759054719956" />
        <Con id="43" src="3" tgt="8" wght="-4.4033390618587456" />
        <Con id="46" src="1" tgt="7" wght="5" />
        <Con id="62" src="60" tgt="8" wght="2.8724112529849424" />
        <Con id="66" src="0" tgt="65" wght="2.8605134749116452" />
        <Con id="67" src="65" tgt="8" wght="1.5452858711639139" />
        <Con id="72" src="6" tgt="60" wght="4.2302762957084781" />
      </Connections>
    </Network>
    <Network id="8738" birthGen="217" fitness="0.46950435638427734">
      <Nodes>
        <Node type="bias" id="0" />
        <Node type="in" id="1" />
        <Node type="in" id="2" />
        <Node type="in" id="3" />
        <Node type="in" id="4" />
        <Node type="in" id="5" />
        <Node type="in" id="6" />
        <Node type="out" id="7" />
        <Node type="out" id="8" />
        <Node type="out" id="9" />
        <Node type="hid" id="60" />
        <Node type="hid" id="65" />
      </Nodes>
      <Connections>
        <Con id="37" src="5" tgt="7" wght="-2.5447524969554123" />
        <Con id="43" src="3" tgt="8" wght="-4.3353539243454708" />
        <Con id="46" src="1" tgt="7" wght="5" />
        <Con id="62" src="60" tgt="8" wght="2.813737338151487" />
        <Con id="66" src="0" tgt="65" wght="1.2188988855746816" />
        <Con id="67" src="65" tgt="8" wght="1.0843179142126953" />
        <Con id="72" src="6" tgt="60" wght="5" />
      </Connections>
    </Network>
    <Network id="8760" birthGen="218" fitness="0.44586572647094724">
      <Nodes>
        <Node type="bias" id="0" />
        <Node type="in" id="1" />
        <Node type="in" id="2" />
        <Node type="in" id="3" />
        <Node type="in" id="4" />
        <Node type="in" id="5" />
        <Node type="in" id="6" />
        <Node type="out" id="7" />
        <Node type="out" id="8" />
        <Node type="out" id="9" />
        <Node type="hid" id="60" />
        <Node type="hid" id="65" />
      </Nodes>
      <Connections>
        <Con id="37" src="5" tgt="7" wght="-1.9224505948116237" />
        <Con id="43" src="3" tgt="8" wght="-4.32977660946674" />
        <Con id="46" src="1" tgt="7" wght="4.4420810736177661" />
        <Con id="62" src="60" tgt="8" wght="4.04228488065226" />
        <Con id="66" src="0" tgt="65" wght="2.758188026876399" />
        <Con id="67" src="65" tgt="8" wght="1.0231143393574724" />
        <Con id="72" src="6" tgt="60" wght="4.2302762957084781" />
      </Connections>
    </Network>
    <Network id="8774" birthGen="218" fitness="0.15187748670578002">
      <Nodes>
        <Node type="bias" id="0" />
        <Node type="in" id="1" />
        <Node type="in" id="2" />
        <Node type="in" id="3" />
        <Node type="in" id="4" />
        <Node type="in" id="5" />
        <Node type="in" id="6" />
        <Node type="out" id="7" />
        <Node type="out" id="8" />
        <Node type="out" id="9" />
        <Node type="hid" id="60" />
        <Node type="hid" id="65" />
      </Nodes>
      <Connections>
        <Con id="37" src="5" tgt="7" wght="-2.5447524969554123" />
        <Con id="43" src="3" tgt="8" wght="-4.3353539243454708" />
        <Con id="46" src="1" tgt="7" wght="5" />
        <Con id="56" src="2" tgt="7" wght="4.4081595493480563" />
        <Con id="62" src="60" tgt="8" wght="2.813737338151487" />
        <Con id="66" src="0" tgt="65" wght="1.2188988855746816" />
        <Con id="67" src="65" tgt="8" wght="1.1008427780903907" />
        <Con id="72" src="6" tgt="60" wght="5" />
      </Connections>
    </Network>
    <Network id="8781" birthGen="219" fitness="0.10617568492889404">
      <Nodes>
        <Node type="bias" id="0" />
        <Node type="in" id="1" />
        <Node type="in" id="2" />
        <Node type="in" id="3" />
        <Node type="in" id="4" />
        <Node type="in" id="5" />
        <Node type="in" id="6" />
        <Node type="out" id="7" />
        <Node type="out" id="8" />
        <Node type="out" id="9" />
        <Node type="hid" id="60" />
        <Node type="hid" id="65" />
      </Nodes>
      <Connections>
        <Con id="37" src="5" tgt="7" wght="2.8421926498413086" />
        <Con id="43" src="3" tgt="8" wght="-2.4260970391333103" />
        <Con id="46" src="1" tgt="7" wght="3.6147795314921769" />
        <Con id="55" src="3" tgt="7" wght="-2.0915309484232347" />
        <Con id="61" src="2" tgt="60" wght="-1.4592457236722112" />
        <Con id="66" src="0" tgt="65" wght="2.5357240674450949" />
        <Con id="67" src="65" tgt="8" wght="2.9169781599425093" />
        <Con id="72" src="6" tgt="60" wght="5" />
      </Connections>
    </Network>
    <Network id="8782" birthGen="219" fitness="0.43981528282165527">
      <Nodes>
        <Node type="bias" id="0" />
        <Node type="in" id="1" />
        <Node type="in" id="2" />
        <Node type="in" id="3" />
        <Node type="in" id="4" />
        <Node type="in" id="5" />
        <Node type="in" id="6" />
        <Node type="out" id="7" />
        <Node type="out" id="8" />
        <Node type="out" id="9" />
        <Node type="hid" id="60" />
        <Node type="hid" id="65" />
      </Nodes>
      <Connections>
        <Con id="37" src="5" tgt="7" wght="-0.83279015450661731" />
        <Con id="43" src="3" tgt="8" wght="-3.9043322244165282" />
        <Con id="46" src="1" tgt="7" wght="3.6147795314921769" />
        <Con id="55" src="3" tgt="7" wght="-2.0915309484232347" />
        <Con id="61" src="2" tgt="60" wght="2.0530709260913111" />
        <Con id="66" src="0" tgt="65" wght="2.5357240674450949" />
        <Con id="67" src="65" tgt="8" wght="2.9169781599425093" />
        <Con id="72" src="6" tgt="60" wght="5" />
      </Connections>
    </Network>
    <Network id="8783" birthGen="219" fitness="0.44209485054016112">
      <Nodes>
        <Node type="bias" id="0" />
        <Node type="in" id="1" />
        <Node type="in" id="2" />
        <Node type="in" id="3" />
        <Node type="in" id="4" />
        <Node type="in" id="5" />
        <Node type="in" id="6" />
        <Node type="out" id="7" />
        <Node type="out" id="8" />
        <Node type="out" id="9" />
        <Node type="hid" id="60" />
        <Node type="hid" id="65" />
      </Nodes>
      <Connections>
        <Con id="37" src="5" tgt="7" wght="-1.2378652439465712" />
        <Con id="43" src="3" tgt="8" wght="-3.9043322244165282" />
        <Con id="46" src="1" tgt="7" wght="3.6147795314921769" />
        <Con id="55" src="3" tgt="7" wght="-2.0915309484232347" />
        <Con id="61" src="2" tgt="60" wght="1.4084840119173774" />
        <Con id="66" src="0" tgt="65" wght="2.5357240674450949" />
        <Con id="67" src="65" tgt="8" wght="3.3500760583534839" />
        <Con id="72" src="6" tgt="60" wght="5" />
      </Connections>
    </Network>
    <Network id="8784" birthGen="219" fitness="0.70251688957214353">
      <Nodes>
        <Node type="bias" id="0" />
        <Node type="in" id="1" />
        <Node type="in" id="2" />
        <Node type="in" id="3" />
        <Node type="in" id="4" />
        <Node type="in" id="5" />
        <Node type="in" id="6" />
        <Node type="out" id="7" />
        <Node type="out" id="8" />
        <Node type="out" id="9" />
        <Node type="hid" id="60" />
        <Node type="hid" id="65" />
      </Nodes>
      <Connections>
        <Con id="37" src="5" tgt="7" wght="-0.83279015450661731" />
        <Con id="43" src="3" tgt="8" wght="-3.9043322244165282" />
        <Con id="46" src="1" tgt="7" wght="3.6147795314921769" />
        <Con id="55" src="3" tgt="7" wght="-3.07500816698829" />
        <Con id="61" src="2" tgt="60" wght="2.0530709260913111" />
        <Con id="66" src="0" tgt="65" wght="2.5357240674450949" />
        <Con id="67" src="65" tgt="8" wght="2.1817602087821837" />
        <Con id="72" src="6" tgt="60" wght="5" />
      </Connections>
    </Network>
    <Network id="8785" birthGen="219" fitness="0.28125402927398679">
      <Nodes>
        <Node type="bias" id="0" />
        <Node type="in" id="1" />
        <Node type="in" id="2" />
        <Node type="in" id="3" />
        <Node type="in" id="4" />
        <Node type="in" id="5" />
        <Node type="in" id="6" />
        <Node type="out" id="7" />
        <Node type="out" id="8" />
        <Node type="out" id="9" />
        <Node type="hid" id="60" />
        <Node type="hid" id="65" />
      </Nodes>
      <Connections>
        <Con id="37" src="5" tgt="7" wght="-0.984687084124393" />
        <Con id="43" src="3" tgt="8" wght="-3.9330312861409338" />
        <Con id="46" src="1" tgt="7" wght="2.9313750579945053" />
        <Con id="56" src="2" tgt="7" wght="-2.1440034010318127" />
        <Con id="61" src="2" tgt="60" wght="3.1530645153210051" />
        <Con id="66" src="0" tgt="65" wght="0.64900873913511448" />
        <Con id="67" src="65" tgt="8" wght="0.18411723633866517" />
        <Con id="72" src="6" tgt="60" wght="4.1793380277904895" />
        <Con id="79" src="3" tgt="60" wght="-3.0379627031366319" />
      </Connections>
    </Network>
    <Network id="8786" birthGen="219" fitness="0.059087282419204711">
      <Nodes>
        <Node type="bias" id="0" />
        <Node type="in" id="1" />
        <Node type="in" id="2" />
        <Node type="in" id="3" />
        <Node type="in" id="4" />
        <Node type="in" id="5" />
        <Node type="in" id="6" />
        <Node type="out" id="7" />
        <Node type="out" id="8" />
        <Node type="out" id="9" />
        <Node type="hid" id="60" />
        <Node type="hid" id="65" />
      </Nodes>
      <Connections>
        <Con id="37" src="5" tgt="7" wght="-0.984687084124393" />
        <Con id="43" src="3" tgt="8" wght="-4.6013469732606218" />
        <Con id="46" src="1" tgt="7" wght="2.9313750579945053" />
        <Con id="56" src="2" tgt="7" wght="-2.1440034010318127" />
        <Con id="61" src="2" tgt="60" wght="3.1530645153210051" />
        <Con id="66" src="0" tgt="65" wght="0.64900873913511448" />
        <Con id="67" src="65" tgt="8" wght="-1.6495826514437795" />
        <Con id="72" src="6" tgt="60" wght="-0.90941594913601875" />
        <Con id="79" src="3" tgt="60" wght="-4.3573231250047684" />
      </Connections>
    </Network>
    <Network id="8787" birthGen="219" fitness="0.71828813552856441">
      <Nodes>
        <Node type="bias" id="0" />
        <Node type="in" id="1" />
        <Node type="in" id="2" />
        <Node type="in" id="3" />
        <Node type="in" id="4" />
        <Node type="in" id="5" />
        <Node type="in" id="6" />
        <Node type="out" id="7" />
        <Node type="out" id="8" />
        <Node type="out" id="9" />
        <Node type="hid" id="60" />
        <Node type="hid" id="65" />
      </Nodes>
      <Connections>
        <Con id="37" src="5" tgt="7" wght="-0.984687084124393" />
        <Con id="43" src="3" tgt="8" wght="-4.6013469732606218" />
        <Con id="46" src="1" tgt="7" wght="2.9313750579945053" />
        <Con id="56" src="2" tgt="7" wght="-2.1422648494913421" />
        <Con id="61" src="2" tgt="60" wght="3.1704621854941597" />
        <Con id="66" src="0" tgt="65" wght="0.64900873913511448" />
        <Con id="67" src="65" tgt="8" wght="2.6357689943584397" />
        <Con id="72" src="6" tgt="60" wght="5" />
        <Con id="79" src="3" tgt="60" wght="-3.0379627031366319" />
      </Connections>
    </Network>
    <Network id="8788" birthGen="219" fitness="0.47946047782897949">
      <Nodes>
        <Node type="bias" id="0" />
        <Node type="in" id="1" />
        <Node type="in" id="2" />
        <Node type="in" id="3" />
        <Node type="in" id="4" />
        <Node type="in" id="5" />
        <Node type="in" id="6" />
        <Node type="out" id="7" />
        <Node type="out" id="8" />
        <Node type="out" id="9" />
        <Node type="hid" id="60" />
        <Node type="hid" id="65" />
      </Nodes>
      <Connections>
        <Con id="37" src="5" tgt="7" wght="-0.984687084124393" />
        <Con id="43" src="3" tgt="8" wght="-4.5857834358059089" />
        <Con id="46" src="1" tgt="7" wght="2.9076336064244725" />
        <Con id="56" src="2" tgt="7" wght="-2.1440034010318127" />
        <Con id="61" src="2" tgt="60" wght="3.1530645153210051" />
        <Con id="66" src="0" tgt="65" wght="0.64900873913511448" />
        <Con id="67" src="65" tgt="8" wght="2.6370857372435896" />
        <Con id="72" src="6" tgt="60" wght="5" />
        <Con id="79" src="3" tgt="60" wght="-3.0379627031366319" />
      </Connections>
    </Network>
    <Network id="8789" birthGen="219" fitness="0.26508650779724119">
      <Nodes>
        <Node type="bias" id="0" />
        <Node type="in" id="1" />
        <Node type="in" id="2" />
        <Node type="in" id="3" />
        <Node type="in" id="4" />
        <Node type="in" id="5" />
        <Node type="in" id="6" />
        <Node type="out" id="7" />
        <Node type="out" id="8" />
        <Node type="out" id="9" />
        <Node type="hid" id="60" />
        <Node type="hid" id="65" />
      </Nodes>
      <Connections>
        <Con id="37" src="5" tgt="7" wght="-0.061133789852392595" />
        <Con id="43" src="3" tgt="8" wght="-4.6013469732606218" />
        <Con id="46" src="1" tgt="7" wght="2.9313750579945053" />
        <Con id="56" src="2" tgt="7" wght="-2.1440034010318127" />
        <Con id="61" src="2" tgt="60" wght="3.1530645153210051" />
        <Con id="66" src="0" tgt="65" wght="0.64900873913511448" />
        <Con id="67" src="65" tgt="8" wght="2.6357689943584397" />
        <Con id="72" src="6" tgt="60" wght="4.3630521946109528" />
        <Con id="79" src="3" tgt="60" wght="-3.0379627031366319" />
      </Connections>
    </Network>
    <Network id="8790" birthGen="219" fitness="0.54755439758300783">
      <Nodes>
        <Node type="bias" id="0" />
        <Node type="in" id="1" />
        <Node type="in" id="2" />
        <Node type="in" id="3" />
        <Node type="in" id="4" />
        <Node type="in" id="5" />
        <Node type="in" id="6" />
        <Node type="out" id="7" />
        <Node type="out" id="8" />
        <Node type="out" id="9" />
        <Node type="hid" id="60" />
        <Node type="hid" id="65" />
      </Nodes>
      <Connections>
        <Con id="37" src="5" tgt="7" wght="-1.2746801274578654" />
        <Con id="43" src="3" tgt="8" wght="-4.615765665239782" />
        <Con id="46" src="1" tgt="7" wght="2.9313750579945053" />
        <Con id="56" src="2" tgt="7" wght="-3.3345676723789386" />
        <Con id="61" src="2" tgt="60" wght="1.9210580515438112" />
        <Con id="66" src="0" tgt="65" wght="2.7121061092150756" />
        <Con id="67" src="65" tgt="8" wght="3.1865238487136569" />
        <Con id="72" src="6" tgt="60" wght="0.94067861453704049" />
        <Con id="79" src="3" tgt="60" wght="-3.7206245334123267" />
      </Connections>
    </Network>
    <Network id="8791" birthGen="219" fitness="0.46668496131896975">
      <Nodes>
        <Node type="bias" id="0" />
        <Node type="in" id="1" />
        <Node type="in" id="2" />
        <Node type="in" id="3" />
        <Node type="in" id="4" />
        <Node type="in" id="5" />
        <Node type="in" id="6" />
        <Node type="out" id="7" />
        <Node type="out" id="8" />
        <Node type="out" id="9" />
        <Node type="hid" id="60" />
        <Node type="hid" id="65" />
      </Nodes>
      <Connections>
        <Con id="37" src="5" tgt="7" wght="-1.2746801274578654" />
        <Con id="43" src="3" tgt="8" wght="-4.615765665239782" />
        <Con id="46" src="1" tgt="7" wght="2.9313750579945053" />
        <Con id="56" src="2" tgt="7" wght="-3.3345676723789386" />
        <Con id="61" src="2" tgt="60" wght="2.0802099782545409" />
        <Con id="66" src="0" tgt="65" wght="2.7121061092150756" />
        <Con id="67" src="65" tgt="8" wght="3.1865238487136569" />
        <Con id="72" src="6" tgt="60" wght="2.45731584361525" />
        <Con id="79" src="3" tgt="60" wght="-3.7206245334123267" />
      </Connections>
    </Network>
    <Network id="8792" birthGen="219" fitness="0.44335651397705078">
      <Nodes>
        <Node type="bias" id="0" />
        <Node type="in" id="1" />
        <Node type="in" id="2" />
        <Node type="in" id="3" />
        <Node type="in" id="4" />
        <Node type="in" id="5" />
        <Node type="in" id="6" />
        <Node type="out" id="7" />
        <Node type="out" id="8" />
        <Node type="out" id="9" />
        <Node type="hid" id="60" />
        <Node type="hid" id="65" />
      </Nodes>
      <Connections>
        <Con id="37" src="5" tgt="7" wght="-1.2746801274578654" />
        <Con id="43" src="3" tgt="8" wght="-4.615765665239782" />
        <Con id="46" src="1" tgt="7" wght="2.9313750579945053" />
        <Con id="56" src="2" tgt="7" wght="-3.3216394147553587" />
        <Con id="61" src="2" tgt="60" wght="1.9210580515438112" />
        <Con id="66" src="0" tgt="65" wght="2.7121061092150756" />
        <Con id="67" src="65" tgt="8" wght="3.2088873525837815" />
        <Con id="72" src="6" tgt="60" wght="2.4749750493313374" />
        <Con id="79" src="3" tgt="60" wght="-3.7206245334123267" />
      </Connections>
    </Network>
    <Network id="8793" birthGen="219" fitness="0.46835131645202638">
      <Nodes>
        <Node type="bias" id="0" />
        <Node type="in" id="1" />
        <Node type="in" id="2" />
        <Node type="in" id="3" />
        <Node type="in" id="4" />
        <Node type="in" id="5" />
        <Node type="in" id="6" />
        <Node type="out" id="7" />
        <Node type="out" id="8" />
        <Node type="out" id="9" />
        <Node type="hid" id="60" />
        <Node type="hid" id="65" />
      </Nodes>
      <Connections>
        <Con id="37" src="5" tgt="7" wght="-1.2746801274578654" />
        <Con id="43" src="3" tgt="8" wght="-4.615765665239782" />
        <Con id="46" src="1" tgt="7" wght="2.9313750579945053" />
        <Con id="56" src="2" tgt="7" wght="-3.3345676723789386" />
        <Con id="61" src="2" tgt="60" wght="1.9210580515438112" />
        <Con id="66" src="0" tgt="65" wght="2.7121061092150756" />
        <Con id="67" src="65" tgt="8" wght="3.1865238487136569" />
        <Con id="72" src="6" tgt="60" wght="2.4749750493313374" />
        <Con id="79" src="3" tgt="60" wght="-3.4991546720339342" />
      </Connections>
    </Network>
    <Network id="8794" birthGen="219" fitness="0.88212013244628906">
      <Nodes>
        <Node type="bias" id="0" />
        <Node type="in" id="1" />
        <Node type="in" id="2" />
        <Node type="in" id="3" />
        <Node type="in" id="4" />
        <Node type="in" id="5" />
        <Node type="in" id="6" />
        <Node type="out" id="7" />
        <Node type="out" id="8" />
        <Node type="out" id="9" />
        <Node type="hid" id="60" />
        <Node type="hid" id="65" />
      </Nodes>
      <Connections>
        <Con id="37" src="5" tgt="7" wght="-1.2746801274578654" />
        <Con id="43" src="3" tgt="8" wght="-5" />
        <Con id="46" src="1" tgt="7" wght="2.9313750579945053" />
        <Con id="56" src="2" tgt="7" wght="-3.3345676723789386" />
        <Con id="61" src="2" tgt="60" wght="1.9924761034510341" />
        <Con id="66" src="0" tgt="65" wght="2.9689050436222835" />
        <Con id="67" src="65" tgt="8" wght="3.0736244638750931" />
        <Con id="72" src="6" tgt="60" wght="2.4749750493313374" />
        <Con id="79" src="3" tgt="60" wght="-3.7206245334123267" />
      </Connections>
    </Network>
    <Network id="8795" birthGen="219" fitness="0.91150465011596682">
      <Nodes>
        <Node type="bias" id="0" />
        <Node type="in" id="1" />
        <Node type="in" id="2" />
        <Node type="in" id="3" />
        <Node type="in" id="4" />
        <Node type="in" id="5" />
        <Node type="in" id="6" />
        <Node type="out" id="7" />
        <Node type="out" id="8" />
        <Node type="out" id="9" />
        <Node type="hid" id="60" />
        <Node type="hid" id="65" />
      </Nodes>
      <Connections>
        <Con id="37" src="5" tgt="7" wght="-1.2746801274578654" />
        <Con id="43" src="3" tgt="8" wght="-5" />
        <Con id="46" src="1" tgt="7" wght="2.9313750579945053" />
        <Con id="56" src="2" tgt="7" wght="-3.3345676723789386" />
        <Con id="61" src="2" tgt="60" wght="1.9924761034510341" />
        <Con id="66" src="0" tgt="65" wght="2.7208174830680218" />
        <Con id="67" src="65" tgt="8" wght="3.1865238487136569" />
        <Con id="72" src="6" tgt="60" wght="2.4749750493313374" />
        <Con id="79" src="3" tgt="60" wght="-3.7206245334123267" />
      </Connections>
    </Network>
    <Network id="8796" birthGen="219" fitness="0.19865505695343016">
      <Nodes>
        <Node type="bias" id="0" />
        <Node type="in" id="1" />
        <Node type="in" id="2" />
        <Node type="in" id="3" />
        <Node type="in" id="4" />
        <Node type="in" id="5" />
        <Node type="in" id="6" />
        <Node type="out" id="7" />
        <Node type="out" id="8" />
        <Node type="out" id="9" />
        <Node type="hid" id="60" />
        <Node type="hid" id="65" />
      </Nodes>
      <Connections>
        <Con id="37" src="5" tgt="7" wght="1.5673305674088571" />
        <Con id="43" src="3" tgt="8" wght="-5" />
        <Con id="46" src="1" tgt="7" wght="2.9313750579945053" />
        <Con id="56" src="2" tgt="7" wght="-3.3345676723789386" />
        <Con id="61" src="2" tgt="60" wght="1.9924761034510341" />
        <Con id="66" src="0" tgt="65" wght="2.7121061092150756" />
        <Con id="67" src="65" tgt="8" wght="3.1865238487136569" />
        <Con id="72" src="6" tgt="60" wght="2.4749750493313374" />
        <Con id="79" src="3" tgt="60" wght="-3.0605535595414408" />
      </Connections>
    </Network>
    <Network id="8797" birthGen="219" fitness="0.80606431961059566">
      <Nodes>
        <Node type="bias" id="0" />
        <Node type="in" id="1" />
        <Node type="in" id="2" />
        <Node type="in" id="3" />
        <Node type="in" id="4" />
        <Node type="in" id="5" />
        <Node type="in" id="6" />
        <Node type="out" id="7" />
        <Node type="out" id="8" />
        <Node type="out" id="9" />
        <Node type="hid" id="60" />
        <Node type="hid" id="65" />
      </Nodes>
      <Connections>
        <Con id="37" src="5" tgt="7" wght="-1.2746801274578654" />
        <Con id="43" src="3" tgt="8" wght="-5" />
        <Con id="46" src="1" tgt="7" wght="2.9313750579945053" />
        <Con id="56" src="2" tgt="7" wght="-3.3345676723789386" />
        <Con id="61" src="2" tgt="60" wght="1.9924761034510341" />
        <Con id="66" src="0" tgt="65" wght="2.7121061092150756" />
        <Con id="67" src="65" tgt="8" wght="2.46123509406829" />
        <Con id="72" src="6" tgt="60" wght="2.4749750493313374" />
        <Con id="79" src="3" tgt="60" wght="-3.7206245334123267" />
      </Connections>
    </Network>
    <Network id="8798" birthGen="219" fitness="0.66900687217712407">
      <Nodes>
        <Node type="bias" id="0" />
        <Node type="in" id="1" />
        <Node type="in" id="2" />
        <Node type="in" id="3" />
        <Node type="in" id="4" />
        <Node type="in" id="5" />
        <Node type="in" id="6" />
        <Node type="out" id="7" />
        <Node type="out" id="8" />
        <Node type="out" id="9" />
        <Node type="hid" id="60" />
        <Node type="hid" id="65" />
      </Nodes>
      <Connections>
        <Con id="37" src="5" tgt="7" wght="-1.2786790390696903" />
        <Con id="43" src="3" tgt="8" wght="-4.7349521862357582" />
        <Con id="46" src="1" tgt="7" wght="2.90236510500572" />
        <Con id="56" src="2" tgt="7" wght="-3.3636622498993138" />
        <Con id="61" src="2" tgt="60" wght="1.9696799786421986" />
        <Con id="66" src="0" tgt="65" wght="2.6907015715605378" />
        <Con id="67" src="65" tgt="8" wght="3.1981266596133242" />
        <Con id="72" src="6" tgt="60" wght="2.8772643378537848" />
        <Con id="79" src="3" tgt="60" wght="-3.7206245334123267" />
      </Connections>
    </Network>
    <Network id="8799" birthGen="219" fitness="0.88605680465698244">
      <Nodes>
        <Node type="bias" id="0" />
        <Node type="in" id="1" />
        <Node type="in" id="2" />
        <Node type="in" id="3" />
        <Node type="in" id="4" />
        <Node type="in" id="5" />
        <Node type="in" id="6" />
        <Node type="out" id="7" />
        <Node type="out" id="8" />
        <Node type="out" id="9" />
        <Node type="hid" id="60" />
        <Node type="hid" id="65" />
      </Nodes>
      <Connections>
        <Con id="37" src="5" tgt="7" wght="-1.2746801274578654" />
        <Con id="43" src="3" tgt="8" wght="-4.7349521862357582" />
        <Con id="46" src="1" tgt="7" wght="2.9313750579945053" />
        <Con id="56" src="2" tgt="7" wght="-4.19009010138676" />
        <Con id="61" src="2" tgt="60" wght="1.9696799786421986" />
        <Con id="66" src="0" tgt="65" wght="2.7147640044004655" />
        <Con id="67" src="65" tgt="8" wght="3.1981266596133242" />
        <Con id="72" src="6" tgt="60" wght="2.8772643378537848" />
        <Con id="79" src="3" tgt="60" wght="-3.7206245334123267" />
      </Connections>
    </Network>
    <Network id="8800" birthGen="219" fitness="0.74979271888732912">
      <Nodes>
        <Node type="bias" id="0" />
        <Node type="in" id="1" />
        <Node type="in" id="2" />
        <Node type="in" id="3" />
        <Node type="in" id="4" />
        <Node type="in" id="5" />
        <Node type="in" id="6" />
        <Node type="out" id="7" />
        <Node type="out" id="8" />
        <Node type="out" id="9" />
        <Node type="hid" id="60" />
        <Node type="hid" id="65" />
      </Nodes>
      <Connections>
        <Con id="37" src="5" tgt="7" wght="-1.2746801274578654" />
        <Con id="43" src="3" tgt="8" wght="-4.7349521862357582" />
        <Con id="46" src="1" tgt="7" wght="2.9313750579945053" />
        <Con id="56" src="2" tgt="7" wght="-3.3636622498993138" />
        <Con id="61" src="2" tgt="60" wght="1.9696799786421986" />
        <Con id="66" src="0" tgt="65" wght="2.6730984627322463" />
        <Con id="67" src="65" tgt="8" wght="3.1981266596133242" />
        <Con id="72" src="6" tgt="60" wght="2.8772643378537848" />
        <Con id="79" src="3" tgt="60" wght="-3.7206245334123267" />
      </Connections>
    </Network>
    <Network id="8801" birthGen="219" fitness="0.48623280525207518">
      <Nodes>
        <Node type="bias" id="0" />
        <Node type="in" id="1" />
        <Node type="in" id="2" />
        <Node type="in" id="3" />
        <Node type="in" id="4" />
        <Node type="in" id="5" />
        <Node type="in" id="6" />
        <Node type="out" id="7" />
        <Node type="out" id="8" />
        <Node type="out" id="9" />
        <Node type="hid" id="60" />
        <Node type="hid" id="65" />
      </Nodes>
      <Connections>
        <Con id="37" src="5" tgt="7" wght="-1.2746801274578654" />
        <Con id="43" src="3" tgt="8" wght="-4.7258922774312939" />
        <Con id="46" src="1" tgt="7" wght="2.9470190894633479" />
        <Con id="56" src="2" tgt="7" wght="-3.390513147339838" />
        <Con id="61" src="2" tgt="60" wght="1.9696799786421986" />
        <Con id="66" src="0" tgt="65" wght="2.7147640044004655" />
        <Con id="67" src="65" tgt="8" wght="3.1981266596133242" />
        <Con id="72" src="6" tgt="60" wght="2.8772643378537848" />
        <Con id="79" src="3" tgt="60" wght="-3.7206245334123267" />
      </Connections>
    </Network>
    <Network id="8802" birthGen="219" fitness="0.89355154037475581">
      <Nodes>
        <Node type="bias" id="0" />
        <Node type="in" id="1" />
        <Node type="in" id="2" />
        <Node type="in" id="3" />
        <Node type="in" id="4" />
        <Node type="in" id="5" />
        <Node type="in" id="6" />
        <Node type="out" id="7" />
        <Node type="out" id="8" />
        <Node type="out" id="9" />
        <Node type="hid" id="60" />
        <Node type="hid" id="65" />
      </Nodes>
      <Connections>
        <Con id="37" src="5" tgt="7" wght="-1.2746801274578654" />
        <Con id="43" src="3" tgt="8" wght="-4.7349521862357582" />
        <Con id="46" src="1" tgt="7" wght="2.9313750579945053" />
        <Con id="56" src="2" tgt="7" wght="-3.3636622498993138" />
        <Con id="61" src="2" tgt="60" wght="1.9696799786421986" />
        <Con id="66" src="0" tgt="65" wght="2.7147640044004655" />
        <Con id="67" src="65" tgt="8" wght="3.1981266596133242" />
        <Con id="72" src="6" tgt="60" wght="2.8772643378537848" />
        <Con id="79" src="3" tgt="60" wght="-3.7454678151507736" />
      </Connections>
    </Network>
    <Network id="8803" birthGen="219" fitness="0.19146784543991088">
      <Nodes>
        <Node type="bias" id="0" />
        <Node type="in" id="1" />
        <Node type="in" id="2" />
        <Node type="in" id="3" />
        <Node type="in" id="4" />
        <Node type="in" id="5" />
        <Node type="in" id="6" />
        <Node type="out" id="7" />
        <Node type="out" id="8" />
        <Node type="out" id="9" />
        <Node type="hid" id="60" />
        <Node type="hid" id="65" />
      </Nodes>
      <Connections>
        <Con id="37" src="5" tgt="7" wght="-1.2746801274578654" />
        <Con id="43" src="3" tgt="8" wght="-4.7349521862357582" />
        <Con id="46" src="1" tgt="7" wght="1.3510736731687552" />
        <Con id="56" src="2" tgt="7" wght="-3.3636622498993138" />
        <Con id="61" src="2" tgt="60" wght="1.9696799786421986" />
        <Con id="66" src="0" tgt="65" wght="2.7147640044004655" />
        <Con id="67" src="65" tgt="8" wght="1.6477219194248067" />
        <Con id="72" src="6" tgt="60" wght="2.8772643378537848" />
        <Con id="79" src="3" tgt="60" wght="-1.2396350007434669" />
      </Connections>
    </Network>
    <Network id="8804" birthGen="219" fitness="0.44902758598327636">
      <Nodes>
        <Node type="bias" id="0" />
        <Node type="in" id="1" />
        <Node type="in" id="2" />
        <Node type="in" id="3" />
        <Node type="in" id="4" />
        <Node type="in" id="5" />
        <Node type="in" id="6" />
        <Node type="out" id="7" />
        <Node type="out" id="8" />
        <Node type="out" id="9" />
        <Node type="hid" id="60" />
        <Node type="hid" id="65" />
      </Nodes>
      <Connections>
        <Con id="37" src="5" tgt="7" wght="-1.2746801274578654" />
        <Con id="43" src="3" tgt="8" wght="-4.6336215425185161" />
        <Con id="46" src="1" tgt="7" wght="2.9305328269175046" />
        <Con id="56" src="2" tgt="7" wght="-3.3182016179821887" />
        <Con id="61" src="2" tgt="60" wght="1.9911740458915741" />
        <Con id="66" src="0" tgt="65" wght="2.6926956861423736" />
        <Con id="67" src="65" tgt="8" wght="3.1981266596133242" />
        <Con id="72" src="6" tgt="60" wght="2.8772643378537848" />
        <Con id="79" src="3" tgt="60" wght="-2.5188464750760562" />
      </Connections>
    </Network>
    <Network id="8805" birthGen="219" fitness="0.91154975891113277">
      <Nodes>
        <Node type="bias" id="0" />
        <Node type="in" id="1" />
        <Node type="in" id="2" />
        <Node type="in" id="3" />
        <Node type="in" id="4" />
        <Node type="in" id="5" />
        <Node type="in" id="6" />
        <Node type="out" id="7" />
        <Node type="out" id="8" />
        <Node type="out" id="9" />
        <Node type="hid" id="60" />
        <Node type="hid" id="65" />
      </Nodes>
      <Connections>
        <Con id="37" src="5" tgt="7" wght="-1.2746801274578654" />
        <Con id="43" src="3" tgt="8" wght="-4.6336215425185161" />
        <Con id="46" src="1" tgt="7" wght="2.9305328269175046" />
        <Con id="56" src="2" tgt="7" wght="-3.3182016179821887" />
        <Con id="61" src="2" tgt="60" wght="1.9911740458915741" />
        <Con id="66" src="0" tgt="65" wght="2.6926956861423736" />
        <Con id="67" src="65" tgt="8" wght="1.990600812801909" />
        <Con id="72" src="6" tgt="60" wght="2.5299534442861322" />
        <Con id="79" src="3" tgt="60" wght="-3.7206245334123267" />
      </Connections>
    </Network>
    <Network id="8806" birthGen="219" fitness="0.62372326850891113">
      <Nodes>
        <Node type="bias" id="0" />
        <Node type="in" id="1" />
        <Node type="in" id="2" />
        <Node type="in" id="3" />
        <Node type="in" id="4" />
        <Node type="in" id="5" />
        <Node type="in" id="6" />
        <Node type="out" id="7" />
        <Node type="out" id="8" />
        <Node type="out" id="9" />
        <Node type="hid" id="60" />
        <Node type="hid" id="65" />
      </Nodes>
      <Connections>
        <Con id="37" src="5" tgt="7" wght="-1.2746801274578654" />
        <Con id="43" src="3" tgt="8" wght="-4.658874770481809" />
        <Con id="46" src="1" tgt="7" wght="2.9305328269175046" />
        <Con id="56" src="2" tgt="7" wght="-3.3182016179821887" />
        <Con id="61" src="2" tgt="60" wght="1.9911740458915741" />
        <Con id="66" src="0" tgt="65" wght="2.6926956861423736" />
        <Con id="67" src="65" tgt="8" wght="3.2320081131542753" />
        <Con id="72" src="6" tgt="60" wght="2.8772643378537848" />
        <Con id="79" src="3" tgt="60" wght="-3.7583189196961442" />
      </Connections>
    </Network>
    <Network id="8807" birthGen="219" fitness="0.45085830688476564">
      <Nodes>
        <Node type="bias" id="0" />
        <Node type="in" id="1" />
        <Node type="in" id="2" />
        <Node type="in" id="3" />
        <Node type="in" id="4" />
        <Node type="in" id="5" />
        <Node type="in" id="6" />
        <Node type="out" id="7" />
        <Node type="out" id="8" />
        <Node type="out" id="9" />
        <Node type="hid" id="60" />
        <Node type="hid" id="65" />
      </Nodes>
      <Connections>
        <Con id="37" src="5" tgt="7" wght="-1.2746801274578654" />
        <Con id="43" src="3" tgt="8" wght="-4.6336215425185161" />
        <Con id="46" src="1" tgt="7" wght="2.9305328269175046" />
        <Con id="56" src="2" tgt="7" wght="-3.3182016179821887" />
        <Con id="61" src="2" tgt="60" wght="1.9911740458915741" />
        <Con id="66" src="0" tgt="65" wght="2.6926956861423736" />
        <Con id="67" src="65" tgt="8" wght="3.1981266596133242" />
        <Con id="72" src="6" tgt="60" wght="1.7362765148938637" />
        <Con id="79" src="3" tgt="60" wght="-3.7206245334123267" />
      </Connections>
    </Network>
    <Network id="8808" birthGen="219" fitness="0.46119208335876466">
      <Nodes>
        <Node type="bias" id="0" />
        <Node type="in" id="1" />
        <Node type="in" id="2" />
        <Node type="in" id="3" />
        <Node type="in" id="4" />
        <Node type="in" id="5" />
        <Node type="in" id="6" />
        <Node type="out" id="7" />
        <Node type="out" id="8" />
        <Node type="out" id="9" />
        <Node type="hid" id="60" />
        <Node type="hid" id="65" />
      </Nodes>
      <Connections>
        <Con id="37" src="5" tgt="7" wght="-1.2746801274578654" />
        <Con id="43" src="3" tgt="8" wght="-4.6336215425185161" />
        <Con id="46" src="1" tgt="7" wght="2.9305328269175046" />
        <Con id="56" src="2" tgt="7" wght="-3.3182016179821887" />
        <Con id="61" src="2" tgt="60" wght="1.9911740458915741" />
        <Con id="66" src="0" tgt="65" wght="2.6926956861423736" />
        <Con id="67" src="65" tgt="8" wght="2.9803762978105173" />
        <Con id="72" src="6" tgt="60" wght="5" />
        <Con id="79" src="3" tgt="60" wght="-3.7206245334123267" />
      </Connections>
    </Network>
    <Network id="8809" birthGen="219" fitness="0.58777699470520017">
      <Nodes>
        <Node type="bias" id="0" />
        <Node type="in" id="1" />
        <Node type="in" id="2" />
        <Node type="in" id="3" />
        <Node type="in" id="4" />
        <Node type="in" id="5" />
        <Node type="in" id="6" />
        <Node type="out" id="7" />
        <Node type="out" id="8" />
        <Node type="out" id="9" />
        <Node type="hid" id="60" />
        <Node type="hid" id="65" />
      </Nodes>
      <Connections>
        <Con id="11" src="0" tgt="8" wght="-0.41301799203509948" />
        <Con id="37" src="5" tgt="7" wght="-0.66893626667801032" />
        <Con id="42" src="4" tgt="8" wght="3.6538945819443782" />
        <Con id="43" src="3" tgt="8" wght="-4.7291154743054005" />
        <Con id="46" src="1" tgt="7" wght="4.3243513300743981" />
        <Con id="61" src="2" tgt="60" wght="3.3674230566248298" />
        <Con id="66" src="0" tgt="65" wght="-2.0695625074270922" />
        <Con id="67" src="65" tgt="8" wght="3.5809847456609778" />
        <Con id="68" src="2" tgt="9" wght="-1.6111843718233516" />
      </Connections>
    </Network>
    <Network id="8810" birthGen="219" fitness="0.46627030372619627">
      <Nodes>
        <Node type="bias" id="0" />
        <Node type="in" id="1" />
        <Node type="in" id="2" />
        <Node type="in" id="3" />
        <Node type="in" id="4" />
        <Node type="in" id="5" />
        <Node type="in" id="6" />
        <Node type="out" id="7" />
        <Node type="out" id="8" />
        <Node type="out" id="9" />
        <Node type="hid" id="60" />
        <Node type="hid" id="65" />
      </Nodes>
      <Connections>
        <Con id="11" src="0" tgt="8" wght="-0.41301799203509948" />
        <Con id="37" src="5" tgt="7" wght="-0.66893626667801032" />
        <Con id="42" src="4" tgt="8" wght="3.6538945819443782" />
        <Con id="43" src="3" tgt="8" wght="-4.7291154743054005" />
        <Con id="46" src="1" tgt="7" wght="4.3419759534299374" />
        <Con id="61" src="2" tgt="60" wght="3.2396529497260311" />
        <Con id="66" src="0" tgt="65" wght="-2.0595679356526504" />
        <Con id="67" src="65" tgt="8" wght="3.2973759971339103" />
        <Con id="68" src="2" tgt="9" wght="-1.6413703514263034" />
      </Connections>
    </Network>
    <Network id="8811" birthGen="219" fitness="0.70091862678527828">
      <Nodes>
        <Node type="bias" id="0" />
        <Node type="in" id="1" />
        <Node type="in" id="2" />
        <Node type="in" id="3" />
        <Node type="in" id="4" />
        <Node type="in" id="5" />
        <Node type="in" id="6" />
        <Node type="out" id="7" />
        <Node type="out" id="8" />
        <Node type="out" id="9" />
        <Node type="hid" id="60" />
        <Node type="hid" id="65" />
      </Nodes>
      <Connections>
        <Con id="11" src="0" tgt="8" wght="-0.41301799203509948" />
        <Con id="37" src="5" tgt="7" wght="-0.87599009883055212" />
        <Con id="42" src="4" tgt="8" wght="3.6538945819443782" />
        <Con id="43" src="3" tgt="8" wght="-4.7291154743054005" />
        <Con id="46" src="1" tgt="7" wght="2.3886524983382809" />
        <Con id="61" src="2" tgt="60" wght="3.3674230566248298" />
        <Con id="66" src="0" tgt="65" wght="-2.0595679356526504" />
        <Con id="67" src="65" tgt="8" wght="3.0481436845667775" />
      </Connections>
    </Network>
    <Network id="8812" birthGen="219" fitness="0.62522244453430176">
      <Nodes>
        <Node type="bias" id="0" />
        <Node type="in" id="1" />
        <Node type="in" id="2" />
        <Node type="in" id="3" />
        <Node type="in" id="4" />
        <Node type="in" id="5" />
        <Node type="in" id="6" />
        <Node type="out" id="7" />
        <Node type="out" id="8" />
        <Node type="out" id="9" />
        <Node type="hid" id="60" />
        <Node type="hid" id="65" />
      </Nodes>
      <Connections>
        <Con id="11" src="0" tgt="8" wght="-0.41301799203509948" />
        <Con id="37" src="5" tgt="7" wght="-0.87599009883055212" />
        <Con id="42" src="4" tgt="8" wght="3.678124005166401" />
        <Con id="43" src="3" tgt="8" wght="-5" />
        <Con id="46" src="1" tgt="7" wght="3.78916957746861" />
        <Con id="61" src="2" tgt="60" wght="3.3674230566248298" />
        <Con id="66" src="0" tgt="65" wght="-2.0595679356526504" />
        <Con id="67" src="65" tgt="8" wght="3.0481436845667775" />
      </Connections>
    </Network>
    <Network id="8813" birthGen="219" fitness="0.093415170907974243">
      <Nodes>
        <Node type="bias" id="0" />
        <Node type="in" id="1" />
        <Node type="in" id="2" />
        <Node type="in" id="3" />
        <Node type="in" id="4" />
        <Node type="in" id="5" />
        <Node type="in" id="6" />
        <Node type="out" id="7" />
        <Node type="out" id="8" />
        <Node type="out" id="9" />
        <Node type="hid" id="60" />
        <Node type="hid" id="65" />
      </Nodes>
      <Connections>
        <Con id="37" src="5" tgt="7" wght="0.94470111092020548" />
        <Con id="43" src="3" tgt="8" wght="-4.36122166599739" />
        <Con id="46" src="1" tgt="7" wght="4.4477723732388554" />
        <Con id="62" src="60" tgt="8" wght="2.8635040547731951" />
        <Con id="66" src="0" tgt="65" wght="0.10998196528904658" />
        <Con id="67" src="65" tgt="8" wght="3.7310653561622469" />
        <Con id="72" src="6" tgt="60" wght="4.2302762957084781" />
      </Connections>
    </Network>
    <Network id="8814" birthGen="219" fitness="0.34668769836425783">
      <Nodes>
        <Node type="bias" id="0" />
        <Node type="in" id="1" />
        <Node type="in" id="2" />
        <Node type="in" id="3" />
        <Node type="in" id="4" />
        <Node type="in" id="5" />
        <Node type="in" id="6" />
        <Node type="out" id="7" />
        <Node type="out" id="8" />
        <Node type="out" id="9" />
        <Node type="hid" id="60" />
        <Node type="hid" id="65" />
      </Nodes>
      <Connections>
        <Con id="37" src="5" tgt="7" wght="-1.3817136575922004" />
        <Con id="43" src="3" tgt="8" wght="-3.0869571066427826" />
        <Con id="46" src="1" tgt="7" wght="5" />
        <Con id="62" src="60" tgt="8" wght="2.8635040547731951" />
        <Con id="66" src="0" tgt="65" wght="1.2188988855746816" />
        <Con id="67" src="65" tgt="8" wght="2.6283889463315804" />
        <Con id="72" src="6" tgt="60" wght="4.2302762957084781" />
      </Connections>
    </Network>
    <Network id="8815" birthGen="219" fitness="0.8884790420532227">
      <Nodes>
        <Node type="bias" id="0" />
        <Node type="in" id="1" />
        <Node type="in" id="2" />
        <Node type="in" id="3" />
        <Node type="in" id="4" />
        <Node type="in" id="5" />
        <Node type="in" id="6" />
        <Node type="out" id="7" />
        <Node type="out" id="8" />
        <Node type="out" id="9" />
        <Node type="hid" id="60" />
        <Node type="hid" id="65" />
      </Nodes>
      <Connections>
        <Con id="37" src="5" tgt="7" wght="-1.3817136575922004" />
        <Con id="43" src="3" tgt="8" wght="-4.36122166599739" />
        <Con id="46" src="1" tgt="7" wght="4.4477723732388554" />
        <Con id="62" src="60" tgt="8" wght="2.8635040547731951" />
        <Con id="66" src="0" tgt="65" wght="1.2188988855746816" />
        <Con id="67" src="65" tgt="8" wght="2.6283889463315804" />
        <Con id="72" src="6" tgt="60" wght="4.2302762957084781" />
      </Connections>
    </Network>
    <Network id="8816" birthGen="219" fitness="0.4468048572540283">
      <Nodes>
        <Node type="bias" id="0" />
        <Node type="in" id="1" />
        <Node type="in" id="2" />
        <Node type="in" id="3" />
        <Node type="in" id="4" />
        <Node type="in" id="5" />
        <Node type="in" id="6" />
        <Node type="out" id="7" />
        <Node type="out" id="8" />
        <Node type="out" id="9" />
        <Node type="hid" id="60" />
        <Node type="hid" id="65" />
      </Nodes>
      <Connections>
        <Con id="37" src="5" tgt="7" wght="-1.3817136575922004" />
        <Con id="43" src="3" tgt="8" wght="-4.36122166599739" />
        <Con id="46" src="1" tgt="7" wght="4.4477723732388554" />
        <Con id="62" src="60" tgt="8" wght="2.8635040547731951" />
        <Con id="66" src="0" tgt="65" wght="1.2188988855746816" />
        <Con id="67" src="65" tgt="8" wght="2.6283889463315804" />
        <Con id="72" src="6" tgt="60" wght="4.2302762957084781" />
      </Connections>
    </Network>
    <Network id="8817" birthGen="219" fitness="0.58195581436157229">
      <Nodes>
        <Node type="bias" id="0" />
        <Node type="in" id="1" />
        <Node type="in" id="2" />
        <Node type="in" id="3" />
        <Node type="in" id="4" />
        <Node type="in" id="5" />
        <Node type="in" id="6" />
        <Node type="out" id="7" />
        <Node type="out" id="8" />
        <Node type="out" id="9" />
        <Node type="hid" id="60" />
        <Node type="hid" id="65" />
      </Nodes>
      <Connections>
        <Con id="37" src="5" tgt="7" wght="-2.5447524969554123" />
        <Con id="43" src="3" tgt="8" wght="-4.1911978344745853" />
        <Con id="46" src="1" tgt="7" wght="5" />
        <Con id="62" src="60" tgt="8" wght="2.813737338151487" />
        <Con id="66" src="0" tgt="65" wght="1.2188988855746816" />
        <Con id="67" src="65" tgt="8" wght="1.0843179142126953" />
        <Con id="72" src="6" tgt="60" wght="5" />
      </Connections>
    </Network>
    <Network id="8818" birthGen="219" fitness="0.9151666641235352">
      <Nodes>
        <Node type="bias" id="0" />
        <Node type="in" id="1" />
        <Node type="in" id="2" />
        <Node type="in" id="3" />
        <Node type="in" id="4" />
        <Node type="in" id="5" />
        <Node type="in" id="6" />
        <Node type="out" id="7" />
        <Node type="out" id="8" />
        <Node type="out" id="9" />
        <Node type="hid" id="60" />
        <Node type="hid" id="65" />
      </Nodes>
      <Connections>
        <Con id="37" src="5" tgt="7" wght="-2.2267286316875876" />
        <Con id="43" src="3" tgt="8" wght="-4.4033390618587456" />
        <Con id="46" src="1" tgt="7" wght="5" />
        <Con id="62" src="60" tgt="8" wght="2.4087874643686455" />
        <Con id="66" src="0" tgt="65" wght="2.8605134749116452" />
        <Con id="67" src="65" tgt="8" wght="1.5452858711639139" />
        <Con id="72" src="6" tgt="60" wght="3.1922863580005458" />
      </Connections>
    </Network>
    <Network id="8819" birthGen="219" fitness="0.70815310478210447">
      <Nodes>
        <Node type="bias" id="0" />
        <Node type="in" id="1" />
        <Node type="in" id="2" />
        <Node type="in" id="3" />
        <Node type="in" id="4" />
        <Node type="in" id="5" />
        <Node type="in" id="6" />
        <Node type="out" id="7" />
        <Node type="out" id="8" />
        <Node type="out" id="9" />
        <Node type="hid" id="60" />
        <Node type="hid" id="65" />
      </Nodes>
      <Connections>
        <Con id="37" src="5" tgt="7" wght="-2.5447524969554123" />
        <Con id="43" src="3" tgt="8" wght="-4.3353539243454708" />
        <Con id="46" src="1" tgt="7" wght="4.4420810736177661" />
        <Con id="62" src="60" tgt="8" wght="4.04228488065226" />
        <Con id="66" src="0" tgt="65" wght="2.758188026876399" />
        <Con id="67" src="65" tgt="8" wght="1.0231143393574724" />
        <Con id="72" src="6" tgt="60" wght="5" />
      </Connections>
    </Network>
    <Network id="8820" birthGen="219" fitness="0.71459679603576665">
      <Nodes>
        <Node type="bias" id="0" />
        <Node type="in" id="1" />
        <Node type="in" id="2" />
        <Node type="in" id="3" />
        <Node type="in" id="4" />
        <Node type="in" id="5" />
        <Node type="in" id="6" />
        <Node type="out" id="7" />
        <Node type="out" id="8" />
        <Node type="out" id="9" />
        <Node type="hid" id="60" />
        <Node type="hid" id="65" />
      </Nodes>
      <Connections>
        <Con id="37" src="5" tgt="7" wght="-1.9224505948116237" />
        <Con id="43" src="3" tgt="8" wght="-4.3353539243454708" />
        <Con id="46" src="1" tgt="7" wght="4.4420810736177661" />
        <Con id="62" src="60" tgt="8" wght="4.04228488065226" />
        <Con id="66" src="0" tgt="65" wght="1.2188988855746816" />
        <Con id="67" src="65" tgt="8" wght="1.0843179142126953" />
        <Con id="72" src="6" tgt="60" wght="4.2302762957084781" />
      </Connections>
    </Network>
    <Network id="8821" birthGen="219" fitness="0.10690827369689941">
      <Nodes>
        <Node type="bias" id="0" />
        <Node type="in" id="1" />
        <Node type="in" id="2" />
        <Node type="in" id="3" />
        <Node type="in" id="4" />
        <Node type="in" id="5" />
        <Node type="in" id="6" />
        <Node type="out" id="7" />
        <Node type="out" id="8" />
        <Node type="out" id="9" />
        <Node type="hid" id="60" />
        <Node type="hid" id="65" />
      </Nodes>
      <Connections>
        <Con id="37" src="5" tgt="7" wght="-2.5447524969554123" />
        <Con id="43" src="3" tgt="8" wght="-4.3353539243454708" />
        <Con id="46" src="1" tgt="7" wght="5" />
        <Con id="56" src="2" tgt="7" wght="4.4081595493480563" />
        <Con id="62" src="60" tgt="8" wght="2.813737338151487" />
        <Con id="66" src="0" tgt="65" wght="1.2188988855746816" />
        <Con id="67" src="65" tgt="8" wght="-1.1208844231441617" />
        <Con id="72" src="6" tgt="60" wght="5" />
      </Connections>
    </Network>
  </Networks>
</Root>