<?xml version="1.0" encoding="utf-8"?>
<Root>
  <ActivationFunctions>
    <Fn id="0" name="SteepenedSigmoid" prob="1" />
  </ActivationFunctions>
  <Networks>
    <Network id="8981" birthGen="222" fitness="27.247247695922852">
      <Nodes>
        <Node type="bias" id="0" />
        <Node type="in" id="1" />
        <Node type="in" id="2" />
        <Node type="in" id="3" />
        <Node type="in" id="4" />
        <Node type="in" id="5" />
        <Node type="in" id="6" />
        <Node type="out" id="7" />
        <Node type="out" id="8" />
        <Node type="out" id="9" />
        <Node type="hid" id="61" />
        <Node type="hid" id="72" />
      </Nodes>
      <Connections>
        <Con id="14" src="1" tgt="8" wght="4.8178570411635606" />
        <Con id="31" src="5" tgt="7" wght="-3.0540204689695707" />
        <Con id="40" src="3" tgt="7" wght="0.21455274072772001" />
        <Con id="48" src="1" tgt="7" wght="5" />
        <Con id="62" src="4" tgt="61" wght="3.2757212594151497" />
        <Con id="63" src="61" tgt="8" wght="-0.7490919369132778" />
        <Con id="65" src="61" tgt="9" wght="3.6872913795155067" />
        <Con id="73" src="4" tgt="72" wght="4.0588147802476655" />
        <Con id="74" src="72" tgt="9" wght="4.6785845148716447" />
      </Connections>
    </Network>
    <Network id="9031" birthGen="224" fitness="29.273586273193359">
      <Nodes>
        <Node type="bias" id="0" />
        <Node type="in" id="1" />
        <Node type="in" id="2" />
        <Node type="in" id="3" />
        <Node type="in" id="4" />
        <Node type="in" id="5" />
        <Node type="in" id="6" />
        <Node type="out" id="7" />
        <Node type="out" id="8" />
        <Node type="out" id="9" />
        <Node type="hid" id="61" />
        <Node type="hid" id="72" />
      </Nodes>
      <Connections>
        <Con id="14" src="1" tgt="8" wght="4.8178570411635606" />
        <Con id="31" src="5" tgt="7" wght="-3.0540204689695707" />
        <Con id="40" src="3" tgt="7" wght="0.3637512956743591" />
        <Con id="48" src="1" tgt="7" wght="4.8464042554584363" />
        <Con id="62" src="4" tgt="61" wght="3.2757212594151497" />
        <Con id="63" src="61" tgt="8" wght="-0.7490919369132778" />
        <Con id="65" src="61" tgt="9" wght="3.6872913795155067" />
        <Con id="73" src="4" tgt="72" wght="2.6705747295072797" />
        <Con id="74" src="72" tgt="9" wght="4.6785845148716447" />
      </Connections>
    </Network>
    <Network id="8954" birthGen="222" fitness="26.214553833007813">
      <Nodes>
        <Node type="bias" id="0" />
        <Node type="in" id="1" />
        <Node type="in" id="2" />
        <Node type="in" id="3" />
        <Node type="in" id="4" />
        <Node type="in" id="5" />
        <Node type="in" id="6" />
        <Node type="out" id="7" />
        <Node type="out" id="8" />
        <Node type="out" id="9" />
        <Node type="hid" id="61" />
      </Nodes>
      <Connections>
        <Con id="14" src="1" tgt="8" wght="3.7948730419015448" />
        <Con id="31" src="5" tgt="7" wght="-3.130928950140234" />
        <Con id="40" src="3" tgt="7" wght="0.050327476662656634" />
        <Con id="47" src="4" tgt="7" wght="-0.67268783692270517" />
        <Con id="48" src="1" tgt="7" wght="5" />
        <Con id="62" src="4" tgt="61" wght="0.74674208734320846" />
        <Con id="63" src="61" tgt="8" wght="-0.74960269390368894" />
        <Con id="64" src="4" tgt="9" wght="2.6436549786572581" />
        <Con id="65" src="61" tgt="9" wght="2.627908238790805" />
      </Connections>
    </Network>
    <Network id="9037" birthGen="224" fitness="25.175317764282227">
      <Nodes>
        <Node type="bias" id="0" />
        <Node type="in" id="1" />
        <Node type="in" id="2" />
        <Node type="in" id="3" />
        <Node type="in" id="4" />
        <Node type="in" id="5" />
        <Node type="in" id="6" />
        <Node type="out" id="7" />
        <Node type="out" id="8" />
        <Node type="out" id="9" />
        <Node type="hid" id="61" />
      </Nodes>
      <Connections>
        <Con id="14" src="1" tgt="8" wght="3.7955720326671365" />
        <Con id="31" src="5" tgt="7" wght="-3.130928950140234" />
        <Con id="40" src="3" tgt="7" wght="0.050327476662656634" />
        <Con id="47" src="4" tgt="7" wght="-0.67134396131504415" />
        <Con id="48" src="1" tgt="7" wght="5" />
        <Con id="62" src="4" tgt="61" wght="0.74674208734320846" />
        <Con id="63" src="61" tgt="8" wght="-0.74960269390368894" />
        <Con id="64" src="4" tgt="9" wght="2.6436549786572581" />
        <Con id="65" src="61" tgt="9" wght="2.627908238790805" />
      </Connections>
    </Network>
    <Network id="9065" birthGen="224" fitness="26.204570770263672">
      <Nodes>
        <Node type="bias" id="0" />
        <Node type="in" id="1" />
        <Node type="in" id="2" />
        <Node type="in" id="3" />
        <Node type="in" id="4" />
        <Node type="in" id="5" />
        <Node type="in" id="6" />
        <Node type="out" id="7" />
        <Node type="out" id="8" />
        <Node type="out" id="9" />
        <Node type="hid" id="61" />
      </Nodes>
      <Connections>
        <Con id="14" src="1" tgt="8" wght="3.2385276670766894" />
        <Con id="31" src="5" tgt="7" wght="-3.0491637404017418" />
        <Con id="40" src="3" tgt="7" wght="-0.19945439490759378" />
        <Con id="47" src="4" tgt="7" wght="-0.15934478436936528" />
        <Con id="48" src="1" tgt="7" wght="4.6605224890564179" />
        <Con id="62" src="4" tgt="61" wght="0.74492150511602406" />
        <Con id="63" src="61" tgt="8" wght="-0.74702871611835187" />
        <Con id="64" src="4" tgt="9" wght="2.6698428629600013" />
        <Con id="65" src="61" tgt="9" wght="1.9307113091686328" />
        <Con id="70" src="3" tgt="9" wght="-2.2153668898562997" />
      </Connections>
    </Network>
    <Network id="9063" birthGen="224" fitness="26.204380035400391">
      <Nodes>
        <Node type="bias" id="0" />
        <Node type="in" id="1" />
        <Node type="in" id="2" />
        <Node type="in" id="3" />
        <Node type="in" id="4" />
        <Node type="in" id="5" />
        <Node type="in" id="6" />
        <Node type="out" id="7" />
        <Node type="out" id="8" />
        <Node type="out" id="9" />
        <Node type="hid" id="61" />
      </Nodes>
      <Connections>
        <Con id="14" src="1" tgt="8" wght="3.2385276670766894" />
        <Con id="31" src="5" tgt="7" wght="-3.0491637404017418" />
        <Con id="40" src="3" tgt="7" wght="-0.19945439490759378" />
        <Con id="47" src="4" tgt="7" wght="-0.15934478436936528" />
        <Con id="48" src="1" tgt="7" wght="4.6605224890564179" />
        <Con id="62" src="4" tgt="61" wght="0.74492150511602406" />
        <Con id="63" src="61" tgt="8" wght="-0.73885305862968109" />
        <Con id="64" src="4" tgt="9" wght="2.6781480292159707" />
        <Con id="65" src="61" tgt="9" wght="1.9307113091686328" />
        <Con id="70" src="3" tgt="9" wght="-2.2153668898562997" />
      </Connections>
    </Network>
    <Network id="9061" birthGen="224" fitness="26.189119338989258">
      <Nodes>
        <Node type="bias" id="0" />
        <Node type="in" id="1" />
        <Node type="in" id="2" />
        <Node type="in" id="3" />
        <Node type="in" id="4" />
        <Node type="in" id="5" />
        <Node type="in" id="6" />
        <Node type="out" id="7" />
        <Node type="out" id="8" />
        <Node type="out" id="9" />
        <Node type="hid" id="61" />
      </Nodes>
      <Connections>
        <Con id="14" src="1" tgt="8" wght="3.2385276670766894" />
        <Con id="31" src="5" tgt="7" wght="-3.0451358197559739" />
        <Con id="40" src="3" tgt="7" wght="-0.19945439490759378" />
        <Con id="47" src="4" tgt="7" wght="-0.69149568619598023" />
        <Con id="48" src="1" tgt="7" wght="4.6781182652918067" />
        <Con id="62" src="4" tgt="61" wght="0.74492150511602406" />
        <Con id="63" src="61" tgt="8" wght="-0.73885305862968109" />
        <Con id="64" src="4" tgt="9" wght="2.6705747295072797" />
        <Con id="65" src="61" tgt="9" wght="1.9307113091686328" />
        <Con id="70" src="3" tgt="9" wght="-2.18700240176633" />
      </Connections>
    </Network>
    <Network id="9050" birthGen="224" fitness="27.125648498535156">
      <Nodes>
        <Node type="bias" id="0" />
        <Node type="in" id="1" />
        <Node type="in" id="2" />
        <Node type="in" id="3" />
        <Node type="in" id="4" />
        <Node type="in" id="5" />
        <Node type="in" id="6" />
        <Node type="out" id="7" />
        <Node type="out" id="8" />
        <Node type="out" id="9" />
        <Node type="hid" id="61" />
      </Nodes>
      <Connections>
        <Con id="14" src="1" tgt="8" wght="3.4191995907018571" />
        <Con id="31" src="5" tgt="7" wght="-3.0286926581085054" />
        <Con id="38" src="6" tgt="7" wght="2.5312745760587014" />
        <Con id="40" src="3" tgt="7" wght="-0.21964952387019415" />
        <Con id="47" src="4" tgt="7" wght="-0.056301205727055326" />
        <Con id="48" src="1" tgt="7" wght="4.29554413746513" />
        <Con id="62" src="4" tgt="61" wght="2.0705489302054048" />
        <Con id="63" src="61" tgt="8" wght="-0.71792283630614062" />
        <Con id="64" src="4" tgt="9" wght="2.6772365829821849" />
        <Con id="65" src="61" tgt="9" wght="2.4610485180917627" />
      </Connections>
    </Network>
    <Network id="9040" birthGen="224" fitness="26.125434875488281">
      <Nodes>
        <Node type="bias" id="0" />
        <Node type="in" id="1" />
        <Node type="in" id="2" />
        <Node type="in" id="3" />
        <Node type="in" id="4" />
        <Node type="in" id="5" />
        <Node type="in" id="6" />
        <Node type="out" id="7" />
        <Node type="out" id="8" />
        <Node type="out" id="9" />
        <Node type="hid" id="61" />
      </Nodes>
      <Connections>
        <Con id="14" src="1" tgt="8" wght="3.4053206675580645" />
        <Con id="31" src="5" tgt="7" wght="-3.0423261927117049" />
        <Con id="38" src="6" tgt="7" wght="2.5526721299910649" />
        <Con id="40" src="3" tgt="7" wght="-0.21964952387019415" />
        <Con id="47" src="4" tgt="7" wght="-0.056301205727055326" />
        <Con id="48" src="1" tgt="7" wght="4.2813985437587245" />
        <Con id="62" src="4" tgt="61" wght="2.0705489302054048" />
        <Con id="63" src="61" tgt="8" wght="-0.73720852830323547" />
        <Con id="64" src="4" tgt="9" wght="2.6620865397726003" />
        <Con id="65" src="61" tgt="9" wght="2.4612138486129509" />
      </Connections>
    </Network>
    <Network id="8381" birthGen="207" fitness="27.201084136962891">
      <Nodes>
        <Node type="bias" id="0" />
        <Node type="in" id="1" />
        <Node type="in" id="2" />
        <Node type="in" id="3" />
        <Node type="in" id="4" />
        <Node type="in" id="5" />
        <Node type="in" id="6" />
        <Node type="out" id="7" />
        <Node type="out" id="8" />
        <Node type="out" id="9" />
        <Node type="hid" id="61" />
      </Nodes>
      <Connections>
        <Con id="14" src="1" tgt="8" wght="2.7704248194914012" />
        <Con id="31" src="5" tgt="7" wght="-3.0186013145464736" />
        <Con id="40" src="3" tgt="7" wght="0.33611399256796048" />
        <Con id="48" src="1" tgt="7" wght="4.4928059274423644" />
        <Con id="62" src="4" tgt="61" wght="0.42694137897342443" />
        <Con id="63" src="61" tgt="8" wght="-0.7567164320728309" />
        <Con id="64" src="4" tgt="9" wght="2.6705747295072797" />
        <Con id="65" src="61" tgt="9" wght="1.9699756810639901" />
      </Connections>
    </Network>
    <Network id="9069" birthGen="225" fitness="27.191461563110352">
      <Nodes>
        <Node type="bias" id="0" />
        <Node type="in" id="1" />
        <Node type="in" id="2" />
        <Node type="in" id="3" />
        <Node type="in" id="4" />
        <Node type="in" id="5" />
        <Node type="in" id="6" />
        <Node type="out" id="7" />
        <Node type="out" id="8" />
        <Node type="out" id="9" />
        <Node type="hid" id="61" />
        <Node type="hid" id="72" />
      </Nodes>
      <Connections>
        <Con id="14" src="1" tgt="8" wght="4.8178570411635606" />
        <Con id="31" src="5" tgt="7" wght="-3.0813426010734148" />
        <Con id="40" src="3" tgt="7" wght="0.21455274072772001" />
        <Con id="48" src="1" tgt="7" wght="5" />
        <Con id="62" src="4" tgt="61" wght="3.2757212594151497" />
        <Con id="63" src="61" tgt="8" wght="-0.7490919369132778" />
        <Con id="65" src="61" tgt="9" wght="3.6872913795155067" />
        <Con id="73" src="4" tgt="72" wght="4.0588147802476655" />
        <Con id="74" src="72" tgt="9" wght="4.6785845148716447" />
      </Connections>
    </Network>
    <Network id="9070" birthGen="225" fitness="2.2826888561248779">
      <Nodes>
        <Node type="bias" id="0" />
        <Node type="in" id="1" />
        <Node type="in" id="2" />
        <Node type="in" id="3" />
        <Node type="in" id="4" />
        <Node type="in" id="5" />
        <Node type="in" id="6" />
        <Node type="out" id="7" />
        <Node type="out" id="8" />
        <Node type="out" id="9" />
        <Node type="hid" id="61" />
        <Node type="hid" id="72" />
      </Nodes>
      <Connections>
        <Con id="14" src="1" tgt="8" wght="1.5411915071308613" />
        <Con id="31" src="5" tgt="7" wght="-3.0540204689695707" />
        <Con id="40" src="3" tgt="7" wght="0.21455274072772001" />
        <Con id="48" src="1" tgt="7" wght="5" />
        <Con id="62" src="4" tgt="61" wght="3.2757212594151497" />
        <Con id="63" src="61" tgt="8" wght="0.50444906111806631" />
        <Con id="65" src="61" tgt="9" wght="3.6872913795155067" />
        <Con id="73" src="4" tgt="72" wght="2.5608670199289918" />
        <Con id="74" src="72" tgt="9" wght="4.6785845148716447" />
      </Connections>
    </Network>
    <Network id="9071" birthGen="225" fitness="7.2894835472106934">
      <Nodes>
        <Node type="bias" id="0" />
        <Node type="in" id="1" />
        <Node type="in" id="2" />
        <Node type="in" id="3" />
        <Node type="in" id="4" />
        <Node type="in" id="5" />
        <Node type="in" id="6" />
        <Node type="out" id="7" />
        <Node type="out" id="8" />
        <Node type="out" id="9" />
        <Node type="hid" id="61" />
        <Node type="hid" id="72" />
      </Nodes>
      <Connections>
        <Con id="14" src="1" tgt="8" wght="4.8178570411635606" />
        <Con id="31" src="5" tgt="7" wght="-3.0540204689695707" />
        <Con id="40" src="3" tgt="7" wght="0.21455274072772001" />
        <Con id="48" src="1" tgt="7" wght="5" />
        <Con id="62" src="4" tgt="61" wght="3.2757212594151497" />
        <Con id="63" src="61" tgt="8" wght="0.11016623096852951" />
        <Con id="65" src="61" tgt="9" wght="2.7309857888998526" />
        <Con id="73" src="4" tgt="72" wght="4.0588147802476655" />
        <Con id="74" src="72" tgt="9" wght="4.6785845148716447" />
      </Connections>
    </Network>
    <Network id="9072" birthGen="225" fitness="30.263662338256836">
      <Nodes>
        <Node type="bias" id="0" />
        <Node type="in" id="1" />
        <Node type="in" id="2" />
        <Node type="in" id="3" />
        <Node type="in" id="4" />
        <Node type="in" id="5" />
        <Node type="in" id="6" />
        <Node type="out" id="7" />
        <Node type="out" id="8" />
        <Node type="out" id="9" />
        <Node type="hid" id="61" />
        <Node type="hid" id="72" />
      </Nodes>
      <Connections>
        <Con id="14" src="1" tgt="8" wght="4.8178570411635606" />
        <Con id="31" src="5" tgt="7" wght="-3.0540204689695707" />
        <Con id="40" src="3" tgt="7" wght="0.23436006628978534" />
        <Con id="48" src="1" tgt="7" wght="5" />
        <Con id="62" src="4" tgt="61" wght="3.2757212594151497" />
        <Con id="63" src="61" tgt="8" wght="-0.7490919369132778" />
        <Con id="65" src="61" tgt="9" wght="3.6751832294924243" />
        <Con id="73" src="4" tgt="72" wght="4.0691774165562355" />
        <Con id="74" src="72" tgt="9" wght="4.6785845148716447" />
      </Connections>
    </Network>
    <Network id="9073" birthGen="225" fitness="28.205831527709961">
      <Nodes>
        <Node type="bias" id="0" />
        <Node type="in" id="1" />
        <Node type="in" id="2" />
        <Node type="in" id="3" />
        <Node type="in" id="4" />
        <Node type="in" id="5" />
        <Node type="in" id="6" />
        <Node type="out" id="7" />
        <Node type="out" id="8" />
        <Node type="out" id="9" />
        <Node type="hid" id="61" />
        <Node type="hid" id="72" />
      </Nodes>
      <Connections>
        <Con id="14" src="1" tgt="8" wght="4.809322274004737" />
        <Con id="31" src="5" tgt="7" wght="-3.0540204689695707" />
        <Con id="40" src="3" tgt="7" wght="0.21455274072772001" />
        <Con id="48" src="1" tgt="7" wght="5" />
        <Con id="62" src="4" tgt="61" wght="3.2757212594151497" />
        <Con id="63" src="61" tgt="8" wght="-0.7490919369132778" />
        <Con id="65" src="61" tgt="9" wght="3.6872913795155067" />
        <Con id="73" src="4" tgt="72" wght="4.0588147802476655" />
        <Con id="74" src="72" tgt="9" wght="4.6548618044299959" />
      </Connections>
    </Network>
    <Network id="9074" birthGen="225" fitness="29.272542953491211">
      <Nodes>
        <Node type="bias" id="0" />
        <Node type="in" id="1" />
        <Node type="in" id="2" />
        <Node type="in" id="3" />
        <Node type="in" id="4" />
        <Node type="in" id="5" />
        <Node type="in" id="6" />
        <Node type="out" id="7" />
        <Node type="out" id="8" />
        <Node type="out" id="9" />
        <Node type="hid" id="61" />
        <Node type="hid" id="72" />
      </Nodes>
      <Connections>
        <Con id="14" src="1" tgt="8" wght="4.8178570411635606" />
        <Con id="31" src="5" tgt="7" wght="-3.0540204689695707" />
        <Con id="40" src="3" tgt="7" wght="0.3637512956743591" />
        <Con id="48" src="1" tgt="7" wght="4.8464042554584363" />
        <Con id="62" src="4" tgt="61" wght="3.2757212594151497" />
        <Con id="63" src="61" tgt="8" wght="-0.7490919369132778" />
        <Con id="65" src="61" tgt="9" wght="3.6872913795155067" />
        <Con id="73" src="4" tgt="72" wght="0.94593432569851887" />
        <Con id="74" src="72" tgt="9" wght="4.6785845148716447" />
      </Connections>
    </Network>
    <Network id="9075" birthGen="225" fitness="0.047226089984178543">
      <Nodes>
        <Node type="bias" id="0" />
        <Node type="in" id="1" />
        <Node type="in" id="2" />
        <Node type="in" id="3" />
        <Node type="in" id="4" />
        <Node type="in" id="5" />
        <Node type="in" id="6" />
        <Node type="out" id="7" />
        <Node type="out" id="8" />
        <Node type="out" id="9" />
        <Node type="hid" id="61" />
        <Node type="hid" id="72" />
      </Nodes>
      <Connections>
        <Con id="14" src="1" tgt="8" wght="4.8178570411635606" />
        <Con id="31" src="5" tgt="7" wght="-3.0540204689695707" />
        <Con id="40" src="3" tgt="7" wght="2.5059836411343155" />
        <Con id="48" src="1" tgt="7" wght="5" />
        <Con id="62" src="4" tgt="61" wght="3.2757212594151497" />
        <Con id="63" src="61" tgt="8" wght="-0.7490919369132778" />
        <Con id="65" src="61" tgt="9" wght="3.6872913795155067" />
        <Con id="73" src="4" tgt="72" wght="2.6705747295072797" />
        <Con id="74" src="72" tgt="9" wght="4.6785845148716447" />
      </Connections>
    </Network>
    <Network id="9076" birthGen="225" fitness="28.216419219970703">
      <Nodes>
        <Node type="bias" id="0" />
        <Node type="in" id="1" />
        <Node type="in" id="2" />
        <Node type="in" id="3" />
        <Node type="in" id="4" />
        <Node type="in" id="5" />
        <Node type="in" id="6" />
        <Node type="out" id="7" />
        <Node type="out" id="8" />
        <Node type="out" id="9" />
        <Node type="hid" id="61" />
        <Node type="hid" id="72" />
      </Nodes>
      <Connections>
        <Con id="14" src="1" tgt="8" wght="4.8210294044617159" />
        <Con id="31" src="5" tgt="7" wght="-3.0540204689695707" />
        <Con id="40" src="3" tgt="7" wght="0.3536821674071714" />
        <Con id="48" src="1" tgt="7" wght="4.8464042554584363" />
        <Con id="62" src="4" tgt="61" wght="3.2757212594151497" />
        <Con id="63" src="61" tgt="8" wght="-0.7490919369132778" />
        <Con id="65" src="61" tgt="9" wght="3.6872913795155067" />
        <Con id="73" src="4" tgt="72" wght="2.6705747295072797" />
        <Con id="74" src="72" tgt="9" wght="4.6785845148716447" />
      </Connections>
    </Network>
    <Network id="9077" birthGen="225" fitness="26.1846981048584">
      <Nodes>
        <Node type="bias" id="0" />
        <Node type="in" id="1" />
        <Node type="in" id="2" />
        <Node type="in" id="3" />
        <Node type="in" id="4" />
        <Node type="in" id="5" />
        <Node type="in" id="6" />
        <Node type="out" id="7" />
        <Node type="out" id="8" />
        <Node type="out" id="9" />
        <Node type="hid" id="61" />
        <Node type="hid" id="72" />
      </Nodes>
      <Connections>
        <Con id="14" src="1" tgt="8" wght="4.8178570411635606" />
        <Con id="31" src="5" tgt="7" wght="-3.0540204689695707" />
        <Con id="40" src="3" tgt="7" wght="0.3637512956743591" />
        <Con id="48" src="1" tgt="7" wght="4.8464042554584363" />
        <Con id="62" src="4" tgt="61" wght="3.2757212594151497" />
        <Con id="63" src="61" tgt="8" wght="-0.7490919369132778" />
        <Con id="65" src="61" tgt="9" wght="3.6872913795155067" />
        <Con id="73" src="4" tgt="72" wght="2.662165847235197" />
        <Con id="74" src="72" tgt="9" wght="4.6659194624722957" />
      </Connections>
    </Network>
    <Network id="9078" birthGen="225" fitness="29.261306762695313">
      <Nodes>
        <Node type="bias" id="0" />
        <Node type="in" id="1" />
        <Node type="in" id="2" />
        <Node type="in" id="3" />
        <Node type="in" id="4" />
        <Node type="in" id="5" />
        <Node type="in" id="6" />
        <Node type="out" id="7" />
        <Node type="out" id="8" />
        <Node type="out" id="9" />
        <Node type="hid" id="61" />
        <Node type="hid" id="72" />
      </Nodes>
      <Connections>
        <Con id="14" src="1" tgt="8" wght="4.82014610710679" />
        <Con id="31" src="5" tgt="7" wght="-3.054610585867978" />
        <Con id="40" src="3" tgt="7" wght="0.3637512956743591" />
        <Con id="48" src="1" tgt="7" wght="4.8464042554584363" />
        <Con id="62" src="4" tgt="61" wght="3.2757212594151497" />
        <Con id="63" src="61" tgt="8" wght="-0.7490919369132778" />
        <Con id="65" src="61" tgt="9" wght="3.6872913795155067" />
        <Con id="73" src="4" tgt="72" wght="2.6705747295072797" />
        <Con id="74" src="72" tgt="9" wght="4.6785845148716447" />
      </Connections>
    </Network>
    <Network id="9079" birthGen="225" fitness="4.2896318435668945">
      <Nodes>
        <Node type="bias" id="0" />
        <Node type="in" id="1" />
        <Node type="in" id="2" />
        <Node type="in" id="3" />
        <Node type="in" id="4" />
        <Node type="in" id="5" />
        <Node type="in" id="6" />
        <Node type="out" id="7" />
        <Node type="out" id="8" />
        <Node type="out" id="9" />
        <Node type="hid" id="61" />
        <Node type="hid" id="72" />
      </Nodes>
      <Connections>
        <Con id="14" src="1" tgt="8" wght="3.5704889507012929" />
        <Con id="31" src="5" tgt="7" wght="-3.0451358197559739" />
        <Con id="40" src="3" tgt="7" wght="0.35822807587005195" />
        <Con id="48" src="1" tgt="7" wght="4.4928059274423644" />
        <Con id="62" src="4" tgt="61" wght="-1.243348078590029" />
        <Con id="63" src="61" tgt="8" wght="-0.7490919369132778" />
        <Con id="65" src="61" tgt="9" wght="1.9644765045314314" />
        <Con id="73" src="4" tgt="72" wght="2.6705747295072797" />
        <Con id="74" src="72" tgt="9" wght="5" />
      </Connections>
    </Network>
    <Network id="9080" birthGen="225" fitness="29.266330718994141">
      <Nodes>
        <Node type="bias" id="0" />
        <Node type="in" id="1" />
        <Node type="in" id="2" />
        <Node type="in" id="3" />
        <Node type="in" id="4" />
        <Node type="in" id="5" />
        <Node type="in" id="6" />
        <Node type="out" id="7" />
        <Node type="out" id="8" />
        <Node type="out" id="9" />
        <Node type="hid" id="61" />
        <Node type="hid" id="72" />
      </Nodes>
      <Connections>
        <Con id="14" src="1" tgt="8" wght="3.5704889507012929" />
        <Con id="31" src="5" tgt="7" wght="-3.0451358197559739" />
        <Con id="40" src="3" tgt="7" wght="0.35822807587005195" />
        <Con id="48" src="1" tgt="7" wght="4.4928059274423644" />
        <Con id="62" src="4" tgt="61" wght="0.42179754553355142" />
        <Con id="63" src="61" tgt="8" wght="-0.7490919369132778" />
        <Con id="65" src="61" tgt="9" wght="1.9644765045314314" />
        <Con id="73" src="4" tgt="72" wght="2.6705747295072797" />
        <Con id="74" src="72" tgt="9" wght="4.9846048917851178" />
      </Connections>
    </Network>
    <Network id="9081" birthGen="225" fitness="29.261362075805664">
      <Nodes>
        <Node type="bias" id="0" />
        <Node type="in" id="1" />
        <Node type="in" id="2" />
        <Node type="in" id="3" />
        <Node type="in" id="4" />
        <Node type="in" id="5" />
        <Node type="in" id="6" />
        <Node type="out" id="7" />
        <Node type="out" id="8" />
        <Node type="out" id="9" />
        <Node type="hid" id="61" />
        <Node type="hid" id="72" />
      </Nodes>
      <Connections>
        <Con id="14" src="1" tgt="8" wght="3.5704889507012929" />
        <Con id="31" src="5" tgt="7" wght="-3.0451358197559739" />
        <Con id="40" src="3" tgt="7" wght="0.35822807587005195" />
        <Con id="48" src="1" tgt="7" wght="4.4928059274423644" />
        <Con id="62" src="4" tgt="61" wght="0.42179754553355142" />
        <Con id="63" src="61" tgt="8" wght="-0.71293370674612366" />
        <Con id="65" src="61" tgt="9" wght="1.9644765045314314" />
        <Con id="73" src="4" tgt="72" wght="2.6705747295072797" />
        <Con id="74" src="72" tgt="9" wght="5" />
      </Connections>
    </Network>
    <Network id="9082" birthGen="225" fitness="26.174690246582031">
      <Nodes>
        <Node type="bias" id="0" />
        <Node type="in" id="1" />
        <Node type="in" id="2" />
        <Node type="in" id="3" />
        <Node type="in" id="4" />
        <Node type="in" id="5" />
        <Node type="in" id="6" />
        <Node type="out" id="7" />
        <Node type="out" id="8" />
        <Node type="out" id="9" />
        <Node type="hid" id="61" />
        <Node type="hid" id="72" />
      </Nodes>
      <Connections>
        <Con id="14" src="1" tgt="8" wght="3.5704889507012929" />
        <Con id="31" src="5" tgt="7" wght="-3.0451358197559739" />
        <Con id="40" src="3" tgt="7" wght="0.35822807587005195" />
        <Con id="48" src="1" tgt="7" wght="4.48601610842533" />
        <Con id="62" src="4" tgt="61" wght="0.42179754553355142" />
        <Con id="63" src="61" tgt="8" wght="-0.7490919369132778" />
        <Con id="65" src="61" tgt="9" wght="1.9644765045314314" />
        <Con id="73" src="4" tgt="72" wght="2.6917272808324446" />
        <Con id="74" src="72" tgt="9" wght="5" />
      </Connections>
    </Network>
    <Network id="9083" birthGen="225" fitness="26.209558486938477">
      <Nodes>
        <Node type="bias" id="0" />
        <Node type="in" id="1" />
        <Node type="in" id="2" />
        <Node type="in" id="3" />
        <Node type="in" id="4" />
        <Node type="in" id="5" />
        <Node type="in" id="6" />
        <Node type="out" id="7" />
        <Node type="out" id="8" />
        <Node type="out" id="9" />
        <Node type="hid" id="61" />
        <Node type="hid" id="72" />
      </Nodes>
      <Connections>
        <Con id="14" src="1" tgt="8" wght="3.2113081896364859" />
        <Con id="31" src="5" tgt="7" wght="-3.0451358197559739" />
        <Con id="40" src="3" tgt="7" wght="0.60687776376841607" />
        <Con id="48" src="1" tgt="7" wght="4.4928059274423644" />
        <Con id="62" src="4" tgt="61" wght="0.42179754553355142" />
        <Con id="63" src="61" tgt="8" wght="-0.7490919369132778" />
        <Con id="65" src="61" tgt="9" wght="1.7418894474598452" />
        <Con id="73" src="4" tgt="72" wght="2.6705747295072797" />
        <Con id="74" src="72" tgt="9" wght="5" />
      </Connections>
    </Network>
    <Network id="9084" birthGen="225" fitness="27.206638336181641">
      <Nodes>
        <Node type="bias" id="0" />
        <Node type="in" id="1" />
        <Node type="in" id="2" />
        <Node type="in" id="3" />
        <Node type="in" id="4" />
        <Node type="in" id="5" />
        <Node type="in" id="6" />
        <Node type="out" id="7" />
        <Node type="out" id="8" />
        <Node type="out" id="9" />
        <Node type="hid" id="61" />
        <Node type="hid" id="72" />
      </Nodes>
      <Connections>
        <Con id="14" src="1" tgt="8" wght="3.5704889507012929" />
        <Con id="31" src="5" tgt="7" wght="-3.0451358197559739" />
        <Con id="40" src="3" tgt="7" wght="0.35822807587005195" />
        <Con id="48" src="1" tgt="7" wght="4.4928059274423644" />
        <Con id="62" src="4" tgt="61" wght="0.42179754553355142" />
        <Con id="63" src="61" tgt="8" wght="-0.7490919369132778" />
        <Con id="65" src="61" tgt="9" wght="1.9644765045314314" />
        <Con id="73" src="4" tgt="72" wght="1.9988064761180855" />
        <Con id="74" src="72" tgt="9" wght="5" />
      </Connections>
    </Network>
    <Network id="9085" birthGen="225" fitness="29.257987976074219">
      <Nodes>
        <Node type="bias" id="0" />
        <Node type="in" id="1" />
        <Node type="in" id="2" />
        <Node type="in" id="3" />
        <Node type="in" id="4" />
        <Node type="in" id="5" />
        <Node type="in" id="6" />
        <Node type="out" id="7" />
        <Node type="out" id="8" />
        <Node type="out" id="9" />
        <Node type="hid" id="61" />
        <Node type="hid" id="72" />
      </Nodes>
      <Connections>
        <Con id="14" src="1" tgt="8" wght="3.5704889507012929" />
        <Con id="31" src="5" tgt="7" wght="-3.0451358197559739" />
        <Con id="40" src="3" tgt="7" wght="-0.31216419375549026" />
        <Con id="48" src="1" tgt="7" wght="4.8708990426080705" />
        <Con id="62" src="4" tgt="61" wght="0.42179754553355142" />
        <Con id="63" src="61" tgt="8" wght="-0.7490919369132778" />
        <Con id="65" src="61" tgt="9" wght="1.9644765045314314" />
        <Con id="73" src="4" tgt="72" wght="2.6705747295072797" />
        <Con id="74" src="72" tgt="9" wght="5" />
      </Connections>
    </Network>
    <Network id="9086" birthGen="225" fitness="15.203701972961426">
      <Nodes>
        <Node type="bias" id="0" />
        <Node type="in" id="1" />
        <Node type="in" id="2" />
        <Node type="in" id="3" />
        <Node type="in" id="4" />
        <Node type="in" id="5" />
        <Node type="in" id="6" />
        <Node type="out" id="7" />
        <Node type="out" id="8" />
        <Node type="out" id="9" />
        <Node type="hid" id="61" />
        <Node type="hid" id="72" />
      </Nodes>
      <Connections>
        <Con id="14" src="1" tgt="8" wght="3.5704889507012929" />
        <Con id="31" src="5" tgt="7" wght="-3.01695441126691" />
        <Con id="40" src="3" tgt="7" wght="0.35822807587005195" />
        <Con id="48" src="1" tgt="7" wght="4.8708990426080705" />
        <Con id="62" src="4" tgt="61" wght="0.42179754553355142" />
        <Con id="63" src="61" tgt="8" wght="-0.7490919369132778" />
        <Con id="65" src="61" tgt="9" wght="1.9644765045314314" />
        <Con id="73" src="4" tgt="72" wght="2.6705747295072797" />
        <Con id="74" src="72" tgt="9" wght="5" />
      </Connections>
    </Network>
    <Network id="9087" birthGen="225" fitness="26.190597534179688">
      <Nodes>
        <Node type="bias" id="0" />
        <Node type="in" id="1" />
        <Node type="in" id="2" />
        <Node type="in" id="3" />
        <Node type="in" id="4" />
        <Node type="in" id="5" />
        <Node type="in" id="6" />
        <Node type="out" id="7" />
        <Node type="out" id="8" />
        <Node type="out" id="9" />
        <Node type="hid" id="61" />
        <Node type="hid" id="72" />
      </Nodes>
      <Connections>
        <Con id="14" src="1" tgt="8" wght="3.5704889507012929" />
        <Con id="31" src="5" tgt="7" wght="-3.0451358197559739" />
        <Con id="40" src="3" tgt="7" wght="0.20789475270296354" />
        <Con id="48" src="1" tgt="7" wght="4.8708990426080705" />
        <Con id="62" src="4" tgt="61" wght="0.42179754553355142" />
        <Con id="63" src="61" tgt="8" wght="-0.7490919369132778" />
        <Con id="65" src="61" tgt="9" wght="1.9644765045314314" />
        <Con id="73" src="4" tgt="72" wght="4.17732740447906" />
        <Con id="74" src="72" tgt="9" wght="5" />
      </Connections>
    </Network>
    <Network id="9088" birthGen="225" fitness="29.268966674804688">
      <Nodes>
        <Node type="bias" id="0" />
        <Node type="in" id="1" />
        <Node type="in" id="2" />
        <Node type="in" id="3" />
        <Node type="in" id="4" />
        <Node type="in" id="5" />
        <Node type="in" id="6" />
        <Node type="out" id="7" />
        <Node type="out" id="8" />
        <Node type="out" id="9" />
        <Node type="hid" id="61" />
        <Node type="hid" id="72" />
      </Nodes>
      <Connections>
        <Con id="14" src="1" tgt="8" wght="3.5704889507012929" />
        <Con id="31" src="5" tgt="7" wght="-3.0451358197559739" />
        <Con id="40" src="3" tgt="7" wght="0.35822807587005195" />
        <Con id="48" src="1" tgt="7" wght="4.8708990426080705" />
        <Con id="62" src="4" tgt="61" wght="0.42179754553355142" />
        <Con id="63" src="61" tgt="8" wght="-0.7490919369132778" />
        <Con id="65" src="61" tgt="9" wght="2.4807712887454469" />
        <Con id="73" src="4" tgt="72" wght="2.6705747295072797" />
        <Con id="74" src="72" tgt="9" wght="5" />
      </Connections>
    </Network>
    <Network id="9089" birthGen="225" fitness="25.236412048339844">
      <Nodes>
        <Node type="bias" id="0" />
        <Node type="in" id="1" />
        <Node type="in" id="2" />
        <Node type="in" id="3" />
        <Node type="in" id="4" />
        <Node type="in" id="5" />
        <Node type="in" id="6" />
        <Node type="out" id="7" />
        <Node type="out" id="8" />
        <Node type="out" id="9" />
        <Node type="hid" id="61" />
        <Node type="hid" id="72" />
      </Nodes>
      <Connections>
        <Con id="14" src="1" tgt="8" wght="3.5941774944898568" />
        <Con id="31" src="5" tgt="7" wght="-3.0451358197559739" />
        <Con id="40" src="3" tgt="7" wght="0.35822807587005195" />
        <Con id="48" src="1" tgt="7" wght="4.8708990426080705" />
        <Con id="62" src="4" tgt="61" wght="0.42179754553355142" />
        <Con id="63" src="61" tgt="8" wght="-0.7490919369132778" />
        <Con id="65" src="61" tgt="9" wght="1.9644765045314314" />
        <Con id="73" src="4" tgt="72" wght="2.6705747295072797" />
        <Con id="74" src="72" tgt="9" wght="5" />
      </Connections>
    </Network>
    <Network id="9090" birthGen="225" fitness="29.268610000610352">
      <Nodes>
        <Node type="bias" id="0" />
        <Node type="in" id="1" />
        <Node type="in" id="2" />
        <Node type="in" id="3" />
        <Node type="in" id="4" />
        <Node type="in" id="5" />
        <Node type="in" id="6" />
        <Node type="out" id="7" />
        <Node type="out" id="8" />
        <Node type="out" id="9" />
        <Node type="hid" id="61" />
        <Node type="hid" id="72" />
      </Nodes>
      <Connections>
        <Con id="14" src="1" tgt="8" wght="3.57190495439705" />
        <Con id="31" src="5" tgt="7" wght="-3.0451358197559739" />
        <Con id="40" src="3" tgt="7" wght="0.33383385211906264" />
        <Con id="48" src="1" tgt="7" wght="4.4795053945920715" />
        <Con id="62" src="4" tgt="61" wght="0.42179754553355142" />
        <Con id="63" src="61" tgt="8" wght="-0.72708230203980984" />
        <Con id="65" src="61" tgt="9" wght="1.9644765045314314" />
        <Con id="73" src="4" tgt="72" wght="2.6705747295072797" />
        <Con id="74" src="72" tgt="9" wght="5" />
      </Connections>
    </Network>
    <Network id="9091" birthGen="225" fitness="0.046347174793481827">
      <Nodes>
        <Node type="bias" id="0" />
        <Node type="in" id="1" />
        <Node type="in" id="2" />
        <Node type="in" id="3" />
        <Node type="in" id="4" />
        <Node type="in" id="5" />
        <Node type="in" id="6" />
        <Node type="out" id="7" />
        <Node type="out" id="8" />
        <Node type="out" id="9" />
        <Node type="hid" id="61" />
        <Node type="hid" id="72" />
      </Nodes>
      <Connections>
        <Con id="14" src="1" tgt="8" wght="3.57190495439705" />
        <Con id="31" src="5" tgt="7" wght="-3.0451358197559739" />
        <Con id="40" src="3" tgt="7" wght="1.7768625796297419" />
        <Con id="48" src="1" tgt="7" wght="4.9468182919772534" />
        <Con id="62" src="4" tgt="61" wght="0.42179754553355142" />
        <Con id="63" src="61" tgt="8" wght="-0.72708230203980984" />
        <Con id="65" src="61" tgt="9" wght="1.9644765045314314" />
        <Con id="73" src="4" tgt="72" wght="2.3119830189059969" />
        <Con id="74" src="72" tgt="9" wght="5" />
      </Connections>
    </Network>
    <Network id="9092" birthGen="225" fitness="3.2527282238006592">
      <Nodes>
        <Node type="bias" id="0" />
        <Node type="in" id="1" />
        <Node type="in" id="2" />
        <Node type="in" id="3" />
        <Node type="in" id="4" />
        <Node type="in" id="5" />
        <Node type="in" id="6" />
        <Node type="out" id="7" />
        <Node type="out" id="8" />
        <Node type="out" id="9" />
        <Node type="hid" id="61" />
        <Node type="hid" id="72" />
        <Node type="hid" id="79" />
      </Nodes>
      <Connections>
        <Con id="14" src="1" tgt="8" wght="3.57190495439705" />
        <Con id="31" src="5" tgt="7" wght="-3.0451358197559739" />
        <Con id="40" src="3" tgt="7" wght="0.35041868665734238" />
        <Con id="48" src="1" tgt="7" wght="4.4928059274423644" />
        <Con id="62" src="4" tgt="61" wght="0.42179754553355142" />
        <Con id="65" src="61" tgt="9" wght="1.9644765045314314" />
        <Con id="73" src="4" tgt="72" wght="2.6705747295072797" />
        <Con id="74" src="72" tgt="9" wght="5" />
        <Con id="80" src="61" tgt="79" wght="-0.72708230203980984" />
        <Con id="81" src="79" tgt="8" wght="5" />
      </Connections>
    </Network>
    <Network id="9093" birthGen="225" fitness="28.252799987792969">
      <Nodes>
        <Node type="bias" id="0" />
        <Node type="in" id="1" />
        <Node type="in" id="2" />
        <Node type="in" id="3" />
        <Node type="in" id="4" />
        <Node type="in" id="5" />
        <Node type="in" id="6" />
        <Node type="out" id="7" />
        <Node type="out" id="8" />
        <Node type="out" id="9" />
        <Node type="hid" id="61" />
        <Node type="hid" id="72" />
      </Nodes>
      <Connections>
        <Con id="14" src="1" tgt="8" wght="3.57190495439705" />
        <Con id="31" src="5" tgt="7" wght="-3.0451358197559739" />
        <Con id="40" src="3" tgt="7" wght="0.35041868665734238" />
        <Con id="48" src="1" tgt="7" wght="4.4928059274423644" />
        <Con id="62" src="4" tgt="61" wght="0.42179754553355142" />
        <Con id="63" src="61" tgt="8" wght="-0.72708230203980984" />
        <Con id="65" src="61" tgt="9" wght="1.9644765045314314" />
        <Con id="70" src="3" tgt="9" wght="-1.6256615333259106" />
        <Con id="73" src="4" tgt="72" wght="2.6705747295072797" />
        <Con id="74" src="72" tgt="9" wght="5" />
      </Connections>
    </Network>
    <Network id="9094" birthGen="225" fitness="29.274690628051758">
      <Nodes>
        <Node type="bias" id="0" />
        <Node type="in" id="1" />
        <Node type="in" id="2" />
        <Node type="in" id="3" />
        <Node type="in" id="4" />
        <Node type="in" id="5" />
        <Node type="in" id="6" />
        <Node type="out" id="7" />
        <Node type="out" id="8" />
        <Node type="out" id="9" />
        <Node type="hid" id="61" />
        <Node type="hid" id="72" />
      </Nodes>
      <Connections>
        <Con id="14" src="1" tgt="8" wght="3.57190495439705" />
        <Con id="31" src="5" tgt="7" wght="-3.0451358197559739" />
        <Con id="40" src="3" tgt="7" wght="0.35041868665734238" />
        <Con id="48" src="1" tgt="7" wght="4.4928059274423644" />
        <Con id="62" src="4" tgt="61" wght="0.41573536324631089" />
        <Con id="63" src="61" tgt="8" wght="-0.72708230203980984" />
        <Con id="65" src="61" tgt="9" wght="1.9644765045314314" />
        <Con id="73" src="4" tgt="72" wght="2.68497185994732" />
        <Con id="74" src="72" tgt="9" wght="5" />
      </Connections>
    </Network>
    <Network id="9095" birthGen="225" fitness="25.163444519042969">
      <Nodes>
        <Node type="bias" id="0" />
        <Node type="in" id="1" />
        <Node type="in" id="2" />
        <Node type="in" id="3" />
        <Node type="in" id="4" />
        <Node type="in" id="5" />
        <Node type="in" id="6" />
        <Node type="out" id="7" />
        <Node type="out" id="8" />
        <Node type="out" id="9" />
        <Node type="hid" id="61" />
      </Nodes>
      <Connections>
        <Con id="14" src="1" tgt="8" wght="3.7955720326671365" />
        <Con id="31" src="5" tgt="7" wght="-3.130928950140234" />
        <Con id="40" src="3" tgt="7" wght="0.050139312676444212" />
        <Con id="47" src="4" tgt="7" wght="-0.67134396131504415" />
        <Con id="48" src="1" tgt="7" wght="5" />
        <Con id="62" src="4" tgt="61" wght="0.74674208734320846" />
        <Con id="63" src="61" tgt="8" wght="-0.74960269390368894" />
        <Con id="64" src="4" tgt="9" wght="2.6436549786572581" />
        <Con id="65" src="61" tgt="9" wght="2.627908238790805" />
      </Connections>
    </Network>
    <Network id="9096" birthGen="225" fitness="28.22406005859375">
      <Nodes>
        <Node type="bias" id="0" />
        <Node type="in" id="1" />
        <Node type="in" id="2" />
        <Node type="in" id="3" />
        <Node type="in" id="4" />
        <Node type="in" id="5" />
        <Node type="in" id="6" />
        <Node type="out" id="7" />
        <Node type="out" id="8" />
        <Node type="out" id="9" />
        <Node type="hid" id="61" />
      </Nodes>
      <Connections>
        <Con id="14" src="1" tgt="8" wght="3.7955720326671365" />
        <Con id="31" src="5" tgt="7" wght="-3.130928950140234" />
        <Con id="40" src="3" tgt="7" wght="0.050327476662656634" />
        <Con id="47" src="4" tgt="7" wght="-0.67268783692270517" />
        <Con id="48" src="1" tgt="7" wght="5" />
        <Con id="62" src="4" tgt="61" wght="0.74674208734320846" />
        <Con id="63" src="61" tgt="8" wght="-0.74960269390368894" />
        <Con id="64" src="4" tgt="9" wght="2.6436549786572581" />
        <Con id="65" src="61" tgt="9" wght="2.627908238790805" />
      </Connections>
    </Network>
    <Network id="9097" birthGen="225" fitness="23.151891708374023">
      <Nodes>
        <Node type="bias" id="0" />
        <Node type="in" id="1" />
        <Node type="in" id="2" />
        <Node type="in" id="3" />
        <Node type="in" id="4" />
        <Node type="in" id="5" />
        <Node type="in" id="6" />
        <Node type="out" id="7" />
        <Node type="out" id="8" />
        <Node type="out" id="9" />
        <Node type="hid" id="61" />
      </Nodes>
      <Connections>
        <Con id="14" src="1" tgt="8" wght="3.2385276670766894" />
        <Con id="31" src="5" tgt="7" wght="-3.0491637404017418" />
        <Con id="40" src="3" tgt="7" wght="-0.17349210487965039" />
        <Con id="47" src="4" tgt="7" wght="-0.15934478436936528" />
        <Con id="48" src="1" tgt="7" wght="4.6702557715483195" />
        <Con id="62" src="4" tgt="61" wght="0.74492150511602406" />
        <Con id="63" src="61" tgt="8" wght="-0.73885305862968109" />
        <Con id="64" src="4" tgt="9" wght="2.6781480292159707" />
        <Con id="65" src="61" tgt="9" wght="1.9307113091686328" />
        <Con id="70" src="3" tgt="9" wght="-2.2153668898562997" />
      </Connections>
    </Network>
    <Network id="9098" birthGen="225" fitness="3.1050815582275391">
      <Nodes>
        <Node type="bias" id="0" />
        <Node type="in" id="1" />
        <Node type="in" id="2" />
        <Node type="in" id="3" />
        <Node type="in" id="4" />
        <Node type="in" id="5" />
        <Node type="in" id="6" />
        <Node type="out" id="7" />
        <Node type="out" id="8" />
        <Node type="out" id="9" />
        <Node type="hid" id="61" />
      </Nodes>
      <Connections>
        <Con id="14" src="1" tgt="8" wght="3.5947130831599234" />
        <Con id="31" src="5" tgt="7" wght="-3.0423261927117049" />
        <Con id="38" src="6" tgt="7" wght="2.5526721299910649" />
        <Con id="40" src="3" tgt="7" wght="-0.21964952387019415" />
        <Con id="47" src="4" tgt="7" wght="-0.056301205727055326" />
        <Con id="48" src="1" tgt="7" wght="3.4247909202353926" />
        <Con id="62" src="4" tgt="61" wght="2.0705489302054048" />
        <Con id="63" src="61" tgt="8" wght="-0.82475159516128216" />
        <Con id="64" src="4" tgt="9" wght="2.6620865397726003" />
        <Con id="65" src="61" tgt="9" wght="2.4612138486129509" />
      </Connections>
    </Network>
    <Network id="9099" birthGen="225" fitness="24.107667922973633">
      <Nodes>
        <Node type="bias" id="0" />
        <Node type="in" id="1" />
        <Node type="in" id="2" />
        <Node type="in" id="3" />
        <Node type="in" id="4" />
        <Node type="in" id="5" />
        <Node type="in" id="6" />
        <Node type="out" id="7" />
        <Node type="out" id="8" />
        <Node type="out" id="9" />
        <Node type="hid" id="61" />
      </Nodes>
      <Connections>
        <Con id="14" src="1" tgt="8" wght="3.4053206675580645" />
        <Con id="31" src="5" tgt="7" wght="-3.0423261927117049" />
        <Con id="38" src="6" tgt="7" wght="2.5526721299910649" />
        <Con id="40" src="3" tgt="7" wght="-0.21964952387019415" />
        <Con id="47" src="4" tgt="7" wght="-0.056301205727055326" />
        <Con id="48" src="1" tgt="7" wght="4.2813985437587245" />
        <Con id="62" src="4" tgt="61" wght="2.0705489302054048" />
        <Con id="63" src="61" tgt="8" wght="-0.73720852830323547" />
        <Con id="64" src="4" tgt="9" wght="2.6772365829821849" />
        <Con id="65" src="61" tgt="9" wght="2.4610485180917627" />
      </Connections>
    </Network>
    <Network id="9100" birthGen="225" fitness="24.161739349365234">
      <Nodes>
        <Node type="bias" id="0" />
        <Node type="in" id="1" />
        <Node type="in" id="2" />
        <Node type="in" id="3" />
        <Node type="in" id="4" />
        <Node type="in" id="5" />
        <Node type="in" id="6" />
        <Node type="out" id="7" />
        <Node type="out" id="8" />
        <Node type="out" id="9" />
        <Node type="hid" id="61" />
      </Nodes>
      <Connections>
        <Con id="14" src="1" tgt="8" wght="2.9269494222596104" />
        <Con id="31" src="5" tgt="7" wght="-3.0186013145464736" />
        <Con id="40" src="3" tgt="7" wght="0.34364097824523593" />
        <Con id="48" src="1" tgt="7" wght="4.4928059274423644" />
        <Con id="62" src="4" tgt="61" wght="0.42694137897342443" />
        <Con id="63" src="61" tgt="8" wght="-0.7567164320728309" />
        <Con id="64" src="4" tgt="9" wght="2.6705747295072797" />
        <Con id="65" src="61" tgt="9" wght="1.9699756810639901" />
      </Connections>
    </Network>
    <Network id="9101" birthGen="225" fitness="26.183353424072266">
      <Nodes>
        <Node type="bias" id="0" />
        <Node type="in" id="1" />
        <Node type="in" id="2" />
        <Node type="in" id="3" />
        <Node type="in" id="4" />
        <Node type="in" id="5" />
        <Node type="in" id="6" />
        <Node type="out" id="7" />
        <Node type="out" id="8" />
        <Node type="out" id="9" />
        <Node type="hid" id="61" />
      </Nodes>
      <Connections>
        <Con id="14" src="1" tgt="8" wght="2.7704248194914012" />
        <Con id="31" src="5" tgt="7" wght="-2.8105014238007673" />
        <Con id="40" src="3" tgt="7" wght="0.33611399256796048" />
        <Con id="48" src="1" tgt="7" wght="4.4928059274423644" />
        <Con id="62" src="4" tgt="61" wght="0.42694137897342443" />
        <Con id="63" src="61" tgt="8" wght="-0.7567164320728309" />
        <Con id="64" src="4" tgt="9" wght="2.6705747295072797" />
        <Con id="65" src="61" tgt="9" wght="1.9699756810639901" />
      </Connections>
    </Network>
    <Network id="9102" birthGen="225" fitness="23.146463394165039">
      <Nodes>
        <Node type="bias" id="0" />
        <Node type="in" id="1" />
        <Node type="in" id="2" />
        <Node type="in" id="3" />
        <Node type="in" id="4" />
        <Node type="in" id="5" />
        <Node type="in" id="6" />
        <Node type="out" id="7" />
        <Node type="out" id="8" />
        <Node type="out" id="9" />
        <Node type="hid" id="61" />
      </Nodes>
      <Connections>
        <Con id="14" src="1" tgt="8" wght="2.7704248194914012" />
        <Con id="31" src="5" tgt="7" wght="-3.0186013145464736" />
        <Con id="40" src="3" tgt="7" wght="0.33611399256796048" />
        <Con id="48" src="1" tgt="7" wght="3.7557372875050259" />
        <Con id="62" src="4" tgt="61" wght="0.42694137897342443" />
        <Con id="63" src="61" tgt="8" wght="-0.7567164320728309" />
        <Con id="64" src="4" tgt="9" wght="2.6705747295072797" />
        <Con id="65" src="61" tgt="9" wght="1.9699756810639901" />
      </Connections>
    </Network>
    <Network id="9103" birthGen="225" fitness="29.260757446289063">
      <Nodes>
        <Node type="bias" id="0" />
        <Node type="in" id="1" />
        <Node type="in" id="2" />
        <Node type="in" id="3" />
        <Node type="in" id="4" />
        <Node type="in" id="5" />
        <Node type="in" id="6" />
        <Node type="out" id="7" />
        <Node type="out" id="8" />
        <Node type="out" id="9" />
        <Node type="hid" id="61" />
        <Node type="hid" id="72" />
      </Nodes>
      <Connections>
        <Con id="14" src="1" tgt="8" wght="4.8178570411635606" />
        <Con id="31" src="5" tgt="7" wght="-3.0540204689695707" />
        <Con id="40" src="3" tgt="7" wght="0.3637512956743591" />
        <Con id="48" src="1" tgt="7" wght="4.8464042554584363" />
        <Con id="62" src="4" tgt="61" wght="3.2652029560009788" />
        <Con id="63" src="61" tgt="8" wght="-0.7490919369132778" />
        <Con id="65" src="61" tgt="9" wght="3.6872913795155067" />
        <Con id="73" src="4" tgt="72" wght="2.7122827891214771" />
        <Con id="74" src="72" tgt="9" wght="3.6405763019781037" />
      </Connections>
    </Network>
    <Network id="9104" birthGen="225" fitness="27.199373245239258">
      <Nodes>
        <Node type="bias" id="0" />
        <Node type="in" id="1" />
        <Node type="in" id="2" />
        <Node type="in" id="3" />
        <Node type="in" id="4" />
        <Node type="in" id="5" />
        <Node type="in" id="6" />
        <Node type="out" id="7" />
        <Node type="out" id="8" />
        <Node type="out" id="9" />
        <Node type="hid" id="61" />
        <Node type="hid" id="72" />
      </Nodes>
      <Connections>
        <Con id="14" src="1" tgt="8" wght="4.8178570411635606" />
        <Con id="31" src="5" tgt="7" wght="-3.0540204689695707" />
        <Con id="40" src="3" tgt="7" wght="0.3637512956743591" />
        <Con id="48" src="1" tgt="7" wght="4.8464042554584363" />
        <Con id="62" src="4" tgt="61" wght="2.7550017225885681" />
        <Con id="63" src="61" tgt="8" wght="-0.7490919369132778" />
        <Con id="65" src="61" tgt="9" wght="3.6872913795155067" />
        <Con id="73" src="4" tgt="72" wght="2.6705747295072797" />
        <Con id="74" src="72" tgt="9" wght="3.6405763019781037" />
      </Connections>
    </Network>
    <Network id="9105" birthGen="225" fitness="27.200546264648438">
      <Nodes>
        <Node type="bias" id="0" />
        <Node type="in" id="1" />
        <Node type="in" id="2" />
        <Node type="in" id="3" />
        <Node type="in" id="4" />
        <Node type="in" id="5" />
        <Node type="in" id="6" />
        <Node type="out" id="7" />
        <Node type="out" id="8" />
        <Node type="out" id="9" />
        <Node type="hid" id="61" />
        <Node type="hid" id="72" />
      </Nodes>
      <Connections>
        <Con id="14" src="1" tgt="8" wght="4.83277136357456" />
        <Con id="31" src="5" tgt="7" wght="-3.0540204689695707" />
        <Con id="40" src="3" tgt="7" wght="0.3637512956743591" />
        <Con id="48" src="1" tgt="7" wght="4.8464042554584363" />
        <Con id="62" src="4" tgt="61" wght="3.2757212594151497" />
        <Con id="63" src="61" tgt="8" wght="-0.7490919369132778" />
        <Con id="65" src="61" tgt="9" wght="3.6872913795155067" />
        <Con id="73" src="4" tgt="72" wght="2.6705747295072797" />
        <Con id="74" src="72" tgt="9" wght="3.6428645365771977" />
      </Connections>
    </Network>
    <Network id="9106" birthGen="225" fitness="0.0594635047018528">
      <Nodes>
        <Node type="bias" id="0" />
        <Node type="in" id="1" />
        <Node type="in" id="2" />
        <Node type="in" id="3" />
        <Node type="in" id="4" />
        <Node type="in" id="5" />
        <Node type="in" id="6" />
        <Node type="out" id="7" />
        <Node type="out" id="8" />
        <Node type="out" id="9" />
        <Node type="hid" id="61" />
        <Node type="hid" id="72" />
      </Nodes>
      <Connections>
        <Con id="14" src="1" tgt="8" wght="4.8178570411635606" />
        <Con id="31" src="5" tgt="7" wght="-3.0540204689695707" />
        <Con id="40" src="3" tgt="7" wght="0.649226847178219" />
        <Con id="48" src="1" tgt="7" wght="4.8464042554584363" />
        <Con id="62" src="4" tgt="61" wght="3.2757212594151497" />
        <Con id="63" src="61" tgt="8" wght="-2.2074393001630916" />
        <Con id="65" src="61" tgt="9" wght="3.1883313140596807" />
        <Con id="73" src="4" tgt="72" wght="2.6705747295072797" />
        <Con id="74" src="72" tgt="9" wght="3.6405763019781037" />
      </Connections>
    </Network>
    <Network id="9107" birthGen="225" fitness="30.263956069946289">
      <Nodes>
        <Node type="bias" id="0" />
        <Node type="in" id="1" />
        <Node type="in" id="2" />
        <Node type="in" id="3" />
        <Node type="in" id="4" />
        <Node type="in" id="5" />
        <Node type="in" id="6" />
        <Node type="out" id="7" />
        <Node type="out" id="8" />
        <Node type="out" id="9" />
        <Node type="hid" id="61" />
        <Node type="hid" id="72" />
      </Nodes>
      <Connections>
        <Con id="14" src="1" tgt="8" wght="4.8178570411635606" />
        <Con id="31" src="5" tgt="7" wght="-3.0540204689695707" />
        <Con id="40" src="3" tgt="7" wght="0.3637512956743591" />
        <Con id="48" src="1" tgt="7" wght="4.8464042554584363" />
        <Con id="62" src="4" tgt="61" wght="3.2757212594151497" />
        <Con id="63" src="61" tgt="8" wght="-0.7490919369132778" />
        <Con id="65" src="61" tgt="9" wght="4.2859036264322752" />
        <Con id="73" src="4" tgt="72" wght="2.6705747295072797" />
        <Con id="74" src="72" tgt="9" wght="3.6405763019781037" />
      </Connections>
    </Network>
    <Network id="9108" birthGen="225" fitness="27.18049430847168">
      <Nodes>
        <Node type="bias" id="0" />
        <Node type="in" id="1" />
        <Node type="in" id="2" />
        <Node type="in" id="3" />
        <Node type="in" id="4" />
        <Node type="in" id="5" />
        <Node type="in" id="6" />
        <Node type="out" id="7" />
        <Node type="out" id="8" />
        <Node type="out" id="9" />
        <Node type="hid" id="61" />
        <Node type="hid" id="72" />
      </Nodes>
      <Connections>
        <Con id="14" src="1" tgt="8" wght="4.8178570411635606" />
        <Con id="31" src="5" tgt="7" wght="-3.0540204689695707" />
        <Con id="40" src="3" tgt="7" wght="0.3637512956743591" />
        <Con id="48" src="1" tgt="7" wght="4.8464042554584363" />
        <Con id="62" src="4" tgt="61" wght="3.2757212594151497" />
        <Con id="63" src="61" tgt="8" wght="-0.7490919369132778" />
        <Con id="65" src="61" tgt="9" wght="3.9508687327199081" />
        <Con id="73" src="4" tgt="72" wght="2.6210325523763554" />
        <Con id="74" src="72" tgt="9" wght="3.0046875484915132" />
      </Connections>
    </Network>
  </Networks>
</Root>