<?xml version="1.0" encoding="utf-8"?>
<Root>
  <ActivationFunctions>
    <Fn id="0" name="SteepenedSigmoid" prob="1" />
  </ActivationFunctions>
  <Networks>
    <Network id="2747" birthGen="68" fitness="3.0256023406982422">
      <Nodes>
        <Node type="bias" id="0" />
        <Node type="in" id="1" />
        <Node type="in" id="2" />
        <Node type="in" id="3" />
        <Node type="in" id="4" />
        <Node type="in" id="5" />
        <Node type="in" id="6" />
        <Node type="out" id="7" />
        <Node type="out" id="8" />
        <Node type="out" id="9" />
      </Nodes>
      <Connections>
        <Con id="11" src="0" tgt="8" wght="-4.3124186054231171" />
        <Con id="31" src="0" tgt="7" wght="-3.1364943922260733" />
        <Con id="45" src="3" tgt="7" wght="4.0417807684879117" />
        <Con id="46" src="6" tgt="8" wght="-5" />
      </Connections>
    </Network>
    <Network id="3816" birthGen="95" fitness="2.9959075450897217">
      <Nodes>
        <Node type="bias" id="0" />
        <Node type="in" id="1" />
        <Node type="in" id="2" />
        <Node type="in" id="3" />
        <Node type="in" id="4" />
        <Node type="in" id="5" />
        <Node type="in" id="6" />
        <Node type="out" id="7" />
        <Node type="out" id="8" />
        <Node type="out" id="9" />
      </Nodes>
      <Connections>
        <Con id="11" src="0" tgt="8" wght="-3.4760047895020008" />
        <Con id="31" src="0" tgt="7" wght="-3.1364943922260733" />
        <Con id="45" src="3" tgt="7" wght="4.2450529918136652" />
        <Con id="46" src="6" tgt="8" wght="-4.7844087330623593" />
      </Connections>
    </Network>
    <Network id="3729" birthGen="92" fitness="3.1038360595703125">
      <Nodes>
        <Node type="bias" id="0" />
        <Node type="in" id="1" />
        <Node type="in" id="2" />
        <Node type="in" id="3" />
        <Node type="in" id="4" />
        <Node type="in" id="5" />
        <Node type="in" id="6" />
        <Node type="out" id="7" />
        <Node type="out" id="8" />
        <Node type="out" id="9" />
      </Nodes>
      <Connections>
        <Con id="11" src="0" tgt="8" wght="3.3794930175465741" />
        <Con id="31" src="0" tgt="7" wght="-5" />
        <Con id="35" src="2" tgt="8" wght="0.82916955252598634" />
        <Con id="45" src="3" tgt="7" wght="5" />
        <Con id="46" src="6" tgt="8" wght="-4.9628782943640539" />
      </Connections>
    </Network>
    <Network id="3744" birthGen="93" fitness="2.9763116836547852">
      <Nodes>
        <Node type="bias" id="0" />
        <Node type="in" id="1" />
        <Node type="in" id="2" />
        <Node type="in" id="3" />
        <Node type="in" id="4" />
        <Node type="in" id="5" />
        <Node type="in" id="6" />
        <Node type="out" id="7" />
        <Node type="out" id="8" />
        <Node type="out" id="9" />
      </Nodes>
      <Connections>
        <Con id="11" src="0" tgt="8" wght="4.95770433764599" />
        <Con id="31" src="0" tgt="7" wght="-3.2846918622341295" />
        <Con id="45" src="3" tgt="7" wght="3.572421067078746" />
        <Con id="46" src="6" tgt="8" wght="0.40122735292556538" />
      </Connections>
    </Network>
    <Network id="3712" birthGen="92" fitness="2.9950242042541504">
      <Nodes>
        <Node type="bias" id="0" />
        <Node type="in" id="1" />
        <Node type="in" id="2" />
        <Node type="in" id="3" />
        <Node type="in" id="4" />
        <Node type="in" id="5" />
        <Node type="in" id="6" />
        <Node type="out" id="7" />
        <Node type="out" id="8" />
        <Node type="out" id="9" />
      </Nodes>
      <Connections>
        <Con id="11" src="0" tgt="8" wght="-1.8255725084558292" />
        <Con id="31" src="0" tgt="7" wght="-2.4386891683003595" />
        <Con id="42" src="3" tgt="8" wght="-0.78353231756940089" />
        <Con id="43" src="6" tgt="7" wght="4.4423866923898458" />
        <Con id="45" src="3" tgt="7" wght="3.6308242493464102" />
        <Con id="46" src="6" tgt="8" wght="-4.9866577031947852" />
      </Connections>
    </Network>
    <Network id="3871" birthGen="96" fitness="2.7990543842315674">
      <Nodes>
        <Node type="bias" id="0" />
        <Node type="in" id="1" />
        <Node type="in" id="2" />
        <Node type="in" id="3" />
        <Node type="in" id="4" />
        <Node type="in" id="5" />
        <Node type="in" id="6" />
        <Node type="out" id="7" />
        <Node type="out" id="8" />
        <Node type="out" id="9" />
      </Nodes>
      <Connections>
        <Con id="11" src="0" tgt="8" wght="-1.8255725084558292" />
        <Con id="31" src="0" tgt="7" wght="-2.4321998834597558" />
        <Con id="42" src="3" tgt="8" wght="-0.78353231756940089" />
        <Con id="43" src="6" tgt="7" wght="4.4423866923898458" />
        <Con id="45" src="3" tgt="7" wght="3.6308242493464102" />
        <Con id="46" src="6" tgt="8" wght="-4.9866577031947852" />
      </Connections>
    </Network>
    <Network id="3794" birthGen="94" fitness="2.9069094657897949">
      <Nodes>
        <Node type="bias" id="0" />
        <Node type="in" id="1" />
        <Node type="in" id="2" />
        <Node type="in" id="3" />
        <Node type="in" id="4" />
        <Node type="in" id="5" />
        <Node type="in" id="6" />
        <Node type="out" id="7" />
        <Node type="out" id="8" />
        <Node type="out" id="9" />
      </Nodes>
      <Connections>
        <Con id="11" src="0" tgt="8" wght="-3.11629662742849" />
        <Con id="31" src="0" tgt="7" wght="-1.1524739315259207" />
        <Con id="42" src="3" tgt="8" wght="-1.9282398640341656" />
        <Con id="45" src="3" tgt="7" wght="3.4192912085068086" />
        <Con id="46" src="6" tgt="8" wght="-5" />
      </Connections>
    </Network>
    <Network id="3778" birthGen="94" fitness="2.8973197937011719">
      <Nodes>
        <Node type="bias" id="0" />
        <Node type="in" id="1" />
        <Node type="in" id="2" />
        <Node type="in" id="3" />
        <Node type="in" id="4" />
        <Node type="in" id="5" />
        <Node type="in" id="6" />
        <Node type="out" id="7" />
        <Node type="out" id="8" />
        <Node type="out" id="9" />
      </Nodes>
      <Connections>
        <Con id="11" src="0" tgt="8" wght="-3.0850068325880255" />
        <Con id="31" src="0" tgt="7" wght="-2.3355542176505062" />
        <Con id="42" src="3" tgt="8" wght="-2.6829175017888169" />
        <Con id="45" src="3" tgt="7" wght="4.9376358405519465" />
        <Con id="46" src="6" tgt="8" wght="-5" />
      </Connections>
    </Network>
    <Network id="3674" birthGen="91" fitness="2.8604335784912109">
      <Nodes>
        <Node type="bias" id="0" />
        <Node type="in" id="1" />
        <Node type="in" id="2" />
        <Node type="in" id="3" />
        <Node type="in" id="4" />
        <Node type="in" id="5" />
        <Node type="in" id="6" />
        <Node type="out" id="7" />
        <Node type="out" id="8" />
        <Node type="out" id="9" />
        <Node type="hid" id="47" />
      </Nodes>
      <Connections>
        <Con id="11" src="0" tgt="8" wght="4.9644058091497154" />
        <Con id="31" src="0" tgt="7" wght="-3.2563031165873779" />
        <Con id="45" src="3" tgt="7" wght="3.5635607427025406" />
        <Con id="48" src="6" tgt="47" wght="2.0845530423791758" />
        <Con id="49" src="47" tgt="8" wght="4.147163387405163" />
      </Connections>
    </Network>
    <Network id="3846" birthGen="95" fitness="2.8619537353515625">
      <Nodes>
        <Node type="bias" id="0" />
        <Node type="in" id="1" />
        <Node type="in" id="2" />
        <Node type="in" id="3" />
        <Node type="in" id="4" />
        <Node type="in" id="5" />
        <Node type="in" id="6" />
        <Node type="out" id="7" />
        <Node type="out" id="8" />
        <Node type="out" id="9" />
        <Node type="hid" id="47" />
      </Nodes>
      <Connections>
        <Con id="11" src="0" tgt="8" wght="-0.59820667367399261" />
        <Con id="31" src="0" tgt="7" wght="-3.3342880460905278" />
        <Con id="42" src="3" tgt="8" wght="0.757430561967299" />
        <Con id="45" src="3" tgt="7" wght="3.5871263540859712" />
        <Con id="46" src="6" tgt="8" wght="-2.6748353219605452" />
        <Con id="48" src="6" tgt="47" wght="1.6630800845280538" />
        <Con id="49" src="47" tgt="8" wght="5" />
        <Con id="50" src="0" tgt="9" wght="4.274369491263438" />
      </Connections>
    </Network>
    <Network id="3892" birthGen="97" fitness="2.4388494491577148">
      <Nodes>
        <Node type="bias" id="0" />
        <Node type="in" id="1" />
        <Node type="in" id="2" />
        <Node type="in" id="3" />
        <Node type="in" id="4" />
        <Node type="in" id="5" />
        <Node type="in" id="6" />
        <Node type="out" id="7" />
        <Node type="out" id="8" />
        <Node type="out" id="9" />
      </Nodes>
      <Connections>
        <Con id="11" src="0" tgt="8" wght="-4.3338555286643814" />
        <Con id="31" src="0" tgt="7" wght="-3.1180081627596197" />
        <Con id="45" src="3" tgt="7" wght="4.0417807684879117" />
        <Con id="46" src="6" tgt="8" wght="-5" />
      </Connections>
    </Network>
    <Network id="3893" birthGen="97" fitness="2.2896413803100586">
      <Nodes>
        <Node type="bias" id="0" />
        <Node type="in" id="1" />
        <Node type="in" id="2" />
        <Node type="in" id="3" />
        <Node type="in" id="4" />
        <Node type="in" id="5" />
        <Node type="in" id="6" />
        <Node type="out" id="7" />
        <Node type="out" id="8" />
        <Node type="out" id="9" />
      </Nodes>
      <Connections>
        <Con id="11" src="0" tgt="8" wght="-3.4760047895020008" />
        <Con id="31" src="0" tgt="7" wght="-3.1364943922260733" />
        <Con id="45" src="3" tgt="7" wght="4.2450529918136652" />
        <Con id="46" src="6" tgt="8" wght="-4.7844087330623593" />
      </Connections>
    </Network>
    <Network id="3894" birthGen="97" fitness="2.565122127532959">
      <Nodes>
        <Node type="bias" id="0" />
        <Node type="in" id="1" />
        <Node type="in" id="2" />
        <Node type="in" id="3" />
        <Node type="in" id="4" />
        <Node type="in" id="5" />
        <Node type="in" id="6" />
        <Node type="out" id="7" />
        <Node type="out" id="8" />
        <Node type="out" id="9" />
      </Nodes>
      <Connections>
        <Con id="11" src="0" tgt="8" wght="-4.3124186054231171" />
        <Con id="31" src="0" tgt="7" wght="-3.1364943922260733" />
        <Con id="45" src="3" tgt="7" wght="4.0417807684879117" />
        <Con id="46" src="6" tgt="8" wght="-5" />
      </Connections>
    </Network>
    <Network id="3895" birthGen="97" fitness="2.2616784572601318">
      <Nodes>
        <Node type="bias" id="0" />
        <Node type="in" id="1" />
        <Node type="in" id="2" />
        <Node type="in" id="3" />
        <Node type="in" id="4" />
        <Node type="in" id="5" />
        <Node type="in" id="6" />
        <Node type="out" id="7" />
        <Node type="out" id="8" />
        <Node type="out" id="9" />
      </Nodes>
      <Connections>
        <Con id="11" src="0" tgt="8" wght="3.3794930175465741" />
        <Con id="31" src="0" tgt="7" wght="-3.8464534263647439" />
        <Con id="35" src="2" tgt="8" wght="0.82916955252598634" />
        <Con id="45" src="3" tgt="7" wght="5" />
        <Con id="46" src="6" tgt="8" wght="-4.9628782943640539" />
      </Connections>
    </Network>
    <Network id="3896" birthGen="97" fitness="2.6762957572937012">
      <Nodes>
        <Node type="bias" id="0" />
        <Node type="in" id="1" />
        <Node type="in" id="2" />
        <Node type="in" id="3" />
        <Node type="in" id="4" />
        <Node type="in" id="5" />
        <Node type="in" id="6" />
        <Node type="out" id="7" />
        <Node type="out" id="8" />
        <Node type="out" id="9" />
      </Nodes>
      <Connections>
        <Con id="11" src="0" tgt="8" wght="3.3660519114219412" />
        <Con id="31" src="0" tgt="7" wght="-5" />
        <Con id="35" src="2" tgt="8" wght="0.82916955252598634" />
        <Con id="45" src="3" tgt="7" wght="5" />
        <Con id="46" src="6" tgt="8" wght="-4.9628782943640539" />
      </Connections>
    </Network>
    <Network id="3897" birthGen="97" fitness="0.23316065967082977">
      <Nodes>
        <Node type="bias" id="0" />
        <Node type="in" id="1" />
        <Node type="in" id="2" />
        <Node type="in" id="3" />
        <Node type="in" id="4" />
        <Node type="in" id="5" />
        <Node type="in" id="6" />
        <Node type="out" id="7" />
        <Node type="out" id="8" />
        <Node type="out" id="9" />
      </Nodes>
      <Connections>
        <Con id="11" src="0" tgt="8" wght="3.3794930175465741" />
        <Con id="31" src="0" tgt="7" wght="-5" />
        <Con id="35" src="2" tgt="8" wght="0.82916955252598634" />
        <Con id="45" src="3" tgt="7" wght="5" />
        <Con id="46" src="6" tgt="8" wght="-4.9533650112382057" />
      </Connections>
    </Network>
    <Network id="3898" birthGen="97" fitness="2.256458044052124">
      <Nodes>
        <Node type="bias" id="0" />
        <Node type="in" id="1" />
        <Node type="in" id="2" />
        <Node type="in" id="3" />
        <Node type="in" id="4" />
        <Node type="in" id="5" />
        <Node type="in" id="6" />
        <Node type="out" id="7" />
        <Node type="out" id="8" />
        <Node type="out" id="9" />
      </Nodes>
      <Connections>
        <Con id="11" src="0" tgt="8" wght="3.3794930175465741" />
        <Con id="31" src="0" tgt="7" wght="-2.9152505689998849" />
        <Con id="35" src="2" tgt="8" wght="0.82916955252598634" />
        <Con id="45" src="3" tgt="7" wght="5" />
        <Con id="46" src="6" tgt="8" wght="-4.9628782943640539" />
      </Connections>
    </Network>
    <Network id="3899" birthGen="97" fitness="0.51509171724319458">
      <Nodes>
        <Node type="bias" id="0" />
        <Node type="in" id="1" />
        <Node type="in" id="2" />
        <Node type="in" id="3" />
        <Node type="in" id="4" />
        <Node type="in" id="5" />
        <Node type="in" id="6" />
        <Node type="out" id="7" />
        <Node type="out" id="8" />
        <Node type="out" id="9" />
      </Nodes>
      <Connections>
        <Con id="11" src="0" tgt="8" wght="2.5527246994897723" />
        <Con id="31" src="0" tgt="7" wght="-1.3393657607957721" />
        <Con id="35" src="2" tgt="8" wght="0.82916955252598634" />
        <Con id="45" src="3" tgt="7" wght="5" />
        <Con id="46" src="6" tgt="8" wght="3.6442113714292645" />
      </Connections>
    </Network>
    <Network id="3900" birthGen="97" fitness="2.7511618137359619">
      <Nodes>
        <Node type="bias" id="0" />
        <Node type="in" id="1" />
        <Node type="in" id="2" />
        <Node type="in" id="3" />
        <Node type="in" id="4" />
        <Node type="in" id="5" />
        <Node type="in" id="6" />
        <Node type="out" id="7" />
        <Node type="out" id="8" />
        <Node type="out" id="9" />
      </Nodes>
      <Connections>
        <Con id="11" src="0" tgt="8" wght="5" />
        <Con id="31" src="0" tgt="7" wght="-3.2846918622341295" />
        <Con id="45" src="3" tgt="7" wght="3.572421067078746" />
        <Con id="46" src="6" tgt="8" wght="0.40122735292556538" />
      </Connections>
    </Network>
    <Network id="3901" birthGen="97" fitness="2.1990897655487061">
      <Nodes>
        <Node type="bias" id="0" />
        <Node type="in" id="1" />
        <Node type="in" id="2" />
        <Node type="in" id="3" />
        <Node type="in" id="4" />
        <Node type="in" id="5" />
        <Node type="in" id="6" />
        <Node type="out" id="7" />
        <Node type="out" id="8" />
        <Node type="out" id="9" />
      </Nodes>
      <Connections>
        <Con id="11" src="0" tgt="8" wght="4.9617227017566758" />
        <Con id="31" src="0" tgt="7" wght="-3.2846918622341295" />
        <Con id="45" src="3" tgt="7" wght="3.572421067078746" />
        <Con id="46" src="6" tgt="8" wght="0.40122735292556538" />
      </Connections>
    </Network>
    <Network id="3902" birthGen="97" fitness="2.4870755672454834">
      <Nodes>
        <Node type="bias" id="0" />
        <Node type="in" id="1" />
        <Node type="in" id="2" />
        <Node type="in" id="3" />
        <Node type="in" id="4" />
        <Node type="in" id="5" />
        <Node type="in" id="6" />
        <Node type="out" id="7" />
        <Node type="out" id="8" />
        <Node type="out" id="9" />
      </Nodes>
      <Connections>
        <Con id="11" src="0" tgt="8" wght="4.95770433764599" />
        <Con id="31" src="0" tgt="7" wght="-3.0497615156862308" />
        <Con id="45" src="3" tgt="7" wght="3.572421067078746" />
        <Con id="46" src="6" tgt="8" wght="0.40122735292556538" />
      </Connections>
    </Network>
    <Network id="3903" birthGen="97" fitness="2.752030611038208">
      <Nodes>
        <Node type="bias" id="0" />
        <Node type="in" id="1" />
        <Node type="in" id="2" />
        <Node type="in" id="3" />
        <Node type="in" id="4" />
        <Node type="in" id="5" />
        <Node type="in" id="6" />
        <Node type="out" id="7" />
        <Node type="out" id="8" />
        <Node type="out" id="9" />
      </Nodes>
      <Connections>
        <Con id="11" src="0" tgt="8" wght="3.1803240350336175" />
        <Con id="31" src="0" tgt="7" wght="-2.3704623134781557" />
        <Con id="45" src="3" tgt="7" wght="3.572421067078746" />
        <Con id="46" src="6" tgt="8" wght="0.40122735292556538" />
      </Connections>
    </Network>
    <Network id="3904" birthGen="97" fitness="2.5502161979675293">
      <Nodes>
        <Node type="bias" id="0" />
        <Node type="in" id="1" />
        <Node type="in" id="2" />
        <Node type="in" id="3" />
        <Node type="in" id="4" />
        <Node type="in" id="5" />
        <Node type="in" id="6" />
        <Node type="out" id="7" />
        <Node type="out" id="8" />
        <Node type="out" id="9" />
      </Nodes>
      <Connections>
        <Con id="11" src="0" tgt="8" wght="4.5607487235682074" />
        <Con id="31" src="0" tgt="7" wght="-2.5143331098280992" />
        <Con id="45" src="3" tgt="7" wght="3.385101877942402" />
        <Con id="46" src="6" tgt="8" wght="0.40122735292556538" />
      </Connections>
    </Network>
    <Network id="3905" birthGen="97" fitness="2.5367321968078613">
      <Nodes>
        <Node type="bias" id="0" />
        <Node type="in" id="1" />
        <Node type="in" id="2" />
        <Node type="in" id="3" />
        <Node type="in" id="4" />
        <Node type="in" id="5" />
        <Node type="in" id="6" />
        <Node type="out" id="7" />
        <Node type="out" id="8" />
        <Node type="out" id="9" />
      </Nodes>
      <Connections>
        <Con id="11" src="0" tgt="8" wght="4.9551022836161591" />
        <Con id="31" src="0" tgt="7" wght="-3.2643630383770148" />
        <Con id="45" src="3" tgt="7" wght="4.0010025603169135" />
        <Con id="46" src="6" tgt="8" wght="1.163440363589876" />
      </Connections>
    </Network>
    <Network id="3906" birthGen="97" fitness="2.5019593238830566">
      <Nodes>
        <Node type="bias" id="0" />
        <Node type="in" id="1" />
        <Node type="in" id="2" />
        <Node type="in" id="3" />
        <Node type="in" id="4" />
        <Node type="in" id="5" />
        <Node type="in" id="6" />
        <Node type="out" id="7" />
        <Node type="out" id="8" />
        <Node type="out" id="9" />
      </Nodes>
      <Connections>
        <Con id="11" src="0" tgt="8" wght="4.9749115298568478" />
        <Con id="31" src="0" tgt="7" wght="-3.2643630383770148" />
        <Con id="45" src="3" tgt="7" wght="3.572421067078746" />
        <Con id="46" src="6" tgt="8" wght="0.4316211848278283" />
      </Connections>
    </Network>
    <Network id="3907" birthGen="97" fitness="2.7111129760742188">
      <Nodes>
        <Node type="bias" id="0" />
        <Node type="in" id="1" />
        <Node type="in" id="2" />
        <Node type="in" id="3" />
        <Node type="in" id="4" />
        <Node type="in" id="5" />
        <Node type="in" id="6" />
        <Node type="out" id="7" />
        <Node type="out" id="8" />
        <Node type="out" id="9" />
      </Nodes>
      <Connections>
        <Con id="11" src="0" tgt="8" wght="5" />
        <Con id="31" src="0" tgt="7" wght="-2.8520632702038498" />
        <Con id="45" src="3" tgt="7" wght="3.572421067078746" />
        <Con id="46" src="6" tgt="8" wght="1.4155377020017819" />
      </Connections>
    </Network>
    <Network id="3908" birthGen="97" fitness="2.5505931377410889">
      <Nodes>
        <Node type="bias" id="0" />
        <Node type="in" id="1" />
        <Node type="in" id="2" />
        <Node type="in" id="3" />
        <Node type="in" id="4" />
        <Node type="in" id="5" />
        <Node type="in" id="6" />
        <Node type="out" id="7" />
        <Node type="out" id="8" />
        <Node type="out" id="9" />
      </Nodes>
      <Connections>
        <Con id="11" src="0" tgt="8" wght="4.9551022836161591" />
        <Con id="31" src="0" tgt="7" wght="-3.2643630383770148" />
        <Con id="45" src="3" tgt="7" wght="3.7022001960756397" />
        <Con id="46" src="6" tgt="8" wght="0.4316211848278283" />
      </Connections>
    </Network>
    <Network id="3909" birthGen="97" fitness="2.7012262344360352">
      <Nodes>
        <Node type="bias" id="0" />
        <Node type="in" id="1" />
        <Node type="in" id="2" />
        <Node type="in" id="3" />
        <Node type="in" id="4" />
        <Node type="in" id="5" />
        <Node type="in" id="6" />
        <Node type="out" id="7" />
        <Node type="out" id="8" />
        <Node type="out" id="9" />
      </Nodes>
      <Connections>
        <Con id="11" src="0" tgt="8" wght="4.9551022836161591" />
        <Con id="31" src="0" tgt="7" wght="-3.2446233972664125" />
        <Con id="45" src="3" tgt="7" wght="3.572421067078746" />
        <Con id="46" src="6" tgt="8" wght="0.4316211848278283" />
      </Connections>
    </Network>
    <Network id="3910" birthGen="97" fitness="2.4591102600097656">
      <Nodes>
        <Node type="bias" id="0" />
        <Node type="in" id="1" />
        <Node type="in" id="2" />
        <Node type="in" id="3" />
        <Node type="in" id="4" />
        <Node type="in" id="5" />
        <Node type="in" id="6" />
        <Node type="out" id="7" />
        <Node type="out" id="8" />
        <Node type="out" id="9" />
      </Nodes>
      <Connections>
        <Con id="11" src="0" tgt="8" wght="4.9551022836161591" />
        <Con id="31" src="0" tgt="7" wght="-3.2643630383770148" />
        <Con id="45" src="3" tgt="7" wght="3.6690246278332284" />
        <Con id="46" src="6" tgt="8" wght="0.4316211848278283" />
      </Connections>
    </Network>
    <Network id="3911" birthGen="97" fitness="2.8270139694213867">
      <Nodes>
        <Node type="bias" id="0" />
        <Node type="in" id="1" />
        <Node type="in" id="2" />
        <Node type="in" id="3" />
        <Node type="in" id="4" />
        <Node type="in" id="5" />
        <Node type="in" id="6" />
        <Node type="out" id="7" />
        <Node type="out" id="8" />
        <Node type="out" id="9" />
      </Nodes>
      <Connections>
        <Con id="11" src="0" tgt="8" wght="-1.8255725084558292" />
        <Con id="31" src="0" tgt="7" wght="-2.1696157566197858" />
        <Con id="42" src="3" tgt="8" wght="-0.54205493977963148" />
        <Con id="43" src="6" tgt="7" wght="4.8543943730985815" />
        <Con id="45" src="3" tgt="7" wght="3.6308242493464102" />
        <Con id="46" src="6" tgt="8" wght="-4.9866577031947852" />
      </Connections>
    </Network>
    <Network id="3912" birthGen="97" fitness="0.46835660934448242">
      <Nodes>
        <Node type="bias" id="0" />
        <Node type="in" id="1" />
        <Node type="in" id="2" />
        <Node type="in" id="3" />
        <Node type="in" id="4" />
        <Node type="in" id="5" />
        <Node type="in" id="6" />
        <Node type="out" id="7" />
        <Node type="out" id="8" />
        <Node type="out" id="9" />
      </Nodes>
      <Connections>
        <Con id="11" src="0" tgt="8" wght="-1.8255725084558292" />
        <Con id="31" src="0" tgt="7" wght="-2.4386891683003595" />
        <Con id="42" src="3" tgt="8" wght="-0.78353231756940089" />
        <Con id="43" src="6" tgt="7" wght="4.4423866923898458" />
        <Con id="45" src="3" tgt="7" wght="0.56061463430523872" />
        <Con id="46" src="6" tgt="8" wght="-4.9866577031947852" />
      </Connections>
    </Network>
    <Network id="3913" birthGen="97" fitness="2.7522530555725098">
      <Nodes>
        <Node type="bias" id="0" />
        <Node type="in" id="1" />
        <Node type="in" id="2" />
        <Node type="in" id="3" />
        <Node type="in" id="4" />
        <Node type="in" id="5" />
        <Node type="in" id="6" />
        <Node type="out" id="7" />
        <Node type="out" id="8" />
        <Node type="out" id="9" />
      </Nodes>
      <Connections>
        <Con id="11" src="0" tgt="8" wght="-1.8255725084558292" />
        <Con id="31" src="0" tgt="7" wght="-2.4386891683003595" />
        <Con id="42" src="3" tgt="8" wght="0.17370151757060459" />
        <Con id="43" src="6" tgt="7" wght="4.4423866923898458" />
        <Con id="45" src="3" tgt="7" wght="3.6308242493464102" />
        <Con id="46" src="6" tgt="8" wght="-4.9866577031947852" />
      </Connections>
    </Network>
    <Network id="3914" birthGen="97" fitness="0.71495592594146729">
      <Nodes>
        <Node type="bias" id="0" />
        <Node type="in" id="1" />
        <Node type="in" id="2" />
        <Node type="in" id="3" />
        <Node type="in" id="4" />
        <Node type="in" id="5" />
        <Node type="in" id="6" />
        <Node type="out" id="7" />
        <Node type="out" id="8" />
        <Node type="out" id="9" />
      </Nodes>
      <Connections>
        <Con id="11" src="0" tgt="8" wght="-3.11629662742849" />
        <Con id="31" src="0" tgt="7" wght="-1.1350584022007655" />
        <Con id="42" src="3" tgt="8" wght="-1.9282398640341656" />
        <Con id="45" src="3" tgt="7" wght="3.4192912085068086" />
        <Con id="46" src="6" tgt="8" wght="-5" />
      </Connections>
    </Network>
    <Network id="3915" birthGen="97" fitness="2.5875699520111084">
      <Nodes>
        <Node type="bias" id="0" />
        <Node type="in" id="1" />
        <Node type="in" id="2" />
        <Node type="in" id="3" />
        <Node type="in" id="4" />
        <Node type="in" id="5" />
        <Node type="in" id="6" />
        <Node type="out" id="7" />
        <Node type="out" id="8" />
        <Node type="out" id="9" />
      </Nodes>
      <Connections>
        <Con id="11" src="0" tgt="8" wght="-3.11629662742849" />
        <Con id="31" src="0" tgt="7" wght="-2.3355542176505062" />
        <Con id="42" src="3" tgt="8" wght="-2.6829175017888169" />
        <Con id="45" src="3" tgt="7" wght="3.4192912085068086" />
        <Con id="46" src="6" tgt="8" wght="-5" />
      </Connections>
    </Network>
    <Network id="3916" birthGen="97" fitness="0.48461395502090454">
      <Nodes>
        <Node type="bias" id="0" />
        <Node type="in" id="1" />
        <Node type="in" id="2" />
        <Node type="in" id="3" />
        <Node type="in" id="4" />
        <Node type="in" id="5" />
        <Node type="in" id="6" />
        <Node type="out" id="7" />
        <Node type="out" id="8" />
        <Node type="out" id="9" />
      </Nodes>
      <Connections>
        <Con id="11" src="0" tgt="8" wght="-3.11629662742849" />
        <Con id="31" src="0" tgt="7" wght="-1.1524739315259207" />
        <Con id="42" src="3" tgt="8" wght="-1.9282398640341656" />
        <Con id="45" src="3" tgt="7" wght="4.9376358405519465" />
        <Con id="46" src="6" tgt="8" wght="-5" />
      </Connections>
    </Network>
    <Network id="3917" birthGen="97" fitness="0.531235933303833">
      <Nodes>
        <Node type="bias" id="0" />
        <Node type="in" id="1" />
        <Node type="in" id="2" />
        <Node type="in" id="3" />
        <Node type="in" id="4" />
        <Node type="in" id="5" />
        <Node type="in" id="6" />
        <Node type="out" id="7" />
        <Node type="out" id="8" />
        <Node type="out" id="9" />
      </Nodes>
      <Connections>
        <Con id="11" src="0" tgt="8" wght="-1.8237530488984119" />
        <Con id="31" src="0" tgt="7" wght="-1.2943660283338838" />
        <Con id="32" src="4" tgt="7" wght="-3.296549036167562" />
        <Con id="42" src="3" tgt="8" wght="-0.78353231756940089" />
        <Con id="43" src="6" tgt="7" wght="4.4583383944659536" />
        <Con id="45" src="3" tgt="7" wght="2.988060799621683" />
        <Con id="46" src="6" tgt="8" wght="-4.40221469162753" />
      </Connections>
    </Network>
    <Network id="3918" birthGen="97" fitness="0.49450573325157166">
      <Nodes>
        <Node type="bias" id="0" />
        <Node type="in" id="1" />
        <Node type="in" id="2" />
        <Node type="in" id="3" />
        <Node type="in" id="4" />
        <Node type="in" id="5" />
        <Node type="in" id="6" />
        <Node type="out" id="7" />
        <Node type="out" id="8" />
        <Node type="out" id="9" />
        <Node type="hid" id="47" />
      </Nodes>
      <Connections>
        <Con id="11" src="0" tgt="8" wght="4.9644058091497154" />
        <Con id="31" src="0" tgt="7" wght="2.9874823847785592" />
        <Con id="45" src="3" tgt="7" wght="-0.75203647837042809" />
        <Con id="48" src="6" tgt="47" wght="-0.6335289403796196" />
        <Con id="49" src="47" tgt="8" wght="4.147163387405163" />
      </Connections>
    </Network>
    <Network id="3919" birthGen="97" fitness="2.3370828628540039">
      <Nodes>
        <Node type="bias" id="0" />
        <Node type="in" id="1" />
        <Node type="in" id="2" />
        <Node type="in" id="3" />
        <Node type="in" id="4" />
        <Node type="in" id="5" />
        <Node type="in" id="6" />
        <Node type="out" id="7" />
        <Node type="out" id="8" />
        <Node type="out" id="9" />
        <Node type="hid" id="47" />
      </Nodes>
      <Connections>
        <Con id="11" src="0" tgt="8" wght="5" />
        <Con id="31" src="0" tgt="7" wght="-2.7773426176999529" />
        <Con id="45" src="3" tgt="7" wght="3.5635607427025406" />
        <Con id="48" src="6" tgt="47" wght="2.0845530423791758" />
        <Con id="49" src="47" tgt="8" wght="2.9538583199975514" />
      </Connections>
    </Network>
    <Network id="3920" birthGen="97" fitness="2.7409236431121826">
      <Nodes>
        <Node type="bias" id="0" />
        <Node type="in" id="1" />
        <Node type="in" id="2" />
        <Node type="in" id="3" />
        <Node type="in" id="4" />
        <Node type="in" id="5" />
        <Node type="in" id="6" />
        <Node type="out" id="7" />
        <Node type="out" id="8" />
        <Node type="out" id="9" />
        <Node type="hid" id="47" />
      </Nodes>
      <Connections>
        <Con id="11" src="0" tgt="8" wght="4.9837475736537673" />
        <Con id="31" src="0" tgt="7" wght="-3.2563031165873779" />
        <Con id="45" src="3" tgt="7" wght="3.5635607427025406" />
        <Con id="48" src="6" tgt="47" wght="2.0845530423791758" />
        <Con id="49" src="47" tgt="8" wght="4.147163387405163" />
      </Connections>
    </Network>
    <Network id="3921" birthGen="97" fitness="2.4066705703735352">
      <Nodes>
        <Node type="bias" id="0" />
        <Node type="in" id="1" />
        <Node type="in" id="2" />
        <Node type="in" id="3" />
        <Node type="in" id="4" />
        <Node type="in" id="5" />
        <Node type="in" id="6" />
        <Node type="out" id="7" />
        <Node type="out" id="8" />
        <Node type="out" id="9" />
        <Node type="hid" id="47" />
      </Nodes>
      <Connections>
        <Con id="11" src="0" tgt="8" wght="4.9644058091497154" />
        <Con id="31" src="0" tgt="7" wght="-4.0950539446834462" />
        <Con id="45" src="3" tgt="7" wght="4.5521650453338038" />
        <Con id="48" src="6" tgt="47" wght="2.0845530423791758" />
        <Con id="49" src="47" tgt="8" wght="4.147163387405163" />
      </Connections>
    </Network>
    <Network id="3922" birthGen="97" fitness="0.50090235471725464">
      <Nodes>
        <Node type="bias" id="0" />
        <Node type="in" id="1" />
        <Node type="in" id="2" />
        <Node type="in" id="3" />
        <Node type="in" id="4" />
        <Node type="in" id="5" />
        <Node type="in" id="6" />
        <Node type="out" id="7" />
        <Node type="out" id="8" />
        <Node type="out" id="9" />
        <Node type="hid" id="47" />
      </Nodes>
      <Connections>
        <Con id="11" src="0" tgt="8" wght="4.9644058091497154" />
        <Con id="31" src="0" tgt="7" wght="-3.8978573289089837" />
        <Con id="45" src="3" tgt="7" wght="3.5635607427025406" />
        <Con id="48" src="6" tgt="47" wght="1.4803720574665125" />
        <Con id="49" src="47" tgt="8" wght="4.147163387405163" />
      </Connections>
    </Network>
    <Network id="3923" birthGen="97" fitness="2.5790619850158691">
      <Nodes>
        <Node type="bias" id="0" />
        <Node type="in" id="1" />
        <Node type="in" id="2" />
        <Node type="in" id="3" />
        <Node type="in" id="4" />
        <Node type="in" id="5" />
        <Node type="in" id="6" />
        <Node type="out" id="7" />
        <Node type="out" id="8" />
        <Node type="out" id="9" />
        <Node type="hid" id="47" />
      </Nodes>
      <Connections>
        <Con id="11" src="0" tgt="8" wght="2.850459684873683" />
        <Con id="31" src="0" tgt="7" wght="-2.7542578428635967" />
        <Con id="42" src="3" tgt="8" wght="0.757430561967299" />
        <Con id="45" src="3" tgt="7" wght="3.5932628948396244" />
        <Con id="46" src="6" tgt="8" wght="-4.2386059695854783" />
        <Con id="48" src="6" tgt="47" wght="1.6630800845280538" />
        <Con id="49" src="47" tgt="8" wght="4.6296495338901877" />
        <Con id="50" src="0" tgt="9" wght="4.3138745075128524" />
      </Connections>
    </Network>
    <Network id="3924" birthGen="97" fitness="2.5902175903320313">
      <Nodes>
        <Node type="bias" id="0" />
        <Node type="in" id="1" />
        <Node type="in" id="2" />
        <Node type="in" id="3" />
        <Node type="in" id="4" />
        <Node type="in" id="5" />
        <Node type="in" id="6" />
        <Node type="out" id="7" />
        <Node type="out" id="8" />
        <Node type="out" id="9" />
        <Node type="hid" id="47" />
      </Nodes>
      <Connections>
        <Con id="11" src="0" tgt="8" wght="2.850459684873683" />
        <Con id="31" src="0" tgt="7" wght="-2.7542578428635967" />
        <Con id="42" src="3" tgt="8" wght="0.757430561967299" />
        <Con id="45" src="3" tgt="7" wght="3.5932628948396244" />
        <Con id="46" src="6" tgt="8" wght="-4.2386059695854783" />
        <Con id="48" src="6" tgt="47" wght="1.6630800845280538" />
        <Con id="49" src="47" tgt="8" wght="4.619189028469151" />
        <Con id="50" src="0" tgt="9" wght="4.3058016384020448" />
      </Connections>
    </Network>
    <Network id="3925" birthGen="97" fitness="2.55326247215271">
      <Nodes>
        <Node type="bias" id="0" />
        <Node type="in" id="1" />
        <Node type="in" id="2" />
        <Node type="in" id="3" />
        <Node type="in" id="4" />
        <Node type="in" id="5" />
        <Node type="in" id="6" />
        <Node type="out" id="7" />
        <Node type="out" id="8" />
        <Node type="out" id="9" />
        <Node type="hid" id="47" />
      </Nodes>
      <Connections>
        <Con id="11" src="0" tgt="8" wght="2.850459684873683" />
        <Con id="31" src="0" tgt="7" wght="-2.7542578428635967" />
        <Con id="42" src="3" tgt="8" wght="3.2867746241390705" />
        <Con id="45" src="3" tgt="7" wght="3.5932628948396244" />
        <Con id="46" src="6" tgt="8" wght="-0.27439065743237734" />
        <Con id="48" src="6" tgt="47" wght="1.6630800845280538" />
        <Con id="49" src="47" tgt="8" wght="4.6296495338901877" />
        <Con id="50" src="0" tgt="9" wght="-4.96303535066545" />
      </Connections>
    </Network>
    <Network id="3926" birthGen="97" fitness="2.726466178894043">
      <Nodes>
        <Node type="bias" id="0" />
        <Node type="in" id="1" />
        <Node type="in" id="2" />
        <Node type="in" id="3" />
        <Node type="in" id="4" />
        <Node type="in" id="5" />
        <Node type="in" id="6" />
        <Node type="out" id="7" />
        <Node type="out" id="8" />
        <Node type="out" id="9" />
        <Node type="hid" id="47" />
      </Nodes>
      <Connections>
        <Con id="11" src="0" tgt="8" wght="2.850459684873683" />
        <Con id="31" src="0" tgt="7" wght="-2.7542578428635967" />
        <Con id="42" src="3" tgt="8" wght="0.757430561967299" />
        <Con id="45" src="3" tgt="7" wght="3.5932628948396244" />
        <Con id="46" src="6" tgt="8" wght="-4.2683513937851725" />
        <Con id="48" src="6" tgt="47" wght="1.6630800845280538" />
        <Con id="49" src="47" tgt="8" wght="4.6296495338901877" />
        <Con id="50" src="0" tgt="9" wght="4.3058016384020448" />
      </Connections>
    </Network>
    <Network id="3927" birthGen="97" fitness="2.5688731670379639">
      <Nodes>
        <Node type="bias" id="0" />
        <Node type="in" id="1" />
        <Node type="in" id="2" />
        <Node type="in" id="3" />
        <Node type="in" id="4" />
        <Node type="in" id="5" />
        <Node type="in" id="6" />
        <Node type="out" id="7" />
        <Node type="out" id="8" />
        <Node type="out" id="9" />
        <Node type="hid" id="47" />
      </Nodes>
      <Connections>
        <Con id="11" src="0" tgt="8" wght="2.850459684873683" />
        <Con id="31" src="0" tgt="7" wght="-2.7542578428635967" />
        <Con id="42" src="3" tgt="8" wght="0.757430561967299" />
        <Con id="45" src="3" tgt="7" wght="3.6028478461582822" />
        <Con id="46" src="6" tgt="8" wght="-4.2386059695854783" />
        <Con id="48" src="6" tgt="47" wght="1.6630800845280538" />
        <Con id="49" src="47" tgt="8" wght="4.6296495338901877" />
        <Con id="50" src="0" tgt="9" wght="4.3058016384020448" />
      </Connections>
    </Network>
    <Network id="3928" birthGen="97" fitness="2.7896049022674561">
      <Nodes>
        <Node type="bias" id="0" />
        <Node type="in" id="1" />
        <Node type="in" id="2" />
        <Node type="in" id="3" />
        <Node type="in" id="4" />
        <Node type="in" id="5" />
        <Node type="in" id="6" />
        <Node type="out" id="7" />
        <Node type="out" id="8" />
        <Node type="out" id="9" />
        <Node type="hid" id="47" />
      </Nodes>
      <Connections>
        <Con id="11" src="0" tgt="8" wght="2.850459684873683" />
        <Con id="31" src="0" tgt="7" wght="-2.7542578428635967" />
        <Con id="42" src="3" tgt="8" wght="0.757430561967299" />
        <Con id="45" src="3" tgt="7" wght="3.5932628948396244" />
        <Con id="46" src="6" tgt="8" wght="-5" />
        <Con id="48" src="6" tgt="47" wght="1.6630800845280538" />
        <Con id="49" src="47" tgt="8" wght="4.6296495338901877" />
        <Con id="50" src="0" tgt="9" wght="3.2789376284510396" />
      </Connections>
    </Network>
    <Network id="3929" birthGen="97" fitness="0.47513648867607117">
      <Nodes>
        <Node type="bias" id="0" />
        <Node type="in" id="1" />
        <Node type="in" id="2" />
        <Node type="in" id="3" />
        <Node type="in" id="4" />
        <Node type="in" id="5" />
        <Node type="in" id="6" />
        <Node type="out" id="7" />
        <Node type="out" id="8" />
        <Node type="out" id="9" />
        <Node type="hid" id="47" />
      </Nodes>
      <Connections>
        <Con id="11" src="0" tgt="8" wght="-4.3700965726748109" />
        <Con id="31" src="0" tgt="7" wght="1.9342433335259557" />
        <Con id="42" src="3" tgt="8" wght="0.757430561967299" />
        <Con id="45" src="3" tgt="7" wght="3.5871263540859712" />
        <Con id="46" src="6" tgt="8" wght="-2.6748353219605452" />
        <Con id="48" src="6" tgt="47" wght="1.6630800845280538" />
        <Con id="49" src="47" tgt="8" wght="5" />
        <Con id="50" src="0" tgt="9" wght="4.274369491263438" />
      </Connections>
    </Network>
    <Network id="3930" birthGen="97" fitness="2.3782138824462891">
      <Nodes>
        <Node type="bias" id="0" />
        <Node type="in" id="1" />
        <Node type="in" id="2" />
        <Node type="in" id="3" />
        <Node type="in" id="4" />
        <Node type="in" id="5" />
        <Node type="in" id="6" />
        <Node type="out" id="7" />
        <Node type="out" id="8" />
        <Node type="out" id="9" />
        <Node type="hid" id="47" />
      </Nodes>
      <Connections>
        <Con id="11" src="0" tgt="8" wght="-0.59820667367399261" />
        <Con id="31" src="0" tgt="7" wght="-3.2961306413695772" />
        <Con id="42" src="3" tgt="8" wght="0.757430561967299" />
        <Con id="45" src="3" tgt="7" wght="3.5871263540859712" />
        <Con id="46" src="6" tgt="8" wght="-2.6748353219605452" />
        <Con id="48" src="6" tgt="47" wght="1.6630800845280538" />
        <Con id="49" src="47" tgt="8" wght="5" />
        <Con id="50" src="0" tgt="9" wght="4.274369491263438" />
      </Connections>
    </Network>
    <Network id="3931" birthGen="97" fitness="2.7394742965698242">
      <Nodes>
        <Node type="bias" id="0" />
        <Node type="in" id="1" />
        <Node type="in" id="2" />
        <Node type="in" id="3" />
        <Node type="in" id="4" />
        <Node type="in" id="5" />
        <Node type="in" id="6" />
        <Node type="out" id="7" />
        <Node type="out" id="8" />
        <Node type="out" id="9" />
        <Node type="hid" id="47" />
      </Nodes>
      <Connections>
        <Con id="11" src="0" tgt="8" wght="-0.59820667367399261" />
        <Con id="31" src="0" tgt="7" wght="-3.3342880460905278" />
        <Con id="42" src="3" tgt="8" wght="0.757430561967299" />
        <Con id="45" src="3" tgt="7" wght="3.5871263540859712" />
        <Con id="46" src="6" tgt="8" wght="-2.6714727765679953" />
        <Con id="48" src="6" tgt="47" wght="1.6630800845280538" />
        <Con id="49" src="47" tgt="8" wght="5" />
        <Con id="50" src="0" tgt="9" wght="4.274369491263438" />
      </Connections>
    </Network>
  </Networks>
</Root>